


    // !!! This file is generated using emlearn !!!

    #include <eml_trees.h>
    

EmlTreesNode RandomForestClassifier_nodes[14786] = {
  { 118, -0.4978480339050293, 1, 23 },
  { 944, -0.01103922724723816, 2, 11 },
  { 574, -0.7174729406833649, 3, 14 },
  { 941, -0.4472276270389557, 4, 13 },
  { 365, -0.4404712915420532, 5, 6 },
  { -1, 1, -1, -1 },
  { 966, -0.6247804462909698, 7, 12 },
  { 868, -0.4041980504989624, 8, 11 },
  { 683, -0.5351313650608063, 9, 10 },
  { -1, 2, -1, -1 },
  { -1, 8, -1, -1 },
  { -1, 0, -1, -1 },
  { 11, 0.03281702101230621, 13, 5 },
  { -1, 5, -1, -1 },
  { 181, -0.5324347615242004, 15, 20 },
  { 3, -0.7579195499420166, 16, 18 },
  { 1009, 1.4920797944068909, 17, 11 },
  { 967, 0.41961560770869255, 5, 13 },
  { 489, -0.2984233647584915, 19, 5 },
  { 695, -0.40163061022758484, 5, 9 },
  { 804, -0.346688374876976, 13, 21 },
  { 845, -0.45485275983810425, 10, 22 },
  { -1, 3, -1, -1 },
  { 246, 0.3467677980661392, 24, 134 },
  { 106, -0.1834685057401657, 25, 95 },
  { 1016, -0.6595186591148376, 26, 44 },
  { 437, -0.5220507681369781, 27, 33 },
  { 1022, -0.49266913533210754, 28, 32 },
  { 44, -0.796572208404541, 29, 30 },
  { -1, 7, -1, -1 },
  { 767, -0.3613521009683609, 31, 11 },
  { 82, -0.5204040557146072, 13, 9 },
  { 404, -0.33414365351200104, 10, 11 },
  { 788, -0.20962098985910416, 34, 40 },
  { 10, -0.5433726012706757, 22, 35 },
  { 458, -0.2808970659971237, 36, 37 },
  { -1, 4, -1, -1 },
  { 158, -0.2397887259721756, 38, 39 },
  { -1, 9, -1, -1 },
  { -1, 6, -1, -1 },
  { 517, -0.8559694886207581, 9, 41 },
  { 874, -0.40715914964675903, 42, 10 },
  { 819, -0.36983276903629303, 36, 43 },
  { 88, -0.4234817773103714, 13, 29 },
  { 845, -0.47009335458278656, 45, 64 },
  { 479, -0.5288324058055878, 46, 52 },
  { 645, -0.49782732129096985, 47, 48 },
  { 166, -0.5725688636302948, 38, 9 },
  { 864, -0.5091515183448792, 10, 49 },
  { 27, -0.6340320408344269, 50, 22 },
  { 100, -0.43151552975177765, 13, 51 },
  { 649, -0.44621793925762177, 36, 11 },
  { 92, -0.42888912558555603, 53, 60 },
  { 85, -0.029666047543287277, 54, 59 },
  { 538, -0.5627673715353012, 9, 55 },
  { 1010, -0.4732637256383896, 9, 56 },
  { 438, -0.5670911371707916, 9, 57 },
  { 347, -0.5675117671489716, 13, 58 },
  { 678, -0.522774413228035, 9, 13 },
  { 434, -0.3846731185913086, 10, 11 },
  { 602, -0.3249523192644119, 5, 61 },
  { 8, -0.08526934683322906, 11, 62 },
  { 598, -0.00946752354502678, 63, 9 },
  { 495, 0.1485908478498459, 13, 38 },
  { 896, 0.4134952127933502, 65, 10 },
  { 315, -0.23929892480373383, 66, 73 },
  { 664, -0.45321956276893616, 67, 70 },
  { 954, -0.58119136095047, 68, 69 },
  { 463, -0.46949543058872223, 36, 29 },
  { 331, -0.4947365075349808, 9, 38 },
  { 115, -0.24117976427078247, 71, 72 },
  { 905, -0.48900197446346283, 38, 11 },
  { 588, -0.47390563786029816, 39, 9 },
  { 517, -0.612120121717453, 74, 77 },
  { 433, -0.5708387792110443, 75, 22 },
  { 435, -0.6084397435188293, 10, 76 },
  { 182, -0.09073032438755035, 9, 13 },
  { 603, 0.39465250074863434, 78, 38 },
  { 551, -0.5602326393127441, 79, 83 },
  { 597, -0.5403237640857697, 80, 81 },
  { 934, -0.5984615981578827, 10, 38 },
  { 925, -0.3668687045574188, 82, 22 },
  { 510, -0.5422636866569519, 38, 29 },
  { 593, -0.5387009680271149, 84, 85 },
  { 502, -0.36986294388771057, 10, 9 },
  { 601, -0.2655895799398422, 86, 90 },
  { 430, -0.3796493411064148, 87, 88 },
  { 565, -0.38402611017227173, 10, 22 },
  { 378, -0.3134771138429642, 29, 89 },
  { 932, -0.16243036091327667, 9, 38 },
  { 389, -0.22450538724660873, 91, 36 },
  { 835, -0.33875852823257446, 13, 92 },
  { 519, -0.46654415130615234, 22, 93 },
  { 836, -0.25763075053691864, 10, 94 },
  { 912, -0.28765206784009933, 29, 38 },
  { 559, -0.4712095558643341, 96, 97 },
  { 771, -0.028353208675980568, 39, 13 },
  { 822, -0.2168389856815338, 98, 108 },
  { 496, -0.5686078071594238, 99, 102 },
  { 269, -0.3012973815202713, 100, 101 },
  { 713, -0.2998620569705963, 5, 22 },
  { 84, -0.19385087490081787, 38, 39 },
  { 634, -0.1621575802564621, 103, 107 },
  { 1007, -0.4227820336818695, 38, 104 },
  { 79, -0.17321225628256798, 36, 105 },
  { 572, 0.20698799192905426, 11, 106 },
  { 535, 0.003348216414451599, 39, 10 },
  { 850, -0.44487519562244415, 39, 11 },
  { 273, -0.12630198895931244, 22, 109 },
  { 87, 2.585136651992798, 110, 133 },
  { 771, -0.21572333574295044, 111, 124 },
  { 214, -0.21298246085643768, 112, 119 },
  { 34, -0.43852126598358154, 36, 113 },
  { 514, -0.6737233400344849, 38, 114 },
  { 535, -0.14439043402671814, 115, 117 },
  { 599, -0.22947122901678085, 116, 39 },
  { 396, 0.5751444650813937, 22, 36 },
  { 57, -0.04870922863483429, 38, 118 },
  { 859, 0.1259319819509983, 22, 11 },
  { 582, -0.2246491089463234, 120, 122 },
  { 213, -0.07165873050689697, 121, 13 },
  { 624, 0.16806036978960037, 29, 10 },
  { 652, -0.05258638225495815, 13, 123 },
  { 657, 1.5641023516654968, 22, 36 },
  { 867, -0.2299824357032776, 125, 126 },
  { 101, 0.13834821246564388, 39, 38 },
  { 911, 0.36813321709632874, 127, 130 },
  { 590, -0.28643959760665894, 36, 128 },
  { 256, -0.03150682803243399, 129, 29 },
  { 619, 0.41016269475221634, 9, 22 },
  { 999, -0.4744537025690079, 131, 132 },
  { 238, -0.12609364092350006, 36, 10 },
  { 248, -0.1523333564400673, 39, 36 },
  { 384, 0.16569238156080246, 13, 39 },
  { 1018, -0.1060517393052578, 135, 146 },
  { 398, 0.042101483792066574, 136, 141 },
  { 859, 0.3701798766851425, 137, 10 },
  { 768, 0.48285752534866333, 138, 139 },
  { 810, 0.06404927745461464, 38, 22 },
  { 711, 1.0419657826423645, 140, 9 },
  { 840, 0.6262467950582504, 13, 39 },
  { 541, 0.7427606880664825, 142, 22 },
  { 66, 0.669221043586731, 143, 144 },
  { 277, 0.4823034703731537, 38, 29 },
  { 942, 0.7704747021198273, 36, 145 },
  { 219, 9.030948281288147, 39, 10 },
  { 5, 1.412734568119049, 147, 154 },
  { 512, 0.1000751294195652, 148, 150 },
  { 50, -0.25821366906166077, 149, 29 },
  { 521, 0.9212344735860825, 22, 38 },
  { 952, 4.7361796498298645, 151, 36 },
  { 402, 0.9690682888031006, 152, 38 },
  { 611, -0.28406403958797455, 153, 29 },
  { 513, 0.7500729858875275, 29, 36 },
  { 904, 0.1688334122300148, 155, 156 },
  { 29, -0.37493830919265747, 29, 22 },
  { 612, 0.8429360389709473, 36, 29 },
  { 273, 0.20029254257678986, 158, 287 },
  { 351, -0.3251199573278427, 159, 183 },
  { 76, -0.418218657374382, 160, 181 },
  { 631, -0.5657159388065338, 161, 173 },
  { 3, -0.9147275388240814, 162, 163 },
  { 222, -0.2533169835805893, 9, 5 },
  { 237, -0.36740437150001526, 164, 168 },
  { 286, -0.19640815258026123, 165, 167 },
  { 464, -0.8201853632926941, 11, 166 },
  { 378, -0.3549312353134155, 5, 10 },
  { 1004, -0.6001905202865601, 13, 5 },
  { 80, -0.5796178877353668, 169, 171 },
  { 945, -0.5612069070339203, 170, 9 },
  { 78, -0.5657106041908264, 13, 5 },
  { 518, 1.4488027691841125, 172, 13 },
  { 933, -0.5708760619163513, 11, 9 },
  { 12, -0.35181568562984467, 174, 180 },
  { 693, -0.5484576523303986, 175, 11 },
  { 819, -0.40757425129413605, 176, 5 },
  { 852, -0.65675088763237, 13, 177 },
  { 770, -0.34168341755867004, 178, 9 },
  { 967, -0.6097072660923004, 179, 38 },
  { 495, -0.6703202426433563, 10, 11 },
  { 442, -0.08739254623651505, 13, 10 },
  { 458, -0.46706604957580566, 11, 182 },
  { 733, -0.3335118293762207, 13, 5 },
  { 434, 0.9463346600532532, 184, 281 },
  { 115, -0.4682023525238037, 185, 195 },
  { 436, -0.6652478575706482, 186, 187 },
  { 780, -0.38358041644096375, 10, 11 },
  { 644, -0.5749845504760742, 188, 190 },
  { 431, -0.6137018650770187, 13, 189 },
  { 617, -0.6052702367305756, 36, 22 },
  { 500, 0.1417500413954258, 191, 194 },
  { 132, -0.45784108340740204, 192, 193 },
  { 3, -0.5520692467689514, 11, 38 },
  { 722, -0.36397598683834076, 22, 10 },
  { 725, -0.2928725779056549, 9, 11 },
  { 733, -0.29029856622219086, 196, 244 },
  { 107, -0.1564294397830963, 197, 228 },
  { 877, -0.42355868220329285, 198, 213 },
  { 568, -0.27601779252290726, 199, 209 },
  { 343, -0.6352206468582153, 200, 203 },
  { 680, -0.6176241636276245, 9, 201 },
  { 340, -0.4944160282611847, 36, 202 },
  { 14, -0.5142988562583923, 10, 13 },
  { 330, -0.3351488709449768, 204, 208 },
  { 52, -0.3767046630382538, 205, 206 },
  { 562, -0.615769624710083, 36, 38 },
  { 766, -0.3384181708097458, 207, 5 },
  { 948, -0.5217924267053604, 10, 38 },
  { 44, -0.7155720889568329, 22, 10 },
  { 600, -0.44947347044944763, 210, 212 },
  { 23, -0.053852710872888565, 10, 211 },
  { 431, -0.35439005494117737, 36, 5 },
  { 59, 1.5021082311868668, 9, 38 },
  { 312, -0.33816324174404144, 214, 215 },
  { 284, -0.3374491333961487, 38, 11 },
  { 648, -0.13174638152122498, 216, 224 },
  { 5, -0.2256833091378212, 217, 218 },
  { 241, -0.1631767898797989, 22, 36 },
  { 870, -0.2532046213746071, 219, 223 },
  { 295, -0.26532481610774994, 39, 220 },
  { 197, -0.23835855722427368, 11, 221 },
  { 180, -0.2881983518600464, 222, 9 },
  { 219, -0.31668204069137573, 22, 36 },
  { 181, -0.4246123135089874, 11, 38 },
  { 932, -0.3319188505411148, 225, 227 },
  { 750, -0.3206798732280731, 226, 9 },
  { 495, -0.5367833077907562, 11, 10 },
  { 694, 0.17632820457220078, 38, 22 },
  { 855, -0.39004063606262207, 229, 232 },
  { 1010, -0.38797740638256073, 230, 11 },
  { 614, -0.20006230100989342, 38, 231 },
  { 37, -0.6791390478610992, 39, 9 },
  { 422, -0.047700174152851105, 233, 236 },
  { 30, -0.16313383728265762, 234, 235 },
  { 329, 0.007520006969571114, 36, 22 },
  { 972, -0.0540777905844152, 22, 11 },
  { 886, 0.21533674001693726, 237, 241 },
  { 609, 0.48624472320079803, 238, 240 },
  { 719, -0.22552089393138885, 36, 239 },
  { 385, 0.660005122423172, 39, 11 },
  { 487, 1.2947858572006226, 22, 38 },
  { 370, 0.28559479117393494, 36, 242 },
  { 365, 0.2806231379508972, 243, 38 },
  { 804, -0.33596183359622955, 11, 22 },
  { 25, -0.27571867406368256, 245, 264 },
  { 602, 0.08879737928509712, 246, 259 },
  { 4, -0.020669307559728622, 247, 255 },
  { 961, -0.4397295415401459, 248, 253 },
  { 577, -0.4088249206542969, 249, 13 },
  { 450, -0.530254989862442, 250, 22 },
  { 359, -0.40944044291973114, 5, 251 },
  { 828, -0.1273679956793785, 36, 252 },
  { 136, -0.35843445360660553, 38, 10 },
  { 8, -0.4452468752861023, 10, 254 },
  { 732, 1.6774786114692688, 29, 38 },
  { 512, -0.1405792571604252, 256, 257 },
  { 1014, 0.8063494190573692, 9, 38 },
  { 20, -0.3987577557563782, 36, 258 },
  { 858, 0.049865350127220154, 22, 39 },
  { 215, -0.23979491740465164, 36, 260 },
  { 457, 0.712387889623642, 261, 263 },
  { 548, -0.7467595636844635, 29, 262 },
  { 704, 0.3726389855146408, 10, 38 },
  { 145, 0.3232284551486373, 36, 13 },
  { 514, 1.9392033219337463, 265, 280 },
  { 861, -0.27309414744377136, 266, 267 },
  { 1000, -0.12419035751372576, 38, 13 },
  { 596, -0.48250870406627655, 22, 268 },
  { 993, 0.31110183894634247, 269, 278 },
  { 440, 0.4190664142370224, 270, 277 },
  { 527, -0.618485301733017, 271, 272 },
  { 62, -0.029368773102760315, 22, 13 },
  { 600, 0.17902378924190998, 273, 38 },
  { 1008, -0.5099086165428162, 9, 274 },
  { 19, -0.0884092878550291, 275, 276 },
  { 140, 0.15622654557228088, 29, 22 },
  { 533, 0.38458092510700226, 36, 29 },
  { 747, -0.05402423534542322, 9, 29 },
  { 343, 0.24628337286412716, 38, 279 },
  { 669, 0.26618998497724533, 13, 22 },
  { 557, -0.44628216326236725, 13, 36 },
  { 547, 0.7163943201303482, 282, 284 },
  { 431, 0.4019212946295738, 283, 39 },
  { 399, 0.12707364559173584, 5, 22 },
  { 610, 0.26495136320590973, 36, 285 },
  { 130, 1.8606313467025757, 286, 38 },
  { 740, 0.03010660782456398, 22, 9 },
  { 560, 0.896457850933075, 288, 294 },
  { 291, 0.6112916469573975, 289, 29 },
  { 212, 0.9361352026462555, 290, 22 },
  { 146, -0.0734463781118393, 291, 292 },
  { 481, 1.369005560874939, 22, 38 },
  { 291, 0.22051110863685608, 10, 293 },
  { 573, 0.7379992306232452, 29, 36 },
  { 463, 0.8667668402194977, 36, 295 },
  { 458, 1.73286372423172, 296, 29 },
  { 1006, -0.2868958581238985, 10, 38 },
  { 704, -0.2703823000192642, 298, 319 },
  { 583, -0.6181795299053192, 299, 310 },
  { 119, -0.3873804211616516, 300, 308 },
  { 596, -0.4938209801912308, 301, 307 },
  { 508, -0.26200228929519653, 302, 9 },
  { 494, -0.7790821194648743, 303, 305 },
  { 773, -0.32713285088539124, 304, 13 },
  { 793, -0.3220968395471573, 5, 10 },
  { 13, 1.6960609555244446, 5, 306 },
  { 92, -0.7855022847652435, 13, 5 },
  { 596, -0.360186904668808, 13, 9 },
  { 416, -0.5591239631175995, 309, 5 },
  { 688, -0.6022641956806183, 13, 11 },
  { 517, -0.3635028004646301, 311, 317 },
  { 860, -0.5694011449813843, 312, 316 },
  { 522, 0.41960664093494415, 313, 315 },
  { 879, -0.4840937554836273, 314, 13 },
  { 329, -0.18224593997001648, 11, 9 },
  { 14, 1.434107393026352, 9, 13 },
  { 661, -0.6217295825481415, 5, 36 },
  { 957, -0.4464659243822098, 318, 11 },
  { 514, -0.8439313769340515, 5, 13 },
  { 239, 0.10332688316702843, 320, 431 },
  { 409, -0.11059754341840744, 321, 395 },
  { 302, -0.2059096172451973, 322, 348 },
  { 10, -0.04890758218243718, 323, 342 },
  { 945, -0.5786575973033905, 324, 333 },
  { 756, -0.3775826096534729, 325, 331 },
  { 568, -0.7153500914573669, 11, 326 },
  { 394, -0.4177079349756241, 327, 9 },
  { 296, -0.24895058572292328, 328, 10 },
  { 795, -0.3220374435186386, 10, 329 },
  { 640, -0.5964351892471313, 9, 330 },
  { 1003, -0.4791538566350937, 13, 22 },
  { 395, -0.6126481294631958, 5, 332 },
  { 485, -0.7014150023460388, 9, 13 },
  { 922, -0.1972707211971283, 334, 11 },
  { 459, -0.48194165527820587, 11, 335 },
  { 406, -0.39521893858909607, 336, 339 },
  { 49, -0.22001881524920464, 337, 38 },
  { 36, -0.36732194013893604, 36, 338 },
  { 486, -0.5227425396442413, 9, 10 },
  { 490, -0.637495756149292, 340, 341 },
  { 334, -0.256793737411499, 38, 11 },
  { 138, 0.18024272471666336, 22, 5 },
  { 156, -0.22539682686328888, 343, 11 },
  { 1021, 0.014751888811588287, 344, 346 },
  { 171, -0.3118255138397217, 345, 9 },
  { 760, -0.35051071643829346, 9, 5 },
  { 241, -0.16531910747289658, 36, 347 },
  { 216, -0.24221377819776535, 13, 11 },
  { 466, 0.10078634321689606, 349, 380 },
  { 0, -0.31755250692367554, 350, 364 },
  { 692, -0.2805050015449524, 351, 359 },
  { 331, -0.34763260185718536, 352, 358 },
  { 622, -0.42423315346241, 353, 354 },
  { 89, -0.5719681680202484, 38, 36 },
  { 72, 0.6629669219255447, 355, 39 },
  { 568, -0.3010658286511898, 356, 10 },
  { 481, 0.0027262866497039795, 357, 22 },
  { 490, 0.31747297942638397, 29, 9 },
  { 590, 1.1777830123901367, 22, 13 },
  { 570, -0.3962961584329605, 360, 38 },
  { 438, -0.47030071914196014, 361, 363 },
  { 512, -0.690000057220459, 9, 362 },
  { 632, -0.5904183685779572, 29, 38 },
  { 61, -0.6611825823783875, 11, 22 },
  { 286, -0.15559030324220657, 365, 372 },
  { 277, -0.3207002431154251, 366, 370 },
  { 697, -0.13573628664016724, 367, 369 },
  { 1021, -0.1853860318660736, 368, 38 },
  { 410, -0.4678058624267578, 10, 11 },
  { 602, -0.4176321029663086, 22, 9 },
  { 294, -0.2195911779999733, 371, 38 },
  { 208, -0.12510668858885765, 10, 36 },
  { 508, 0.29892611503601074, 373, 378 },
  { 532, 0.5092251598834991, 374, 377 },
  { 450, -0.6662157773971558, 375, 376 },
  { 214, -0.10121341980993748, 13, 36 },
  { 14, 0.6483411490917206, 10, 22 },
  { 666, -0.04219361860305071, 36, 29 },
  { 870, -0.2451825812458992, 379, 22 },
  { 300, -0.1679292470216751, 38, 36 },
  { 775, -0.1350378654897213, 381, 394 },
  { 836, -0.3587733805179596, 382, 388 },
  { 493, 0.18191999197006226, 383, 386 },
  { 765, -0.28080329298973083, 384, 9 },
  { 344, -0.4062557518482208, 5, 385 },
  { 351, -0.2389216348528862, 39, 11 },
  { 486, 2.208346873521805, 13, 387 },
  { 822, -0.1751086600124836, 38, 10 },
  { 544, -0.17323147505521774, 389, 390 },
  { 57, -0.24504726380109787, 9, 38 },
  { 758, -0.39726392924785614, 39, 391 },
  { 996, -0.2635154128074646, 5, 392 },
  { 529, 0.040498885326087475, 9, 393 },
  { 210, -0.17775658518075943, 22, 10 },
  { 637, 0.05804543197154999, 29, 9 },
  { 515, 0.8537870347499847, 396, 424 },
  { 521, -0.12222559005022049, 397, 412 },
  { 345, -0.21809090673923492, 13, 398 },
  { 419, -0.02084552330779843, 399, 402 },
  { 970, -0.3406469225883484, 36, 400 },
  { 163, -0.08662601932883263, 38, 401 },
  { 201, -0.01177888736128807, 13, 22 },
  { 807, -0.09900938346982002, 403, 409 },
  { 995, 1.2693347930908203, 404, 22 },
  { 1023, -0.5988701581954956, 38, 405 },
  { 702, 0.640338271856308, 406, 38 },
  { 197, -0.251698836684227, 407, 408 },
  { 6, -0.40155889093875885, 39, 11 },
  { 847, 0.8066384196281433, 39, 22 },
  { 533, -0.22419650852680206, 10, 410 },
  { 785, -0.09605028107762337, 38, 411 },
  { 788, 0.094702810049057, 13, 22 },
  { 686, 0.699779212474823, 413, 423 },
  { 118, -0.22731924057006836, 414, 415 },
  { 22, 0.5022306572645903, 9, 5 },
  { 684, -0.13675327599048615, 416, 418 },
  { 812, -0.3319941610097885, 11, 417 },
  { 421, 0.507684588432312, 13, 22 },
  { 366, -0.07619175314903259, 29, 419 },
  { 587, -0.09948194772005081, 420, 422 },
  { 765, -0.3006465882062912, 38, 421 },
  { 1006, -0.5826188325881958, 22, 39 },
  { 403, 1.1890362203121185, 36, 39 },
  { 130, 2.030147284269333, 9, 38 },
  { 927, 0.31131623685359955, 425, 427 },
  { 280, 0.20082513242959976, 426, 13 },
  { 634, 1.8186875581741333, 36, 10 },
  { 747, -0.03531131148338318, 22, 428 },
  { 792, 0.13791659101843834, 39, 429 },
  { 159, 0.265659186989069, 29, 430 },
  { 132, 1.073865920305252, 9, 36 },
  { 316, 0.5170722752809525, 432, 442 },
  { 240, 0.952861487865448, 433, 440 },
  { 490, 0.011507350951433182, 434, 439 },
  { 614, -0.058707050047814846, 435, 36 },
  { 935, -0.48958979547023773, 38, 436 },
  { 475, -0.3566668778657913, 437, 22 },
  { 166, 0.3517155945301056, 29, 438 },
  { 54, -0.42315201461315155, 13, 10 },
  { 511, -0.11222941489540972, 22, 29 },
  { 114, -0.07806131988763809, 441, 10 },
  { 770, 0.6962353587150574, 13, 29 },
  { 994, 0.7262987196445465, 443, 448 },
  { 414, -0.22961906343698502, 444, 445 },
  { 468, -0.6679655015468597, 29, 36 },
  { 654, 0.01889802236109972, 446, 29 },
  { 388, 0.07448063418269157, 29, 447 },
  { 297, 0.6040870100259781, 36, 22 },
  { 293, 8.075444459915161, 36, 29 },
  { 835, -0.4541760981082916, 450, 480 },
  { 583, -0.6144947111606598, 451, 465 },
  { 467, -0.20309489220380783, 452, 13 },
  { 84, -0.6749860346317291, 453, 463 },
  { 356, -0.307277113199234, 454, 461 },
  { 528, -0.7475524246692657, 455, 456 },
  { 994, -0.7662524580955505, 10, 13 },
  { 13, 1.6960609555244446, 457, 460 },
  { 191, -0.4602116793394089, 458, 13 },
  { 119, -0.3906964510679245, 5, 459 },
  { 224, -0.24028053134679794, 9, 5 },
  { 630, -0.6856508553028107, 5, 13 },
  { 448, -0.7617084383964539, 11, 462 },
  { 356, -0.2954632341861725, 13, 9 },
  { 139, -0.6494238376617432, 13, 464 },
  { 247, -0.06559178605675697, 9, 5 },
  { 114, -0.33629995584487915, 466, 471 },
  { 426, -0.6154893338680267, 467, 470 },
  { 831, -0.5001918077468872, 13, 468 },
  { 999, -0.48776020109653473, 10, 469 },
  { 821, -0.401164248585701, 5, 9 },
  { 433, -0.5010769218206406, 9, 11 },
  { 432, -0.3793072998523712, 472, 476 },
  { 568, -0.36838923394680023, 473, 474 },
  { 284, -0.32633788883686066, 13, 5 },
  { 595, -0.4543903321027756, 9, 475 },
  { 820, -0.4520650953054428, 10, 38 },
  { 422, -0.37006230652332306, 5, 477 },
  { 84, -0.09618975222110748, 36, 478 },
  { 648, -0.4438042640686035, 38, 479 },
  { 69, 1.0205270051956177, 10, 39 },
  { 261, 0.2794656753540039, 481, 591 },
  { 69, -0.1428980678319931, 482, 537 },
  { 576, -0.7051089704036713, 483, 488 },
  { 479, -0.5298443883657455, 484, 486 },
  { 814, -0.2797384709119797, 485, 9 },
  { 819, -0.4137071371078491, 10, 11 },
  { 126, -0.5281305611133575, 9, 487 },
  { 326, -0.1964004635810852, 22, 36 },
  { 2, -0.12661085277795792, 489, 518 },
  { 1004, -0.41070960462093353, 490, 501 },
  { 128, -0.381502702832222, 491, 495 },
  { 165, -0.3454941511154175, 492, 11 },
  { 609, -0.43595096468925476, 10, 493 },
  { 475, -0.5557356625795364, 494, 9 },
  { 884, -0.5088199079036713, 22, 5 },
  { 91, 0.03379594720900059, 496, 500 },
  { 878, -0.09462006017565727, 497, 499 },
  { 8, -0.18275319784879684, 22, 498 },
  { 991, -0.16460046637803316, 38, 22 },
  { 579, -0.352998249232769, 38, 10 },
  { 253, -0.19321072101593018, 11, 38 },
  { 140, -0.41900840401649475, 502, 504 },
  { 950, -0.27080678939819336, 9, 503 },
  { 655, -0.5028046071529388, 29, 11 },
  { 416, -0.2122615948319435, 505, 513 },
  { 425, -0.324211061000824, 506, 511 },
  { 608, -0.4861104488372803, 507, 508 },
  { 523, -0.11119077354669571, 38, 36 },
  { 404, -0.16686240211129189, 509, 36 },
  { 527, 1.49252188205719, 510, 29 },
  { 1019, -0.819942057132721, 22, 38 },
  { 399, -0.1971481740474701, 9, 512 },
  { 833, -0.3700319081544876, 29, 36 },
  { 654, -0.33901819586753845, 514, 516 },
  { 674, -0.3924732208251953, 515, 22 },
  { 1020, -0.5093162357807159, 9, 11 },
  { 352, -0.05156903434544802, 10, 517 },
  { 458, -0.20132095366716385, 29, 38 },
  { 584, -0.3595031052827835, 519, 529 },
  { 718, -0.2773803323507309, 520, 525 },
  { 225, -0.267486035823822, 10, 521 },
  { 87, -0.6184077560901642, 11, 522 },
  { 458, -0.49599121510982513, 22, 523 },
  { 457, -0.4855654835700989, 36, 524 },
  { 479, -0.21973319351673126, 39, 9 },
  { 682, 1.9315855503082275, 526, 22 },
  { 546, -0.7366824746131897, 36, 527 },
  { 503, -0.007364578545093536, 528, 22 },
  { 864, -0.4380667358636856, 36, 10 },
  { 997, -0.2750316932797432, 530, 534 },
  { 156, 0.18895148485898972, 531, 10 },
  { 303, -0.10216644406318665, 532, 36 },
  { 220, -0.2545834332704544, 22, 533 },
  { 447, -0.3255530595779419, 10, 11 },
  { 861, 1.1441842317581177, 535, 9 },
  { 206, -0.13827097415924072, 536, 22 },
  { 213, -0.1305435374379158, 10, 38 },
  { 1012, -0.3498453199863434, 538, 563 },
  { 89, -0.15482450276613235, 539, 548 },
  { 531, 0.6682531982660294, 540, 22 },
  { 330, -0.25650591403245926, 541, 546 },
  { 631, -0.343913733959198, 542, 11 },
  { 793, -0.31841446459293365, 5, 543 },
  { 661, -0.5719065964221954, 36, 544 },
  { 105, -0.4004751294851303, 9, 545 },
  { 676, -0.4475589543581009, 22, 29 },
  { 559, -0.36044585704803467, 547, 38 },
  { 496, -0.4612286686897278, 9, 29 },
  { 823, -0.14456790685653687, 549, 555 },
  { 204, -0.37667059898376465, 550, 551 },
  { 451, -0.07721062004566193, 11, 38 },
  { 537, 0.799340546131134, 552, 38 },
  { 796, -0.18230035156011581, 553, 13 },
  { 21, -0.7305020391941071, 554, 39 },
  { 1003, -0.5812648832798004, 39, 36 },
  { 352, 0.11821169406175613, 556, 560 },
  { 169, 0.08351610973477364, 557, 36 },
  { 748, 0.03222227469086647, 558, 29 },
  { 293, -0.33911341428756714, 13, 559 },
  { 659, -0.21848180145025253, 38, 22 },
  { 310, 0.0326297041028738, 39, 561 },
  { 850, 0.176246901974082, 562, 22 },
  { 758, -0.08230360597372055, 36, 39 },
  { 872, -0.5186655819416046, 564, 565 },
  { 499, 0.14499770291149616, 13, 9 },
  { 729, -0.3287971764802933, 566, 571 },
  { 787, -0.36368997395038605, 567, 570 },
  { 50, 0.7824187874794006, 568, 569 },
  { 994, -0.09228577464818954, 38, 36 },
  { 338, -0.10225970484316349, 11, 39 },
  { 354, -0.28571896255016327, 38, 11 },
  { 664, 0.03445332311093807, 572, 576 },
  { 465, 0.2721453234553337, 573, 574 },
  { 438, -0.2582624852657318, 9, 13 },
  { 443, 1.4040217995643616, 29, 575 },
  { 98, 0.6889379918575287, 36, 38 },
  { 513, 1.2195693254470825, 577, 589 },
  { 932, 0.967382550239563, 578, 38 },
  { 298, 0.521073043346405, 579, 9 },
  { 443, 1.006477802991867, 580, 39 },
  { 649, 1.482355773448944, 581, 36 },
  { 16, -0.4843449145555496, 582, 583 },
  { 273, -0.107761699706316, 39, 38 },
  { 584, -0.0755738653242588, 584, 588 },
  { 803, -0.3215150684118271, 22, 585 },
  { 687, -0.07821954414248466, 36, 586 },
  { 607, -0.22908933460712433, 11, 587 },
  { 95, 0.28592035733163357, 9, 39 },
  { 423, -0.396201029419899, 9, 22 },
  { 623, 1.4388765096664429, 36, 590 },
  { 86, 1.193050593137741, 10, 29 },
  { 2, -0.5259263515472412, 592, 593 },
  { 929, 3.6439874172210693, 13, 10 },
  { 611, -0.2797973155975342, 22, 594 },
  { 428, 1.883083701133728, 595, 602 },
  { 428, -0.4897870123386383, 9, 596 },
  { 27, -0.3927689492702484, 597, 600 },
  { 328, 1.6919893622398376, 598, 29 },
  { 694, 0.6152456104755402, 599, 36 },
  { 526, -0.09684761427342892, 22, 10 },
  { 98, -0.44624388217926025, 10, 601 },
  { 596, -0.39704430103302, 22, 29 },
  { 190, 1.2227150797843933, 39, 38 },
  { 309, -0.33138254284858704, 604, 629 },
  { 580, 0.2151106670498848, 605, 625 },
  { 335, -0.38719357550144196, 606, 617 },
  { 64, -0.4576032906770706, 607, 616 },
  { 184, -0.6153359413146973, 608, 609 },
  { 545, -0.544665738940239, 13, 5 },
  { 457, -0.642567902803421, 610, 614 },
  { 395, -0.6307605504989624, 5, 611 },
  { 837, -0.5006656050682068, 13, 612 },
  { 111, -0.5206688046455383, 613, 9 },
  { 751, -0.2534397095441818, 11, 5 },
  { 286, -0.19143564999103546, 5, 615 },
  { 535, -0.34467144310474396, 13, 5 },
  { 236, -0.10876209288835526, 13, 10 },
  { 498, -0.5285336971282959, 618, 622 },
  { 550, -0.45452356338500977, 619, 5 },
  { 47, -0.5128100216388702, 11, 620 },
  { 157, -0.33960649371147156, 621, 38 },
  { 466, -0.7236037254333496, 10, 9 },
  { 827, -0.4108041524887085, 13, 623 },
  { 838, -0.4959009289741516, 11, 624 },
  { 958, -0.17715676873922348, 22, 5 },
  { 409, -0.4428015798330307, 626, 627 },
  { 508, -0.42623941600322723, 11, 9 },
  { 113, -0.510011613368988, 5, 628 },
  { 767, -0.3597361892461777, 39, 13 },
  { 242, 0.1693461388349533, 630, 733 },
  { 420, -0.1289224959909916, 631, 688 },
  { 507, -0.45854246616363525, 632, 653 },
  { 511, -0.365459680557251, 633, 645 },
  { 910, -0.36864130198955536, 634, 637 },
  { 467, -0.21072284877300262, 635, 636 },
  { 308, -0.3304288685321808, 13, 29 },
  { 466, 0.09804944042116404, 36, 9 },
  { 496, -0.6382623314857483, 638, 642 },
  { 89, -0.2021001405082643, 639, 39 },
  { 896, -0.4058969020843506, 640, 10 },
  { 266, -0.3472062796354294, 641, 5 },
  { 915, -0.4872840642929077, 22, 38 },
  { 46, -0.3296388238668442, 643, 644 },
  { 96, -0.5443784296512604, 9, 22 },
  { 83, -0.2155683897435665, 29, 38 },
  { 2, -0.310563325881958, 646, 649 },
  { 32, -0.38635723292827606, 22, 647 },
  { 480, -0.229348786175251, 36, 648 },
  { 224, -0.1599350944161415, 10, 9 },
  { 989, -0.6447531878948212, 650, 652 },
  { 763, -0.3187309503555298, 651, 36 },
  { 741, -0.31850317120552063, 22, 10 },
  { 1014, -0.04483787901699543, 10, 13 },
  { 494, -0.5973696112632751, 654, 664 },
  { 522, 0.009176366031169891, 655, 11 },
  { 654, -0.4894843250513077, 656, 660 },
  { 517, -0.30954690277576447, 657, 658 },
  { 119, -0.2841572090983391, 38, 13 },
  { 914, -0.36045290529727936, 10, 659 },
  { 939, -0.19048449955880642, 9, 36 },
  { 721, -0.2206784412264824, 11, 661 },
  { 485, -0.642336905002594, 662, 22 },
  { 662, -0.17597949877381325, 39, 663 },
  { 564, -0.5407826602458954, 38, 36 },
  { 514, 0.19387608021497726, 665, 683 },
  { 598, -0.3398420959711075, 666, 676 },
  { 319, -0.431270495057106, 667, 669 },
  { 18, -0.010510321706533432, 9, 668 },
  { 610, -0.5527674555778503, 13, 11 },
  { 938, -0.5745119154453278, 670, 673 },
  { 519, -0.3582664281129837, 29, 671 },
  { 236, -0.09111552685499191, 11, 672 },
  { 286, -0.025277698412537575, 38, 36 },
  { 81, -0.3446632921695709, 38, 674 },
  { 528, 0.35477352142333984, 675, 9 },
  { 712, -0.36641140282154083, 5, 11 },
  { 453, 0.025110965594649315, 677, 680 },
  { 941, -0.01039540208876133, 678, 679 },
  { 519, 1.1339862942695618, 9, 13 },
  { 405, -0.35694001615047455, 10, 29 },
  { 66, 1.1704532504081726, 681, 13 },
  { 825, -0.34459275007247925, 682, 11 },
  { 807, -0.3258306086063385, 38, 5 },
  { 492, 0.17618410289287567, 684, 687 },
  { 252, -0.12445017322897911, 10, 685 },
  { 1008, 0.04965889826416969, 36, 686 },
  { 744, 0.04900619387626648, 13, 10 },
  { 72, -0.32984428107738495, 22, 9 },
  { 512, 0.6163457334041595, 689, 727 },
  { 27, -0.3043420910835266, 690, 699 },
  { 384, -0.2662339508533478, 691, 693 },
  { 413, -0.1732873097062111, 692, 9 },
  { 914, -0.22730056196451187, 13, 22 },
  { 1012, -0.3109084516763687, 694, 695 },
  { 849, 0.5736762285232544, 39, 10 },
  { 526, 0.3987598568201065, 696, 698 },
  { 976, -0.45668166875839233, 697, 11 },
  { 394, 0.2088114395737648, 9, 38 },
  { 309, -0.2275460585951805, 39, 22 },
  { 407, 0.38978056609630585, 700, 721 },
  { 1014, 0.4586412310600281, 701, 718 },
  { 2, -0.37631066143512726, 702, 710 },
  { 448, 1.3701323866844177, 703, 39 },
  { 577, -0.23664630949497223, 36, 704 },
  { 933, -0.24671240895986557, 39, 705 },
  { 229, -0.05582944303750992, 706, 709 },
  { 402, -0.28938742727041245, 9, 707 },
  { 16, -0.7282934784889221, 39, 708 },
  { 609, 0.8968257308006287, 38, 11 },
  { 746, -0.1838734857738018, 13, 29 },
  { 508, 2.025656759738922, 711, 13 },
  { 980, 0.025403164327144623, 712, 717 },
  { 158, 0.028672358952462673, 713, 38 },
  { 591, -0.5182191878557205, 5, 714 },
  { 124, -0.020864147692918777, 715, 29 },
  { 37, -0.3727090060710907, 10, 716 },
  { 848, -0.3611413240432739, 9, 39 },
  { 87, 0.09149177884683013, 36, 22 },
  { 138, -0.06650255993008614, 719, 11 },
  { 33, 0.003943372517824173, 720, 9 },
  { 815, -0.21932891756296158, 10, 36 },
  { 647, 0.7895300984382629, 722, 725 },
  { 139, -0.06135989259928465, 723, 724 },
  { 622, 0.11956755071878433, 39, 22 },
  { 652, -0.00029538944363594055, 13, 39 },
  { 408, 1.4730461835861206, 38, 726 },
  { 205, -0.17008834145963192, 11, 39 },
  { 193, 0.8560289144515991, 728, 9 },
  { 586, 0.010016212239861488, 729, 731 },
  { 220, -0.183998242020607, 39, 730 },
  { 847, -0.28657539188861847, 29, 13 },
  { 602, 0.09765112586319447, 732, 36 },
  { 63, 0.6997516918927431, 36, 39 },
  { 1003, -0.24950981885194778, 734, 749 },
  { 676, 0.10691197961568832, 735, 739 },
  { 898, 0.3051051199436188, 736, 36 },
  { 381, 0.12432423233985901, 737, 22 },
  { 292, 0.3238653913140297, 738, 13 },
  { 935, -0.051690101623535156, 29, 38 },
  { 34, -0.24685371667146683, 740, 745 },
  { 120, -0.02660975232720375, 741, 743 },
  { 907, 0.3142944946885109, 742, 38 },
  { 248, 0.3402801901102066, 9, 39 },
  { 1018, 0.07706236094236374, 10, 744 },
  { 957, -0.15278871729969978, 29, 36 },
  { 443, -0.04014207050204277, 29, 746 },
  { 792, 1.3414218425750732, 747, 22 },
  { 538, -0.1982675865292549, 38, 748 },
  { 314, 1.0999146103858948, 29, 39 },
  { 215, 0.5290953814983368, 750, 755 },
  { 641, -0.02631310001015663, 751, 752 },
  { 679, -0.12182900309562683, 10, 22 },
  { 1014, -0.22397559881210327, 753, 29 },
  { 733, 0.8194112107157707, 22, 754 },
  { 500, -0.22140512615442276, 38, 13 },
  { 4, 1.2948763966560364, 29, 36 },
  { 179, -0.3662607669830322, 757, 768 },
  { 75, -0.512904167175293, 758, 765 },
  { 1021, -0.5797345042228699, 759, 763 },
  { 557, 0.2265770509839058, 760, 11 },
  { 2, -0.24526327103376389, 761, 13 },
  { 872, -0.6715633273124695, 762, 5 },
  { 819, -0.42484234273433685, 13, 5 },
  { 823, -0.3207959830760956, 13, 764 },
  { 454, -0.6976045072078705, 9, 5 },
  { 950, 0.31787750869989395, 766, 767 },
  { 554, -0.31907226145267487, 13, 9 },
  { 74, 0.16570444405078888, 11, 5 },
  { 259, 0.2715320885181427, 769, 884 },
  { 408, -0.10196398943662643, 770, 838 },
  { 435, -0.6036094725131989, 771, 785 },
  { 579, -0.6854506134986877, 772, 774 },
  { 20, -0.5498632043600082, 11, 773 },
  { 612, -0.498934730887413, 9, 13 },
  { 1017, -0.4591115713119507, 775, 779 },
  { 514, -0.42803648114204407, 776, 10 },
  { 432, -0.6796770691871643, 777, 22 },
  { 223, -0.24489575624465942, 13, 778 },
  { 118, -0.46489399671554565, 9, 29 },
  { 722, -0.12790830060839653, 780, 38 },
  { 428, -0.5692851543426514, 781, 9 },
  { 36, -0.4862397313117981, 782, 784 },
  { 85, -0.652978926897049, 783, 10 },
  { 215, -0.27220770716667175, 11, 9 },
  { 467, -0.4303195923566818, 13, 29 },
  { 3, 1.5295242071151733, 786, 836 },
  { 859, -0.6845290064811707, 787, 790 },
  { 192, -0.15774626284837723, 788, 789 },
  { 971, -0.4299197196960449, 11, 10 },
  { 705, -0.4718395471572876, 13, 9 },
  { 507, -0.29804451763629913, 791, 810 },
  { 542, 0.05303929001092911, 792, 805 },
  { 369, -0.226322703063488, 793, 799 },
  { 990, -0.6249784827232361, 794, 796 },
  { 809, -0.2958044707775116, 38, 795 },
  { 342, -0.30777400732040405, 13, 29 },
  { 955, -0.5728782415390015, 797, 798 },
  { 443, -0.6871581077575684, 5, 22 },
  { 511, -0.5730882883071899, 38, 36 },
  { 499, -0.19526530802249908, 800, 804 },
  { 1023, 0.4383215308189392, 801, 803 },
  { 1004, -0.7772077918052673, 11, 802 },
  { 607, -0.5079442709684372, 9, 22 },
  { 802, -0.2120841220021248, 10, 29 },
  { 391, -0.1659395396709442, 36, 39 },
  { 500, -0.27869071066379547, 806, 808 },
  { 955, -0.48404504358768463, 11, 807 },
  { 545, 0.3635566458106041, 22, 36 },
  { 37, 0.31349147111177444, 38, 809 },
  { 490, 0.47726257145404816, 5, 10 },
  { 31, 1.8995935916900635, 811, 5 },
  { 2, -0.16732201725244522, 812, 830 },
  { 810, -0.3329906463623047, 813, 824 },
  { 291, -0.19813776016235352, 814, 819 },
  { 586, -0.2916988283395767, 815, 11 },
  { 354, -0.3124392628669739, 816, 818 },
  { 977, -0.24430015683174133, 817, 9 },
  { 93, -0.5765869617462158, 13, 11 },
  { 20, -0.6272975504398346, 39, 38 },
  { 915, -0.08310547797009349, 820, 821 },
  { 796, -0.35979804396629333, 11, 9 },
  { 372, -0.17390964925289154, 822, 36 },
  { 767, -0.35656410455703735, 22, 823 },
  { 544, 1.3326433300971985, 11, 5 },
  { 937, 0.00013526063412427902, 825, 828 },
  { 907, -0.5105761736631393, 13, 826 },
  { 476, -0.4717106372117996, 827, 38 },
  { 604, -0.26836075633764267, 9, 38 },
  { 389, -0.3449441194534302, 829, 13 },
  { 821, -0.3122376650571823, 9, 10 },
  { 802, -0.31493858993053436, 831, 833 },
  { 612, -0.36644981801509857, 832, 11 },
  { 312, -0.3159076124429703, 39, 9 },
  { 609, -0.36448395252227783, 36, 834 },
  { 120, -0.35426928102970123, 29, 835 },
  { 442, -0.29255927354097366, 10, 22 },
  { 548, -0.045035362243652344, 36, 837 },
  { 513, -0.2861461862921715, 10, 22 },
  { 1, 0.445798397064209, 839, 868 },
  { 455, 0.6675426363945007, 840, 862 },
  { 503, -0.41563132405281067, 841, 850 },
  { 44, -0.0006444491446018219, 842, 847 },
  { 731, -0.3920324891805649, 843, 844 },
  { 106, -0.153447974473238, 22, 39 },
  { 246, -0.32373759150505066, 22, 845 },
  { 874, -0.06570257246494293, 36, 846 },
  { 585, 0.44113244861364365, 10, 39 },
  { 647, 0.3321784883737564, 848, 22 },
  { 410, 0.19185896590352058, 36, 849 },
  { 495, -0.05300559103488922, 11, 13 },
  { 98, 2.6922496557235718, 851, 11 },
  { 105, 0.2748206555843353, 852, 860 },
  { 807, -0.30135996639728546, 853, 855 },
  { 645, 0.08167274855077267, 854, 22 },
  { 278, -0.29038769006729126, 38, 11 },
  { 479, 0.9995358884334564, 856, 13 },
  { 757, -0.22393977642059326, 39, 857 },
  { 873, 0.18179216235876083, 858, 9 },
  { 373, -0.050210848450660706, 10, 859 },
  { 627, 0.18393031507730484, 36, 29 },
  { 456, 0.31710949540138245, 861, 39 },
  { 351, 0.723347544670105, 38, 10 },
  { 963, 1.8108576536178589, 863, 866 },
  { 422, 0.013790979981422424, 864, 865 },
  { 851, -0.49194589257240295, 5, 9 },
  { 56, 0.33898012340068817, 29, 39 },
  { 1019, 0.578256368637085, 11, 867 },
  { 198, -0.008519791066646576, 36, 38 },
  { 571, -0.33420147001743317, 869, 872 },
  { 97, -0.22458499670028687, 10, 870 },
  { 473, -0.2755746692419052, 39, 871 },
  { 207, 0.03577924147248268, 36, 29 },
  { 10, 0.3612521141767502, 873, 878 },
  { 577, 1.0592295825481415, 874, 877 },
  { 720, 0.35788239538669586, 875, 29 },
  { 902, 1.585882544517517, 876, 10 },
  { 537, 2.136738896369934, 36, 39 },
  { 970, 1.458675742149353, 22, 11 },
  { 599, 1.5853862762451172, 879, 29 },
  { 216, 0.5790311694145203, 880, 9 },
  { 128, 1.2859889417886734, 881, 36 },
  { 56, -0.26768283545970917, 10, 882 },
  { 639, -0.23813633993268013, 11, 883 },
  { 249, -0.10931382328271866, 38, 13 },
  { 962, 1.7198821306228638, 885, 896 },
  { 698, -0.004652669420465827, 886, 887 },
  { 726, 0.4558149203658104, 22, 13 },
  { 4, 1.0133245289325714, 888, 894 },
  { 513, -0.07784678414463997, 889, 890 },
  { 454, 0.8480139970779419, 22, 29 },
  { 242, 0.7036662399768829, 891, 892 },
  { 444, 0.582173578441143, 29, 38 },
  { 540, -0.5756880044937134, 22, 893 },
  { 4, -0.5284578055143356, 10, 29 },
  { 904, 0.15680253878235817, 22, 895 },
  { 485, 0.7521318346261978, 36, 39 },
  { 444, 3.129969000816345, 36, 10 },
  { 822, -0.2716766744852066, 898, 922 },
  { 661, -0.6217295825481415, 899, 912 },
  { 445, -0.6283608675003052, 900, 906 },
  { 1016, -0.8178276121616364, 10, 901 },
  { 513, -0.3885197341442108, 902, 13 },
  { 323, -0.3119942992925644, 903, 13 },
  { 696, -0.6539061665534973, 904, 5 },
  { 433, -0.6751414239406586, 905, 13 },
  { 230, -0.2260001003742218, 13, 5 },
  { 544, 0.23679307848215103, 907, 911 },
  { 762, -0.36329035460948944, 908, 10 },
  { 956, 0.03340429067611694, 909, 11 },
  { 225, -0.26600418984889984, 5, 910 },
  { 1014, 0.10338816046714783, 38, 9 },
  { 417, -0.5700362324714661, 9, 13 },
  { 461, -0.6526562571525574, 913, 915 },
  { 808, -0.37319228053092957, 914, 11 },
  { 652, -0.5992845892906189, 13, 9 },
  { 868, -0.4417771100997925, 13, 916 },
  { 445, 1.475342333316803, 917, 39 },
  { 478, -0.6154207289218903, 5, 918 },
  { 501, -0.18567165359854698, 919, 921 },
  { 56, -0.5414843261241913, 10, 920 },
  { 77, -0.3744054138660431, 22, 38 },
  { 838, -0.5247815549373627, 36, 9 },
  { 291, 0.6029386520385742, 923, 1046 },
  { 104, -0.44397278130054474, 924, 957 },
  { 500, -0.6819052696228027, 925, 929 },
  { 940, -0.4963516741991043, 926, 928 },
  { 540, -0.6397921144962311, 11, 927 },
  { 914, -0.3557787090539932, 10, 22 },
  { 984, -0.6314814686775208, 38, 36 },
  { 497, -0.5599729716777802, 930, 940 },
  { 42, -0.20159855484962463, 931, 939 },
  { 608, -0.28126750886440277, 932, 5 },
  { 733, -0.33403097093105316, 933, 935 },
  { 418, -0.5935987532138824, 934, 38 },
  { 695, -0.3091626614332199, 13, 11 },
  { 125, -0.4720178693532944, 9, 936 },
  { 426, -0.4992489218711853, 937, 22 },
  { 263, -0.13995466381311417, 10, 938 },
  { 974, -0.626692920923233, 13, 36 },
  { 72, -0.7053559720516205, 11, 10 },
  { 996, -0.2359202355146408, 941, 952 },
  { 151, -0.28623418509960175, 942, 946 },
  { 514, -0.8133388757705688, 943, 944 },
  { 608, -0.5578091442584991, 11, 5 },
  { 769, -0.3597608506679535, 945, 9 },
  { 983, -0.3769198805093765, 9, 10 },
  { 382, -0.3505759537220001, 947, 950 },
  { 101, -0.5070700794458389, 11, 948 },
  { 79, -0.5545833706855774, 38, 949 },
  { 757, 0.1086127758026123, 13, 29 },
  { 48, -0.3341863378882408, 22, 951 },
  { 97, -0.4232166036963463, 9, 5 },
  { 896, -0.5703189074993134, 953, 954 },
  { 465, -0.2595735937356949, 13, 9 },
  { 503, 0.022560149431228638, 10, 955 },
  { 712, -0.35302041471004486, 5, 956 },
  { 724, -0.23876284807920456, 11, 13 },
  { 1021, 0.3777712732553482, 958, 1017 },
  { 511, 1.7373952269554138, 959, 1016 },
  { 266, -0.08187484741210938, 960, 1003 },
  { 423, 0.29562270641326904, 961, 993 },
  { 541, 0.06420864723622799, 962, 982 },
  { 91, 0.2851606607437134, 963, 38 },
  { 508, 1.2625714540481567, 964, 39 },
  { 151, -0.171963132917881, 965, 971 },
  { 867, -0.36785532534122467, 966, 970 },
  { 301, -0.17422368377447128, 11, 967 },
  { 225, -0.26425887644290924, 22, 968 },
  { 352, -0.24616031348705292, 10, 969 },
  { 841, -0.31464752554893494, 38, 9 },
  { 569, -0.13545610786241014, 38, 39 },
  { 1011, -0.21079058200120926, 972, 978 },
  { 504, -0.6106614172458649, 973, 974 },
  { 744, -0.3249475657939911, 22, 39 },
  { 471, -0.2227252572774887, 975, 976 },
  { 494, -0.6260306090116501, 10, 39 },
  { 506, -0.6157083213329315, 36, 977 },
  { 6, 0.09022057801485062, 22, 38 },
  { 269, -0.25111454725265503, 979, 9 },
  { 79, -0.2436835840344429, 36, 980 },
  { 701, -0.3085448667407036, 981, 38 },
  { 413, -0.2514251545071602, 5, 11 },
  { 280, -0.20491772890090942, 983, 990 },
  { 23, 0.22792961820960045, 984, 986 },
  { 730, -0.280991792678833, 985, 9 },
  { 385, -0.3889869153499603, 22, 11 },
  { 48, -0.15042223036289215, 9, 987 },
  { 89, -0.3979284465312958, 5, 988 },
  { 611, -0.2764080911874771, 38, 989 },
  { 826, -0.10286841168999672, 10, 39 },
  { 668, -0.2366071343421936, 991, 992 },
  { 900, -0.545193076133728, 29, 13 },
  { 314, -0.04225519299507141, 38, 36 },
  { 688, -0.3816140741109848, 994, 997 },
  { 632, -0.29279470443725586, 38, 995 },
  { 789, -0.3577824532985687, 11, 996 },
  { 389, -0.29879842698574066, 10, 39 },
  { 860, 0.9861159920692444, 998, 38 },
  { 567, 1.2502467036247253, 999, 10 },
  { 405, -0.2562697231769562, 38, 1000 },
  { 974, 0.8595517575740814, 39, 1001 },
  { 517, 0.20022467151284218, 39, 1002 },
  { 921, 0.2186317965388298, 38, 36 },
  { 998, -0.47501708567142487, 1004, 1009 },
  { 503, -0.4625173360109329, 1005, 1008 },
  { 1009, -0.4566093534231186, 1006, 9 },
  { 356, -0.1789173185825348, 13, 1007 },
  { 769, 0.37875693663954735, 36, 10 },
  { 11, -0.45701536536216736, 10, 38 },
  { 512, -0.1815379112958908, 1010, 1013 },
  { 580, -0.03789450228214264, 1011, 10 },
  { 594, -0.34227004647254944, 9, 1012 },
  { 558, -0.3086686283349991, 22, 29 },
  { 419, 0.4947644770145416, 29, 1014 },
  { 519, -0.15835906937718391, 22, 1015 },
  { 67, 2.335325002670288, 9, 38 },
  { 918, -0.32484085857868195, 36, 10 },
  { 274, 0.32072852551937103, 1018, 1040 },
  { 543, 0.17879164591431618, 1019, 1034 },
  { 28, 1.222829282283783, 1020, 1032 },
  { 946, -0.3738801032304764, 1021, 1027 },
  { 15, -0.2062346488237381, 1022, 10 },
  { 750, -0.1786404773592949, 1023, 1026 },
  { 136, -0.07280580513179302, 1024, 22 },
  { 475, -0.7896735370159149, 11, 1025 },
  { 966, -0.46321479976177216, 38, 39 },
  { 279, 0.25310927629470825, 36, 29 },
  { 623, 1.428833246231079, 1028, 1031 },
  { 440, 2.0032516717910767, 1029, 22 },
  { 538, 0.16873208433389664, 36, 1030 },
  { 196, -0.0675638155080378, 29, 36 },
  { 648, 0.7843102812767029, 39, 10 },
  { 659, -0.10618318244814873, 13, 1033 },
  { 102, -0.005448404233902693, 38, 22 },
  { 824, -0.2944660037755966, 11, 1035 },
  { 324, 0.5751213133335114, 1036, 13 },
  { 634, -0.17452195286750793, 9, 1037 },
  { 203, -0.08050370402634144, 22, 1038 },
  { 736, 0.008351422846317291, 38, 1039 },
  { 60, 1.1955424547195435, 29, 36 },
  { 289, 0.5976638197898865, 1041, 1045 },
  { 88, -0.05042000114917755, 1042, 29 },
  { 979, -0.6215485334396362, 1043, 36 },
  { 687, 0.07525310292840004, 29, 1044 },
  { 545, -0.4728480130434036, 38, 10 },
  { 513, 0.0582964401692152, 22, 10 },
  { 561, 0.3957511633634567, 29, 1047 },
  { 174, 1.006930410861969, 1048, 1049 },
  { 790, 1.4862370491027832, 36, 39 },
  { 590, 2.051132559776306, 1050, 29 },
  { 912, 3.7239497005939484, 9, 10 },
  { 324, -0.3412667065858841, 1052, 1069 },
  { 427, -0.5878226459026337, 1053, 1063 },
  { 63, -0.44680851697921753, 1054, 9 },
  { 331, -0.5496716499328613, 1055, 1059 },
  { 9, -0.716735303401947, 1056, 1057 },
  { 307, -0.34853804111480713, 13, 5 },
  { 1018, -0.06837768666446209, 5, 1058 },
  { 543, -0.08919255807995796, 13, 5 },
  { 946, -0.7435214519500732, 13, 1060 },
  { 509, -0.8399165868759155, 5, 1061 },
  { 524, -0.6311222314834595, 10, 1062 },
  { 125, -0.5007835626602173, 11, 9 },
  { 293, -0.35692013800144196, 1064, 1065 },
  { 454, -0.6760903894901276, 5, 11 },
  { 983, -0.5105888992547989, 13, 1066 },
  { 670, -0.5939357578754425, 1067, 5 },
  { 195, -0.32936540246009827, 9, 1068 },
  { 85, -0.27287463285028934, 10, 38 },
  { 227, 0.38103851675987244, 1070, 1178 },
  { 405, -0.18921533972024918, 1071, 1137 },
  { 354, -0.32016080617904663, 1072, 1102 },
  { 14, -0.10894433408975601, 1073, 1093 },
  { 934, -0.1945801004767418, 1074, 10 },
  { 1015, -0.5276985466480255, 1075, 1084 },
  { 912, -0.532760739326477, 1076, 1081 },
  { 996, 0.3173035867512226, 1077, 5 },
  { 514, -0.4408024549484253, 1078, 1080 },
  { 685, -0.6330286264419556, 9, 1079 },
  { 901, -0.4760126620531082, 11, 36 },
  { 642, -0.3559093475341797, 10, 13 },
  { 454, -0.44844573736190796, 1082, 1083 },
  { 62, -0.719463050365448, 11, 36 },
  { 872, -0.4740218222141266, 22, 10 },
  { 411, -0.4496225267648697, 1085, 1092 },
  { 474, -0.4221804589033127, 1086, 1090 },
  { 588, -0.18337062746286392, 1087, 38 },
  { 1014, -0.43804652988910675, 1088, 9 },
  { 724, -0.36473003029823303, 13, 1089 },
  { 837, -0.29530324414372444, 11, 10 },
  { 883, -0.6394925117492676, 1091, 13 },
  { 406, -0.5350160896778107, 11, 5 },
  { 893, -0.5313822329044342, 5, 11 },
  { 968, -0.48832912743091583, 13, 1094 },
  { 44, -0.28209279477596283, 1095, 1098 },
  { 828, -0.4120720773935318, 1096, 1097 },
  { 740, -0.35955479741096497, 13, 10 },
  { 132, -0.40434040129184723, 9, 10 },
  { 528, -0.1859169751405716, 5, 1099 },
  { 482, 0.10947839170694351, 36, 1100 },
  { 76, -0.08303843438625336, 11, 1101 },
  { 956, 3.1550813913345337, 13, 9 },
  { 450, -0.1326187402009964, 1103, 1127 },
  { 120, -0.47053781151771545, 1104, 1111 },
  { 905, -0.49067047238349915, 1105, 1109 },
  { 105, -0.41095517575740814, 1106, 9 },
  { 300, -0.268859326839447, 1107, 10 },
  { 642, -0.5073166191577911, 11, 1108 },
  { 518, 0.19856423884630203, 36, 38 },
  { 99, -0.3542773872613907, 1110, 38 },
  { 125, -0.38200411200523376, 11, 9 },
  { 659, -0.04597481153905392, 1112, 1123 },
  { 272, -0.29884175956249237, 1113, 1115 },
  { 589, -0.29683393239974976, 22, 1114 },
  { 641, -0.3160310685634613, 22, 11 },
  { 872, -0.41064801812171936, 1116, 1118 },
  { 313, -0.1460014209151268, 10, 1117 },
  { 242, -0.2718059793114662, 9, 29 },
  { 5, -0.41153573989868164, 22, 1119 },
  { 542, -0.27488812804222107, 1120, 1122 },
  { 958, -0.5459784269332886, 1121, 9 },
  { 524, -0.5709407031536102, 39, 10 },
  { 227, -0.2815019190311432, 9, 36 },
  { 444, -0.5238882005214691, 1124, 1125 },
  { 694, -0.43410824239254, 11, 38 },
  { 509, -0.4309564307332039, 10, 1126 },
  { 854, -0.11041350476443768, 29, 22 },
  { 212, -0.2580395042896271, 1128, 1133 },
  { 994, 0.14526397734880447, 38, 1129 },
  { 472, 0.7442996501922607, 1130, 38 },
  { 458, -0.14110691845417023, 5, 1131 },
  { 447, -0.25872029550373554, 9, 1132 },
  { 587, -0.1849303152412176, 11, 39 },
  { 143, 0.15479358285665512, 1134, 10 },
  { 627, -0.35619693994522095, 1135, 1136 },
  { 915, -0.11615399830043316, 38, 13 },
  { 154, 0.3693910613656044, 9, 36 },
  { 211, -0.14389430731534958, 1138, 1155 },
  { 566, 0.7071118056774139, 1139, 1154 },
  { 442, -0.06760207563638687, 1140, 1148 },
  { 665, 0.08650152757763863, 1141, 1146 },
  { 870, -0.25138673931360245, 1142, 1143 },
  { 624, -0.30684831738471985, 22, 9 },
  { 937, -0.19420543313026428, 36, 1144 },
  { 533, -0.41582082211971283, 38, 1145 },
  { 528, 1.9875636249780655, 22, 11 },
  { 884, 0.9838369786739349, 39, 1147 },
  { 729, -0.32935652136802673, 11, 38 },
  { 566, -0.49207712709903717, 11, 1149 },
  { 128, -0.23613038659095764, 38, 1150 },
  { 994, 1.210011065006256, 1151, 36 },
  { 768, -0.1828739270567894, 1152, 36 },
  { 579, 1.2950164675712585, 1153, 36 },
  { 918, 0.986859142780304, 39, 36 },
  { 102, 0.32808682322502136, 11, 39 },
  { 287, -0.24999936670064926, 1156, 1158 },
  { 933, 0.2925568222999573, 22, 1157 },
  { 663, 0.6189925784710795, 39, 38 },
  { 521, -0.3276575207710266, 1159, 1167 },
  { 417, 0.4529377818107605, 1160, 1166 },
  { 31, -0.3302792012691498, 1161, 1163 },
  { 1019, -0.5531014800071716, 10, 1162 },
  { 1003, -0.5261091589927673, 39, 36 },
  { 39, 0.2953833378851414, 1164, 38 },
  { 92, 0.010509096086025238, 1165, 13 },
  { 228, 0.0873931348323822, 9, 22 },
  { 568, 1.2742377817630768, 39, 22 },
  { 37, -0.04210143070667982, 1168, 1171 },
  { 602, 0.43503645062446594, 1169, 1170 },
  { 225, -0.15545202046632767, 29, 36 },
  { 702, 0.7808292806148529, 10, 38 },
  { 825, 0.5262963473796844, 1172, 36 },
  { 496, 0.14445146918296814, 1173, 1175 },
  { 186, 0.033654499104159186, 1174, 22 },
  { 172, -0.06935541145503521, 29, 38 },
  { 866, 0.28596118092536926, 1176, 9 },
  { 941, 0.210621640086174, 13, 1177 },
  { 445, 1.7597674205899239, 9, 38 },
  { 961, 1.3976869583129883, 1179, 1191 },
  { 513, -0.026180175133049488, 1180, 1186 },
  { 289, 1.2088443040847778, 1181, 1184 },
  { 512, -0.3625671714544296, 1182, 22 },
  { 491, -0.41788335889577866, 13, 1183 },
  { 751, 0.7730865031480789, 29, 9 },
  { 596, 0.717229500412941, 1185, 36 },
  { 298, 0.624400407075882, 38, 39 },
  { 775, 0.34096895158290863, 1187, 1190 },
  { 657, 0.08956877514719963, 36, 1188 },
  { 536, -0.5212679505348206, 1189, 29 },
  { 152, 0.459139347076416, 38, 10 },
  { 283, 0.30186526477336884, 10, 29 },
  { 254, -0.026202684501186013, 1192, 36 },
  { 944, 1.6080233454704285, 22, 9 },
  { 343, -0.699752688407898, 1194, 1206 },
  { 441, -0.34222733974456787, 1195, 1204 },
  { 3, -0.7743730843067169, 1196, 1199 },
  { 253, -0.19765781611204147, 9, 1197 },
  { 754, -0.3995377868413925, 1198, 5 },
  { 571, -0.6140796840190887, 5, 13 },
  { 618, -0.6741166710853577, 5, 1200 },
  { 112, -0.5130250751972198, 1201, 1202 },
  { 317, -0.3317234665155411, 11, 9 },
  { 570, -0.6268418729305267, 10, 1203 },
  { 1022, -0.852201521396637, 9, 13 },
  { 403, -0.53740194439888, 11, 1205 },
  { 50, 0.0019963085651397705, 13, 10 },
  { 243, 0.7602389752864838, 1207, 1329 },
  { 412, -0.29793426394462585, 1208, 1267 },
  { 707, -0.36437006294727325, 1209, 1242 },
  { 855, -0.42375339567661285, 1210, 1238 },
  { 46, -0.7371963560581207, 1211, 1213 },
  { 501, -0.6744944453239441, 10, 1212 },
  { 207, -0.10621780157089233, 11, 13 },
  { 880, -0.7178749442100525, 1214, 1216 },
  { 883, -0.650930255651474, 11, 1215 },
  { 602, -0.23174665123224258, 13, 9 },
  { 512, -0.3405226767063141, 1217, 1232 },
  { 465, -0.22079167515039444, 1218, 1227 },
  { 722, -0.3597986549139023, 1219, 1223 },
  { 146, -0.2107597067952156, 1220, 13 },
  { 722, -0.36536063253879547, 1221, 22 },
  { 472, 1.7320821955800056, 1222, 11 },
  { 45, -0.5426369309425354, 38, 5 },
  { 281, -0.19154217094182968, 1224, 1226 },
  { 191, -0.3732460290193558, 9, 1225 },
  { 574, -0.7260355651378632, 11, 22 },
  { 96, -0.6090426743030548, 13, 29 },
  { 918, -0.4781021624803543, 1228, 5 },
  { 349, -0.18985945731401443, 1229, 38 },
  { 14, -0.3857385218143463, 1230, 1231 },
  { 262, -0.3109287768602371, 22, 36 },
  { 23, 0.49456530809402466, 13, 5 },
  { 409, -0.2775876224040985, 1233, 11 },
  { 483, -0.6204649806022644, 11, 1234 },
  { 997, -0.7143371105194092, 36, 1235 },
  { 347, -0.420444518327713, 1236, 13 },
  { 999, -0.633926272392273, 1237, 10 },
  { 799, -0.35671068727970123, 22, 9 },
  { 280, -0.25065597891807556, 1239, 39 },
  { 988, -0.4505805969238281, 11, 1240 },
  { 625, -0.2756236884742975, 1241, 11 },
  { 256, -0.1144435852766037, 5, 36 },
  { 1018, -0.5631649792194366, 1243, 1249 },
  { 167, -0.10604294389486313, 1244, 1247 },
  { 1012, -0.6537427306175232, 1245, 10 },
  { 153, -0.3481808453798294, 22, 1246 },
  { 390, -0.22000836580991745, 38, 10 },
  { 324, -0.1266227290034294, 22, 1248 },
  { 364, 0.9966144263744354, 38, 13 },
  { 569, -0.6877484321594238, 29, 1250 },
  { 846, -0.2593766152858734, 1251, 1257 },
  { 1010, -0.24980167299509048, 1252, 1255 },
  { 547, -0.6827970147132874, 1253, 22 },
  { 130, -0.26389698684215546, 36, 1254 },
  { 698, -0.3906085044145584, 13, 29 },
  { 6, 1.1205362677574158, 9, 1256 },
  { 122, -0.18277913331985474, 36, 10 },
  { 539, -0.5389972627162933, 1258, 1261 },
  { 320, 0.001952407881617546, 1259, 1260 },
  { 461, -0.215665765106678, 38, 9 },
  { 55, -0.10069872438907623, 22, 10 },
  { 401, -0.4472656846046448, 10, 1262 },
  { 89, -0.5339276492595673, 1263, 1266 },
  { 10, -0.5195668935775757, 36, 1264 },
  { 387, -0.4136567711830139, 29, 1265 },
  { 208, 0.006531124701723456, 9, 10 },
  { 68, -0.054523199796676636, 22, 11 },
  { 449, 1.0823503136634827, 1268, 1321 },
  { 286, -0.16943969577550888, 1269, 1295 },
  { 128, -0.10330043733119965, 1270, 1285 },
  { 146, -0.12044879794120789, 1271, 1279 },
  { 144, -0.33019547164440155, 1272, 11 },
  { 863, -0.3930092006921768, 1273, 1278 },
  { 480, 0.4286964014172554, 1274, 11 },
  { 928, 2.051300346851349, 1275, 9 },
  { 357, -0.2700890451669693, 1276, 1277 },
  { 407, -0.2069936878979206, 13, 10 },
  { 903, -0.08531744591891766, 36, 39 },
  { 825, -0.2521022632718086, 22, 38 },
  { 209, -0.10470429062843323, 1280, 1281 },
  { 155, -0.15943311899900436, 36, 38 },
  { 271, -0.16581781953573227, 22, 1282 },
  { 934, -0.2143414467573166, 9, 1283 },
  { 836, -0.2989327386021614, 39, 1284 },
  { 167, 0.0489923469722271, 36, 38 },
  { 549, -0.22493889182806015, 1286, 1290 },
  { 579, -0.24024397134780884, 39, 1287 },
  { 89, -0.09684906946495175, 1288, 1289 },
  { 342, -0.11298403516411781, 9, 22 },
  { 725, -0.26180772483348846, 36, 39 },
  { 1018, -0.11544177093310282, 1291, 1294 },
  { 51, 0.18708880245685577, 1292, 1293 },
  { 297, -0.2692141681909561, 39, 36 },
  { 881, -0.06184646300971508, 39, 38 },
  { 1021, -0.42254310846328735, 38, 11 },
  { 534, -0.12116989120841026, 1296, 1314 },
  { 956, 1.0365111231803894, 1297, 38 },
  { 512, 0.32843339443206787, 1298, 1306 },
  { 638, -0.1887689083814621, 1299, 1301 },
  { 766, -0.12213337793946266, 1300, 13 },
  { 71, 0.16793673392385244, 38, 10 },
  { 214, -0.1447134166955948, 1302, 1304 },
  { 216, -0.1623694822192192, 1303, 9 },
  { 577, 1.576932653784752, 29, 10 },
  { 430, 0.5987664312124252, 38, 1305 },
  { 1006, 0.12373240292072296, 29, 22 },
  { 621, 0.8095597922801971, 1307, 1310 },
  { 644, 0.46793799102306366, 1308, 1309 },
  { 52, -0.5033062249422073, 10, 36 },
  { 206, 0.029449352994561195, 36, 10 },
  { 895, 0.6373192965984344, 1311, 10 },
  { 107, 0.19494155421853065, 22, 1312 },
  { 802, -0.12203751876950264, 13, 1313 },
  { 522, -0.3492298126220703, 29, 39 },
  { 13, -0.45312683284282684, 22, 1315 },
  { 209, 0.1964099258184433, 1316, 1320 },
  { 1014, -0.3510313928127289, 29, 1317 },
  { 839, -0.0038241660222411156, 13, 1318 },
  { 639, 0.25169332325458527, 1319, 29 },
  { 259, -0.07355046924203634, 22, 9 },
  { 206, 0.4269131273031235, 9, 36 },
  { 597, 1.1619525849819183, 1322, 1327 },
  { 279, -0.04690234549343586, 1323, 1326 },
  { 91, -0.20141966547816992, 36, 1324 },
  { 855, 1.362805962562561, 1325, 22 },
  { 495, -0.6530389785766602, 11, 39 },
  { 510, 2.4671658277511597, 36, 9 },
  { 824, -0.2722292095422745, 1328, 36 },
  { 563, 1.7648098170757294, 38, 11 },
  { 449, 0.7782580852508545, 1330, 1336 },
  { 759, 0.17455853521823883, 1331, 1333 },
  { 359, 0.1900770291686058, 1332, 22 },
  { 834, 0.010731130838394165, 10, 29 },
  { 469, -0.37164686620235443, 1334, 1335 },
  { 457, -0.3578290045261383, 36, 13 },
  { 730, 5.039487242698669, 29, 36 },
  { 931, 1.2768609821796417, 1337, 1340 },
  { 616, 0.25679098069667816, 22, 1338 },
  { 324, 1.8648610711097717, 1339, 29 },
  { 510, 0.05505096912384033, 38, 39 },
  { 347, 7.328177630901337, 36, 10 },
  { 653, -0.6383114159107208, 1342, 1358 },
  { 80, -0.3597460389137268, 1343, 11 },
  { 503, -0.68907231092453, 1344, 1349 },
  { 71, -0.6788685321807861, 13, 1345 },
  { 977, -0.6930341720581055, 9, 1346 },
  { 110, -0.41690656542778015, 1347, 36 },
  { 722, -0.367107629776001, 5, 1348 },
  { 215, -0.2900298982858658, 10, 11 },
  { 128, -0.3997162729501724, 1350, 9 },
  { 834, -0.5499723255634308, 1351, 1356 },
  { 85, -0.5887291431427002, 1352, 13 },
  { 187, -0.2978114187717438, 1353, 1355 },
  { 1007, -0.788438230752945, 1354, 5 },
  { 913, -0.6706477701663971, 5, 13 },
  { 327, -0.18089473992586136, 9, 5 },
  { 390, -0.3380560874938965, 1357, 5 },
  { 670, -0.49926553666591644, 13, 9 },
  { 762, 0.11554474383592606, 1359, 1465 },
  { 106, -0.0806267075240612, 1360, 1434 },
  { 335, -0.3834012597799301, 1361, 1366 },
  { 969, -0.34784824401140213, 1362, 1364 },
  { 896, -0.6450170278549194, 9, 1363 },
  { 1023, -0.19529185816645622, 11, 9 },
  { 145, -0.22117339819669724, 1365, 5 },
  { 662, -0.7170998752117157, 13, 10 },
  { 507, -0.45854246616363525, 1367, 1391 },
  { 414, -0.4997357875108719, 1368, 1378 },
  { 416, -0.6189823746681213, 1369, 1370 },
  { 1022, -0.4860966354608536, 22, 10 },
  { 20, -0.611040860414505, 1371, 1375 },
  { 1023, -0.5388429313898087, 1372, 1374 },
  { 414, -0.5611457526683807, 36, 1373 },
  { 687, -0.37148573994636536, 9, 38 },
  { 537, -0.7433835566043854, 22, 10 },
  { 754, -0.39696960151195526, 9, 1376 },
  { 842, -0.48979824781417847, 13, 1377 },
  { 493, -0.05093814432621002, 10, 29 },
  { 0, -0.02281915582716465, 1379, 1389 },
  { 333, -0.33208613097667694, 1380, 1384 },
  { 940, -0.4852316230535507, 38, 1381 },
  { 299, -0.15647778660058975, 1382, 10 },
  { 749, -0.370544895529747, 13, 1383 },
  { 326, -0.3410567194223404, 11, 36 },
  { 434, 0.21884435415267944, 1385, 1387 },
  { 23, -0.5087707936763763, 1386, 22 },
  { 986, -0.5817504525184631, 13, 38 },
  { 377, -0.3574422746896744, 29, 1388 },
  { 267, -0.14610682427883148, 9, 10 },
  { 128, -0.1425146833062172, 1390, 36 },
  { 39, -0.626936137676239, 22, 10 },
  { 841, -0.2645556628704071, 1392, 1414 },
  { 484, -0.6484142243862152, 11, 1393 },
  { 984, 0.06065942160785198, 1394, 1410 },
  { 675, -0.16701897233724594, 1395, 1408 },
  { 523, -0.5831476449966431, 1396, 1401 },
  { 71, -0.31094977259635925, 1397, 36 },
  { 685, -0.4823952168226242, 1398, 10 },
  { 736, -0.36525292694568634, 11, 1399 },
  { 830, -0.4389353394508362, 9, 1400 },
  { 534, -0.4046505242586136, 29, 5 },
  { 72, 0.23874147236347198, 1402, 1406 },
  { 2, 0.21634602546691895, 1403, 10 },
  { 854, -0.14736683387309313, 1404, 1405 },
  { 616, -0.612823486328125, 13, 9 },
  { 394, -0.4750036150217056, 11, 13 },
  { 264, -0.24911797046661377, 11, 1407 },
  { 673, -0.3632693290710449, 5, 39 },
  { 697, -0.2582614943385124, 1409, 39 },
  { 682, -0.41056065261363983, 38, 11 },
  { 911, -0.11865358985960484, 1411, 11 },
  { 509, -0.0438978411257267, 1412, 1413 },
  { 552, 0.06596438214182854, 38, 13 },
  { 561, -0.22068927809596062, 36, 38 },
  { 744, -0.33804792165756226, 1415, 1422 },
  { 401, -0.38335569202899933, 1416, 1420 },
  { 367, -0.1453983038663864, 1417, 22 },
  { 543, 0.4707380384206772, 1418, 9 },
  { 679, -0.24376844614744186, 1419, 38 },
  { 176, -0.4702722430229187, 10, 11 },
  { 902, -0.30369502305984497, 39, 1421 },
  { 107, -0.1845434084534645, 38, 9 },
  { 239, -0.12522416561841965, 22, 1423 },
  { 1004, 0.46544407308101654, 1424, 1433 },
  { 151, 0.5069222003221512, 1425, 22 },
  { 987, -0.25338054448366165, 1426, 1430 },
  { 389, -0.41445933282375336, 1427, 1429 },
  { 985, -0.5095743387937546, 1428, 10 },
  { 884, -0.28628678619861603, 38, 11 },
  { 724, 0.6317282244563103, 36, 10 },
  { 703, -0.21769050508737564, 38, 1431 },
  { 986, 0.1851479895412922, 1432, 13 },
  { 23, -0.35887307673692703, 9, 10 },
  { 531, 0.7865399122238159, 9, 29 },
  { 293, -0.19919691234827042, 1435, 1454 },
  { 634, 0.8805179595947266, 1436, 1453 },
  { 441, -0.02569569554179907, 1437, 1444 },
  { 439, -0.11735203489661217, 1438, 1443 },
  { 730, -0.3108883202075958, 39, 1439 },
  { 717, -0.12447074055671692, 1440, 10 },
  { 345, -0.000244340393692255, 1441, 1442 },
  { 538, 0.5152194425463676, 36, 38 },
  { 804, -0.3190872222185135, 22, 11 },
  { 166, -0.2757989764213562, 11, 38 },
  { 438, -0.22793300449848175, 1445, 1446 },
  { 356, -0.1509554162621498, 5, 22 },
  { 176, -0.2545816972851753, 1447, 1449 },
  { 302, -0.19920650869607925, 1448, 11 },
  { 239, -0.12365362793207169, 39, 13 },
  { 689, 0.9593704044818878, 1450, 22 },
  { 647, 1.9074488878250122, 1451, 38 },
  { 475, 0.7539974749088287, 39, 1452 },
  { 308, -0.20091857388615608, 38, 39 },
  { 634, 2.1111597418785095, 11, 38 },
  { 439, 1.4091823101043701, 1455, 1464 },
  { 722, 0.2526153177022934, 1456, 1463 },
  { 948, -0.23809648305177689, 13, 1457 },
  { 19, -0.4009682983160019, 10, 1458 },
  { 769, -0.23484069108963013, 29, 1459 },
  { 612, 0.34755414724349976, 1460, 38 },
  { 519, -0.6260790526866913, 39, 1461 },
  { 164, 0.05126899294555187, 13, 1462 },
  { 27, -0.2842968098120764, 36, 29 },
  { 623, 0.8249848186969757, 9, 36 },
  { 388, 2.2180907130241394, 22, 39 },
  { 519, 0.20264189690351486, 1466, 1491 },
  { 108, -0.3948637396097183, 1467, 1468 },
  { 1001, -0.21217410266399384, 29, 10 },
  { 226, 0.16728480905294418, 1469, 1471 },
  { 899, -0.3263280838727951, 9, 1470 },
  { 405, 0.933151364326477, 36, 22 },
  { 405, -0.26431097090244293, 1472, 1473 },
  { 972, -0.3006015866994858, 38, 29 },
  { 47, -0.3187800198793411, 1474, 1476 },
  { 290, 0.585586816072464, 10, 1475 },
  { 889, -0.06479992531239986, 13, 22 },
  { 520, 0.021391574991866946, 1477, 1489 },
  { 627, 0.5522481203079224, 1478, 1487 },
  { 157, 0.0834916103631258, 1479, 1482 },
  { 633, 0.05189555138349533, 1480, 36 },
  { 434, -0.24991263076663017, 9, 1481 },
  { 627, -0.22254538908600807, 22, 39 },
  { 445, 0.6889578104019165, 1483, 1485 },
  { 572, -0.3906875550746918, 1484, 29 },
  { 80, -0.23115476965904236, 29, 22 },
  { 835, 0.2728825584053993, 36, 1486 },
  { 611, 1.2779898531734943, 10, 29 },
  { 899, 0.4998423010110855, 1488, 10 },
  { 561, 1.1541555970907211, 39, 22 },
  { 804, 1.0532333254814148, 38, 1490 },
  { 356, 0.6079037189483643, 29, 36 },
  { 518, -0.11096972599625587, 1492, 1494 },
  { 394, 0.39379944652318954, 1493, 39 },
  { 230, 0.06907242815941572, 13, 22 },
  { 1019, 2.843045949935913, 1495, 36 },
  { 93, -0.33286789059638977, 1496, 29 },
  { 775, 0.2819104306399822, 29, 1497 },
  { 222, 0.43145255744457245, 38, 36 },
  { 835, -0.4533066004514694, 1499, 1530 },
  { 2, -0.5994603335857391, 1500, 1518 },
  { 592, -0.4585616886615753, 1501, 1512 },
  { 847, -0.5128260850906372, 1502, 1511 },
  { 534, -0.6454921364784241, 1503, 1504 },
  { 391, -0.3576109707355499, 13, 9 },
  { 498, 1.9894309639930725, 1505, 13 },
  { 833, -0.5046139657497406, 1506, 9 },
  { 1022, -0.7479985356330872, 1507, 1509 },
  { 220, -0.2620464712381363, 1508, 5 },
  { 162, -0.6530210673809052, 5, 13 },
  { 427, -0.7024730741977692, 1510, 5 },
  { 699, -0.5022780895233154, 13, 9 },
  { 138, -0.17064588516950607, 9, 5 },
  { 408, -0.5744237303733826, 11, 1513 },
  { 184, -0.5501599609851837, 1514, 5 },
  { 666, -0.5554880201816559, 1515, 1517 },
  { 18, -0.5515944510698318, 1516, 13 },
  { 169, -0.7086783051490784, 5, 38 },
  { 742, -0.31299643218517303, 11, 9 },
  { 501, -0.6849839985370636, 10, 1519 },
  { 941, -0.3508771061897278, 1520, 1525 },
  { 262, -0.32735516130924225, 13, 1521 },
  { 722, -0.36432695388793945, 5, 1522 },
  { 565, -0.5134569853544235, 13, 1523 },
  { 361, -0.36717458069324493, 9, 1524 },
  { 45, 0.0023874640464782715, 10, 5 },
  { 983, 0.6922940462827682, 1526, 1529 },
  { 107, -0.48626261949539185, 9, 1527 },
  { 591, -0.23943836241960526, 1528, 10 },
  { 861, -0.361908420920372, 13, 36 },
  { 193, -0.4842573404312134, 11, 5 },
  { 245, 0.14027444273233414, 1531, 1641 },
  { 393, -0.05506175197660923, 1532, 1599 },
  { 927, -0.4687831252813339, 1533, 1537 },
  { 7, -0.7736985683441162, 1534, 1535 },
  { 68, -0.8161922097206116, 9, 10 },
  { 768, -0.18329521268606186, 1536, 38 },
  { 706, -0.46094949543476105, 9, 11 },
  { 247, -0.06533744558691978, 1538, 1555 },
  { 5, -0.2635234370827675, 1539, 1551 },
  { 77, -0.45581938326358795, 1540, 1547 },
  { 888, -0.4215297996997833, 1541, 1543 },
  { 678, -0.5739966928958893, 9, 1542 },
  { 218, -0.2870894819498062, 22, 10 },
  { 885, -0.6464500725269318, 1544, 1545 },
  { 847, -0.4962691217660904, 38, 13 },
  { 314, -0.2679266035556793, 10, 1546 },
  { 746, -0.3788197338581085, 10, 22 },
  { 521, -0.7451055943965912, 1548, 1550 },
  { 937, -0.2282288447022438, 39, 1549 },
  { 314, -0.3265328109264374, 11, 38 },
  { 987, -0.7176761627197266, 11, 22 },
  { 136, -0.21900620311498642, 1552, 11 },
  { 371, -0.35574083030223846, 1553, 39 },
  { 355, -0.3722461760044098, 1554, 38 },
  { 910, -0.39843373000621796, 11, 9 },
  { 491, -0.4228867292404175, 1556, 1574 },
  { 786, -0.32002829015254974, 38, 1557 },
  { 650, -0.2631952464580536, 1558, 1561 },
  { 559, -0.5879225730895996, 1559, 36 },
  { 213, -0.13013284653425217, 1560, 29 },
  { 85, -0.5940441191196442, 38, 9 },
  { 0, -0.6542644500732422, 13, 1562 },
  { 61, -0.09107811562716961, 1563, 1572 },
  { 10, -0.406421422958374, 1564, 1569 },
  { 104, -0.39503371715545654, 1565, 1566 },
  { 720, -0.1835826113820076, 11, 10 },
  { 532, -0.6644961833953857, 1567, 36 },
  { 399, -0.3385620564222336, 22, 1568 },
  { 27, -0.17498739063739777, 39, 38 },
  { 580, -0.5727390050888062, 1570, 1571 },
  { 98, -0.24437405914068222, 29, 39 },
  { 987, -0.17204679921269417, 38, 22 },
  { 934, -0.10893257707357407, 9, 1573 },
  { 560, -0.22409997135400772, 39, 38 },
  { 526, -0.2964213192462921, 1575, 1586 },
  { 474, -0.5523833334445953, 1576, 1577 },
  { 816, -0.10043960064649582, 10, 29 },
  { 729, -0.32446229457855225, 1578, 1582 },
  { 493, 0.09934805445664097, 38, 1579 },
  { 582, -0.29759128764271736, 9, 1580 },
  { 847, -0.43422815203666687, 13, 1581 },
  { 55, 0.10285724699497223, 36, 39 },
  { 263, -0.07429312542080879, 1583, 1584 },
  { 576, 1.1969147289637476, 22, 13 },
  { 155, -0.22854743152856827, 29, 1585 },
  { 101, 0.04300700128078461, 5, 10 },
  { 41, 0.38651709258556366, 1587, 1594 },
  { 539, 0.2728210687637329, 1588, 1592 },
  { 405, 0.05514564923942089, 1589, 11 },
  { 339, 0.25113818794488907, 1590, 1591 },
  { 591, -0.6090021431446075, 38, 9 },
  { 450, 0.30442509427666664, 22, 38 },
  { 661, -0.5087338238954544, 1593, 10 },
  { 423, -0.26322380639612675, 13, 9 },
  { 34, 0.5489534437656403, 13, 1595 },
  { 349, -0.163438081741333, 5, 1596 },
  { 86, -0.24278435856103897, 38, 1597 },
  { 126, -0.21263135224580765, 11, 1598 },
  { 108, -0.2395196184515953, 10, 9 },
  { 775, -0.27072538435459137, 1600, 1602 },
  { 56, -0.35073575377464294, 1601, 39 },
  { 372, -0.25635503605008125, 10, 22 },
  { 78, 1.1161251068115234, 1603, 1636 },
  { 512, -0.37114217877388, 1604, 1611 },
  { 829, -0.24057356268167496, 1605, 1609 },
  { 88, 0.35910578817129135, 1606, 1608 },
  { 435, 0.08510313928127289, 1607, 10 },
  { 97, 0.3461412851465866, 29, 39 },
  { 702, -0.43070074915885925, 39, 11 },
  { 72, 0.298979751765728, 38, 1610 },
  { 953, 0.15396270528435707, 11, 29 },
  { 765, -0.21572323888540268, 1612, 1626 },
  { 522, -0.5599611401557922, 1613, 1614 },
  { 413, 0.08219555392861366, 36, 39 },
  { 113, 0.04316484183073044, 1615, 1617 },
  { 925, -0.1922866776585579, 1616, 22 },
  { 750, -0.2588234320282936, 10, 36 },
  { 987, -0.21143357455730438, 1618, 1619 },
  { 86, -0.03597049415111542, 36, 39 },
  { 907, -0.10622707195580006, 1620, 1621 },
  { 216, -0.11179622635245323, 29, 13 },
  { 994, 0.4070405960083008, 1622, 38 },
  { 544, 0.43356698751449585, 1623, 11 },
  { 602, 0.19198498129844666, 36, 1624 },
  { 704, -0.14756974205374718, 11, 1625 },
  { 584, 1.3027789741754532, 39, 22 },
  { 493, -0.5290101170539856, 1627, 1630 },
  { 231, -0.10114339366555214, 1628, 10 },
  { 840, -0.3344643712043762, 38, 1629 },
  { 773, 0.005051672458648682, 36, 22 },
  { 267, -0.010184172540903091, 1631, 1633 },
  { 849, 0.4765551835298538, 1632, 9 },
  { 850, 0.8709841966629028, 36, 39 },
  { 671, -0.07340143295004964, 36, 1634 },
  { 356, 0.46150851249694824, 1635, 22 },
  { 18, 0.8718843907117844, 10, 13 },
  { 600, 1.0008993744850159, 1637, 1638 },
  { 1014, 0.8229930251836777, 39, 22 },
  { 896, 1.1275259852409363, 9, 1639 },
  { 628, 1.0509567260742188, 29, 1640 },
  { 756, -0.11157340183854103, 38, 36 },
  { 868, 0.17291512340307236, 1642, 1651 },
  { 725, 0.878223329782486, 1643, 22 },
  { 0, -0.33024995028972626, 1644, 1648 },
  { 1013, -0.7193838953971863, 13, 1645 },
  { 194, 0.08573226537555456, 38, 1646 },
  { 891, -0.22666939347982407, 9, 1647 },
  { 1016, -0.10577359050512314, 39, 10 },
  { 637, 0.4012376666069031, 1649, 36 },
  { 947, 1.0547931790351868, 1650, 39 },
  { 680, 0.40873345732688904, 29, 36 },
  { 507, -0.16679278016090393, 1652, 1658 },
  { 1019, -0.3227117359638214, 1653, 1656 },
  { 138, 0.20197201520204544, 29, 1654 },
  { 977, -0.07239849865436554, 1655, 38 },
  { 713, 0.45112891867756844, 13, 22 },
  { 492, -0.5140933245420456, 29, 1657 },
  { 1013, -0.21620617806911469, 29, 10 },
  { 815, 0.00557314045727253, 36, 1659 },
  { 908, 2.246299535036087, 29, 22 },
  { 269, 0.6819884479045868, 1661, 1790 },
  { 351, -0.3262307792901993, 1662, 1688 },
  { 944, -0.4654116779565811, 1663, 1678 },
  { 567, -0.6767262816429138, 1664, 1674 },
  { 604, -0.6168944239616394, 1665, 1667 },
  { 349, -0.2281537503004074, 5, 1666 },
  { 993, -0.57252636551857, 11, 13 },
  { 490, -0.6386771500110626, 1668, 1670 },
  { 906, -0.660577654838562, 1669, 10 },
  { 634, -0.4422384798526764, 9, 11 },
  { 29, -0.513575941324234, 1671, 1672 },
  { 804, -0.34656116366386414, 5, 9 },
  { 516, -0.29062530398368835, 13, 1673 },
  { 811, -0.2982248216867447, 9, 11 },
  { 336, -0.5593183934688568, 1675, 1677 },
  { 492, -0.706491231918335, 1676, 5 },
  { 988, -0.2226942703127861, 13, 9 },
  { 3, -0.9366561472415924, 5, 13 },
  { 3, -0.8300610184669495, 1679, 1682 },
  { 448, -0.7146955728530884, 1680, 1681 },
  { 311, -0.20675481855869293, 5, 13 },
  { 992, -0.6633468270301819, 9, 11 },
  { 50, -0.23681416362524033, 1683, 1687 },
  { 111, -0.4159991294145584, 1684, 38 },
  { 445, -0.5931846499443054, 1685, 9 },
  { 724, -0.3621889799833298, 1686, 11 },
  { 397, -0.4392319619655609, 13, 10 },
  { 932, 0.8828128427267075, 13, 10 },
  { 511, 0.1337878704071045, 1689, 1768 },
  { 399, -0.046779289841651917, 1690, 1750 },
  { 523, 0.7476678490638733, 1691, 1742 },
  { 5, -0.46390965580940247, 1692, 1712 },
  { 134, -0.2407778725028038, 1693, 1704 },
  { 61, -0.6725642681121826, 1694, 1698 },
  { 724, -0.36605773866176605, 1695, 1696 },
  { 841, -0.32724085450172424, 22, 11 },
  { 24, 0.0680810755584389, 10, 1697 },
  { 519, -0.10938078910112381, 29, 38 },
  { 979, -0.35240572690963745, 13, 1699 },
  { 202, -0.08000081218779087, 1700, 10 },
  { 884, -0.6183280944824219, 38, 1701 },
  { 510, -0.771894633769989, 5, 1702 },
  { 863, -0.49610742926597595, 1703, 9 },
  { 781, -0.3801468759775162, 13, 36 },
  { 11, -0.08335112314671278, 1705, 38 },
  { 765, 0.7086150050163269, 1706, 1711 },
  { 406, -0.39063040912151337, 1707, 1710 },
  { 308, -0.211947463452816, 1708, 10 },
  { 934, -0.49045975506305695, 22, 1709 },
  { 636, -0.3579383045434952, 9, 38 },
  { 973, 0.20343703776597977, 22, 36 },
  { 956, -0.42015188932418823, 39, 13 },
  { 16, -0.7254232168197632, 1713, 1715 },
  { 588, -0.6100466549396515, 1714, 11 },
  { 477, -0.7615810632705688, 29, 9 },
  { 354, -0.3204825073480606, 1716, 1722 },
  { 239, -0.12291116267442703, 1717, 1719 },
  { 683, -0.5258376598358154, 13, 1718 },
  { 179, -0.35734614729881287, 11, 9 },
  { 770, -0.32190389931201935, 5, 1720 },
  { 649, -0.37071217596530914, 10, 1721 },
  { 579, 4.340592533349991, 38, 9 },
  { 312, -0.20560875535011292, 1723, 1734 },
  { 671, -0.22836700081825256, 1724, 1730 },
  { 639, -0.2035314440727234, 1725, 10 },
  { 216, -0.2400726154446602, 1726, 1729 },
  { 393, -0.26845619827508926, 1727, 1728 },
  { 854, -0.4282066076993942, 38, 36 },
  { 268, -0.26288267970085144, 11, 39 },
  { 759, -0.09399580210447311, 9, 29 },
  { 450, 1.8279287815093994, 1731, 39 },
  { 515, 0.26763034984469414, 1732, 1733 },
  { 415, 0.1034422516822815, 38, 22 },
  { 174, -0.26035602390766144, 22, 36 },
  { 283, -0.11992502212524414, 1735, 1737 },
  { 302, -0.16576873511075974, 1736, 22 },
  { 295, -0.25860218703746796, 10, 38 },
  { 939, -0.3334916830062866, 1738, 9 },
  { 474, -0.2730337232351303, 1739, 1740 },
  { 850, -0.25067146867513657, 36, 10 },
  { 409, -0.09969431068748236, 38, 1741 },
  { 565, -0.3700804114341736, 22, 9 },
  { 240, -0.2811828851699829, 1743, 1745 },
  { 962, -0.13391646859236062, 11, 1744 },
  { 305, -0.10349726676940918, 9, 11 },
  { 195, -0.268827423453331, 9, 1746 },
  { 504, -0.5616316795349121, 10, 1747 },
  { 676, -0.4674912542104721, 1748, 1749 },
  { 426, 0.5060663521289825, 22, 13 },
  { 371, -0.14230539835989475, 38, 9 },
  { 892, -0.3291080892086029, 1751, 1753 },
  { 885, -0.4599776118993759, 1752, 22 },
  { 326, -0.19620855897665024, 29, 11 },
  { 535, -0.11433862149715424, 1754, 1760 },
  { 198, -0.3242526054382324, 1755, 1756 },
  { 966, -0.2571301832795143, 22, 11 },
  { 765, -0.06377506069839001, 1757, 1759 },
  { 961, -0.4882747083902359, 36, 1758 },
  { 834, 0.5431057065725327, 39, 36 },
  { 177, 0.25080745853483677, 13, 10 },
  { 476, 0.03747006133198738, 1761, 1764 },
  { 851, 0.2332511767745018, 1762, 36 },
  { 779, -0.034131065011024475, 1763, 29 },
  { 141, 0.23426484316587448, 39, 9 },
  { 473, 0.5675840377807617, 1765, 1766 },
  { 532, -0.4636552110314369, 22, 38 },
  { 702, 0.1594490446150303, 1767, 39 },
  { 802, -0.2847154289484024, 11, 22 },
  { 428, -0.5465939342975616, 1769, 1771 },
  { 797, -0.23424091935157776, 10, 1770 },
  { 26, -0.5627833604812622, 10, 36 },
  { 454, -0.19025225937366486, 1772, 1776 },
  { 157, 0.3996589630842209, 1773, 1775 },
  { 407, -0.4960850775241852, 9, 1774 },
  { 969, -0.6176192164421082, 29, 36 },
  { 629, 0.5386292338371277, 36, 10 },
  { 811, -0.24763870239257812, 1777, 1778 },
  { 477, 0.1400218866765499, 39, 11 },
  { 628, 0.2995554655790329, 1779, 1786 },
  { 920, 0.10857473500072956, 1780, 1785 },
  { 1, 0.7666394710540771, 1781, 1782 },
  { 807, 0.8709495738148689, 29, 38 },
  { 155, -0.00575360975926742, 10, 1783 },
  { 407, 0.3038216829299927, 1784, 13 },
  { 557, 2.132406532764435, 36, 22 },
  { 249, -0.11938188225030899, 39, 9 },
  { 1023, 0.15009024739265442, 1787, 1788 },
  { 541, 0.19308212585747242, 39, 22 },
  { 888, 3.2730674743652344, 1789, 29 },
  { 544, 3.145236313343048, 36, 22 },
  { 997, -0.37160754203796387, 10, 1791 },
  { 523, 1.1876900792121887, 1792, 1796 },
  { 78, -0.31929711997509, 10, 1793 },
  { 432, 2.4385733008384705, 1794, 22 },
  { 517, -0.5537466406822205, 1795, 29 },
  { 18, 0.08472403511404991, 22, 29 },
  { 904, 0.4348385464400053, 29, 36 },
  { 361, -0.3665778934955597, 1798, 1819 },
  { 75, -0.3559841066598892, 1799, 1817 },
  { 515, -0.6500363051891327, 1800, 1810 },
  { 763, -0.32778269052505493, 1801, 1803 },
  { 549, -0.6560448408126831, 1802, 13 },
  { 1005, -0.706459105014801, 9, 5 },
  { 191, -0.45591774582862854, 1804, 13 },
  { 596, -0.022374231077264994, 1805, 13 },
  { 18, -0.7906217575073242, 11, 1806 },
  { 48, 0.4643513560295105, 1807, 13 },
  { 703, -0.5164540708065033, 1808, 9 },
  { 0, -0.16829990595579147, 5, 1809 },
  { 987, -0.6576076447963715, 5, 13 },
  { 677, -0.7059168517589569, 1811, 1814 },
  { 592, -0.4157508909702301, 1812, 1813 },
  { 512, 0.0706147849559784, 13, 5 },
  { 162, -0.6393213272094727, 9, 10 },
  { 682, -0.5802111327648163, 5, 1815 },
  { 564, -0.6590105295181274, 1816, 9 },
  { 964, -0.8305615484714508, 10, 11 },
  { 280, -0.25992628931999207, 11, 1818 },
  { 344, -0.524495005607605, 9, 5 },
  { 233, 0.2367350533604622, 1820, 1930 },
  { 102, -0.1305731050670147, 1821, 1891 },
  { 4, -0.7714067101478577, 1822, 1826 },
  { 817, -0.2207157090306282, 1823, 1825 },
  { 317, -0.31881575286388397, 1824, 13 },
  { 20, 1.8547115623950958, 11, 22 },
  { 267, -0.10998308658599854, 10, 13 },
  { 856, -0.36692242324352264, 1827, 1859 },
  { 1021, -0.6468182802200317, 1828, 1831 },
  { 592, -0.015728412196040154, 1829, 1830 },
  { 271, -0.166768379509449, 38, 9 },
  { 241, -0.158135324716568, 11, 13 },
  { 684, -0.6144500076770782, 1832, 1833 },
  { 732, -0.3457454442977905, 13, 36 },
  { 1018, -0.45882099866867065, 1834, 1846 },
  { 409, -0.4189140796661377, 1835, 1840 },
  { 104, -0.5248696208000183, 1836, 1839 },
  { 253, -0.1957605704665184, 22, 1837 },
  { 753, -0.24079260230064392, 11, 1838 },
  { 488, -0.636883020401001, 13, 36 },
  { 226, -0.1836620718240738, 10, 38 },
  { 878, -0.26241014897823334, 1841, 1845 },
  { 265, -0.04442215524613857, 1842, 29 },
  { 571, 0.2420666329562664, 1843, 9 },
  { 711, -0.3500821739435196, 36, 1844 },
  { 528, -0.6861951947212219, 13, 38 },
  { 812, 0.1091843880712986, 22, 13 },
  { 15, -0.5054565221071243, 1847, 1849 },
  { 225, -0.254864864051342, 11, 1848 },
  { 56, -0.4545532464981079, 22, 10 },
  { 490, -0.2807058170437813, 1850, 1854 },
  { 537, -0.04238099604845047, 1851, 1852 },
  { 456, 0.11370668932795525, 9, 39 },
  { 327, -0.14248192310333252, 1853, 10 },
  { 1019, 0.27486163657158613, 11, 9 },
  { 234, -0.27955979108810425, 1855, 1858 },
  { 553, -0.2316278642974794, 1856, 1857 },
  { 69, 0.6626800298690796, 9, 38 },
  { 799, -0.3407541960477829, 11, 38 },
  { 1014, -0.019567652605473995, 5, 13 },
  { 41, -0.03506269957870245, 1860, 1886 },
  { 1023, 0.6366105675697327, 1861, 36 },
  { 869, -0.3370758891105652, 1862, 1864 },
  { 32, -0.028585180640220642, 10, 1863 },
  { 949, -0.4071532189846039, 5, 9 },
  { 1002, -0.5960906744003296, 39, 1865 },
  { 514, 0.10745136067271233, 1866, 1879 },
  { 1012, 0.5134436786174774, 1867, 1877 },
  { 517, -0.7783194780349731, 22, 1868 },
  { 395, -0.0994904451072216, 1869, 10 },
  { 198, -0.29831646382808685, 1870, 1873 },
  { 522, 0.14752469956874847, 1871, 11 },
  { 386, -0.47400547564029694, 1872, 22 },
  { 650, -0.13831603899598122, 9, 38 },
  { 324, -0.09540138393640518, 1874, 1876 },
  { 222, -0.24606651067733765, 1875, 38 },
  { 561, -0.3305341899394989, 39, 38 },
  { 137, -0.18951423466205597, 9, 11 },
  { 492, -0.43518973886966705, 36, 1878 },
  { 431, -0.6541856825351715, 38, 29 },
  { 361, -0.09394582733511925, 1880, 1885 },
  { 465, -0.21998365223407745, 1881, 1884 },
  { 143, -0.16184192150831223, 10, 1882 },
  { 107, -0.35045866668224335, 36, 1883 },
  { 801, -0.120456762611866, 13, 22 },
  { 743, -0.3176366835832596, 22, 36 },
  { 532, -0.11381909437477589, 22, 10 },
  { 282, -0.17347821593284607, 38, 1887 },
  { 401, -0.20172379165887833, 9, 1888 },
  { 368, -0.1661574374884367, 38, 1889 },
  { 924, 0.03653716295957565, 22, 1890 },
  { 949, -0.21300963312387466, 29, 13 },
  { 278, -0.07298855111002922, 1892, 1920 },
  { 69, 0.49551109969615936, 1893, 1911 },
  { 2, -0.6312081217765808, 1894, 1896 },
  { 540, -0.28602831065654755, 1895, 38 },
  { 924, -0.26240283995866776, 9, 39 },
  { 933, -0.08608502894639969, 1897, 1899 },
  { 403, -0.19576004892587662, 1898, 39 },
  { 579, 0.014486044645309448, 36, 38 },
  { 389, -0.02715224027633667, 1900, 1902 },
  { 828, -0.3314196616411209, 38, 1901 },
  { 772, -0.17621461302042007, 22, 10 },
  { 669, -0.1162150427699089, 1903, 1904 },
  { 182, -0.2997444421052933, 39, 11 },
  { 589, -0.3372934013605118, 39, 1905 },
  { 129, 0.2641741558909416, 1906, 1908 },
  { 193, -0.26480481028556824, 1907, 36 },
  { 422, 1.0370283722877502, 10, 39 },
  { 94, 0.2852727472782135, 1909, 38 },
  { 700, 0.26683473587036133, 10, 1910 },
  { 681, 2.388386584818363, 22, 36 },
  { 71, 0.36815115809440613, 1912, 1914 },
  { 859, -0.2595730572938919, 1913, 11 },
  { 485, -0.23058779537677765, 13, 22 },
  { 975, 2.0971677899360657, 1915, 1919 },
  { 537, -0.6408196091651917, 1916, 1918 },
  { 539, -0.5041087865829468, 39, 1917 },
  { 786, -0.2698336988687515, 11, 36 },
  { 591, -0.08098914846777916, 38, 39 },
  { 315, 0.09791659563779831, 22, 38 },
  { 488, -0.1739753894507885, 1921, 1922 },
  { 961, -0.3033953309059143, 38, 36 },
  { 488, 1.342444121837616, 1923, 1929 },
  { 516, -0.3520705848932266, 1924, 1925 },
  { 876, 1.7487950921058655, 9, 39 },
  { 678, -0.0019853049889206886, 13, 1926 },
  { 1012, 0.4986037239432335, 1927, 1928 },
  { 473, 0.8513100445270538, 22, 10 },
  { 350, 0.8635319769382477, 38, 9 },
  { 581, 1.1450424827635288, 29, 36 },
  { 3, 0.5282913148403168, 1931, 1941 },
  { 563, -0.17434348165988922, 1932, 1939 },
  { 265, 0.1464482843875885, 1933, 29 },
  { 895, 0.2778029292821884, 1934, 1938 },
  { 689, 0.7313651740550995, 1935, 38 },
  { 271, 0.5733022689819336, 1936, 22 },
  { 812, 0.5664435774087906, 1937, 29 },
  { 696, 0.6262468099594116, 13, 39 },
  { 182, 0.7079770863056183, 10, 38 },
  { 491, 0.30688274651765823, 22, 1940 },
  { 578, 2.8138601817190647, 29, 10 },
  { 611, 0.25878822058439255, 1942, 1945 },
  { 191, 0.9061243236064911, 1943, 36 },
  { 793, 0.13707993738353252, 36, 1944 },
  { 849, 0.4816139042377472, 29, 36 },
  { 456, 0.8808954060077667, 29, 1946 },
  { 668, 0.18650805950164795, 39, 9 },
  { 360, -0.6594981253147125, 1948, 1970 },
  { 578, 0.6612972915172577, 1949, 11 },
  { 695, -0.39864620566368103, 1950, 1957 },
  { 445, -0.6208828091621399, 1951, 1954 },
  { 428, -0.6886973679065704, 5, 1952 },
  { 874, -0.7381031811237335, 1953, 5 },
  { 127, -0.5080929100513458, 9, 13 },
  { 56, 0.33691640198230743, 1955, 10 },
  { 975, 0.45255069248378277, 1956, 13 },
  { 736, -0.3686395138502121, 11, 9 },
  { 993, 0.10904486384242773, 1958, 5 },
  { 617, -0.6211569309234619, 1959, 1962 },
  { 194, -0.3041103035211563, 1960, 1961 },
  { 570, -0.5675209313631058, 9, 5 },
  { 485, -0.20112836360931396, 13, 5 },
  { 625, -0.6593147218227386, 1963, 1967 },
  { 623, -0.647347092628479, 1964, 13 },
  { 507, -0.598644495010376, 1965, 9 },
  { 856, -0.5959503650665283, 5, 1966 },
  { 394, -0.5279396772384644, 11, 22 },
  { 681, -0.5930250585079193, 1968, 1969 },
  { 139, -0.6702699661254883, 11, 10 },
  { 490, -0.6774665117263794, 9, 11 },
  { 240, 0.38153617084026337, 1971, 2087 },
  { 0, 1.1671937704086304, 1972, 2076 },
  { 434, 0.1964777112007141, 1973, 2056 },
  { 518, -0.33498020470142365, 1974, 2018 },
  { 313, -0.20848006755113602, 1975, 1979 },
  { 70, -0.41673530638217926, 1976, 1977 },
  { 844, -0.5591397285461426, 13, 11 },
  { 633, -0.42367036640644073, 36, 1978 },
  { 714, -0.2732168734073639, 13, 38 },
  { 8, -0.5787695348262787, 1980, 1998 },
  { 587, -0.3285672664642334, 1981, 1992 },
  { 186, -0.33960455656051636, 11, 1982 },
  { 429, -0.15506299957633018, 1983, 39 },
  { 160, -0.09729481115937233, 1984, 1990 },
  { 33, -0.23627595603466034, 1985, 36 },
  { 761, -0.05086413957178593, 1986, 1987 },
  { 860, -0.5583186447620392, 9, 10 },
  { 99, -0.38764771819114685, 29, 1988 },
  { 878, -0.22155743837356567, 38, 1989 },
  { 31, -0.5574684888124466, 36, 10 },
  { 78, -0.4211715906858444, 1991, 22 },
  { 903, 1.1394354403018951, 9, 10 },
  { 542, -0.11026506125926971, 1993, 5 },
  { 602, -0.2516276687383652, 1994, 1997 },
  { 441, -0.05054713040590286, 1995, 39 },
  { 11, -0.5603990256786346, 36, 1996 },
  { 771, -0.2668595388531685, 38, 9 },
  { 536, -0.6530113518238068, 10, 22 },
  { 502, -0.09502896666526794, 1999, 2011 },
  { 969, -0.422549769282341, 2000, 2005 },
  { 266, -0.05871010385453701, 2001, 2004 },
  { 140, -0.4711506962776184, 13, 2002 },
  { 384, 0.13808819092810154, 22, 2003 },
  { 608, -0.3185723125934601, 36, 22 },
  { 1006, -0.07048515602946281, 38, 10 },
  { 855, -0.41590119898319244, 2006, 2007 },
  { 620, -0.4103851169347763, 10, 13 },
  { 842, -0.33994534611701965, 2008, 2009 },
  { 462, 0.07722947001457214, 9, 39 },
  { 1018, -0.3810212314128876, 2010, 22 },
  { 544, -0.34104494750499725, 22, 38 },
  { 731, -0.391286164522171, 2012, 2013 },
  { 247, -0.06530550494790077, 38, 9 },
  { 665, -0.575999528169632, 5, 2014 },
  { 100, -0.1555297076702118, 2015, 36 },
  { 15, -0.6288237571716309, 10, 2016 },
  { 297, -0.21870049834251404, 38, 2017 },
  { 421, -0.5513056963682175, 13, 29 },
  { 806, -0.30966004729270935, 2019, 2028 },
  { 790, -0.37700308859348297, 2020, 2027 },
  { 706, -0.4200817942619324, 2021, 2024 },
  { 538, -0.3560301139950752, 11, 2022 },
  { 874, -0.5613390803337097, 13, 2023 },
  { 994, -0.2926619201898575, 36, 9 },
  { 526, -0.6045020222663879, 39, 2025 },
  { 934, -0.24436111003160477, 38, 2026 },
  { 1005, -0.24373693019151688, 11, 9 },
  { 552, 0.8241834491491318, 11, 22 },
  { 673, -0.45850086212158203, 2029, 2030 },
  { 776, -0.3463298976421356, 5, 9 },
  { 555, 0.16250895708799362, 2031, 2051 },
  { 502, 0.09337131679058075, 2032, 2044 },
  { 512, -0.4061466455459595, 2033, 2035 },
  { 150, -0.444380521774292, 2034, 22 },
  { 605, 0.022665351629257202, 29, 10 },
  { 537, -0.6715830862522125, 39, 2036 },
  { 940, -0.5020160973072052, 2037, 2038 },
  { 188, -0.020948962308466434, 38, 10 },
  { 698, -0.2605915665626526, 2039, 2042 },
  { 721, -0.141731396317482, 22, 2040 },
  { 559, -0.26774538680911064, 29, 2041 },
  { 465, -0.004409909248352051, 13, 38 },
  { 717, 0.019048437476158142, 36, 2043 },
  { 172, 0.7680078744888306, 22, 9 },
  { 250, -0.32372069358825684, 11, 2045 },
  { 6, 0.9922099709510803, 2046, 2049 },
  { 514, -0.14417718350887299, 2047, 2048 },
  { 548, -0.6383037865161896, 39, 38 },
  { 909, 0.12805723026394844, 9, 29 },
  { 514, 0.1642649509012699, 2050, 5 },
  { 479, -0.06574083864688873, 10, 11 },
  { 392, -0.26254433393478394, 9, 2052 },
  { 805, -0.36360689997673035, 2053, 2054 },
  { 226, -0.18714718520641327, 36, 11 },
  { 448, 0.5220594555139542, 38, 2055 },
  { 54, 2.0748159885406494, 13, 9 },
  { 537, -0.18644798547029495, 2057, 2062 },
  { 103, -0.09944078326225281, 2058, 2060 },
  { 444, -0.1721209203824401, 11, 2059 },
  { 274, -0.14725138433277607, 38, 29 },
  { 625, 2.0248085260391235, 39, 2061 },
  { 536, -0.17529870569705963, 36, 39 },
  { 804, 0.1924837827682495, 2063, 2075 },
  { 854, -0.1764167994260788, 2064, 2068 },
  { 787, -0.3576818108558655, 11, 2065 },
  { 455, 0.8718953430652618, 13, 2066 },
  { 515, -0.5793929398059845, 9, 2067 },
  { 858, -0.370095357298851, 10, 5 },
  { 717, -0.0813725646585226, 2069, 2071 },
  { 940, 1.340674638748169, 39, 2070 },
  { 220, -0.24918032437562943, 38, 11 },
  { 786, -0.31221814453601837, 22, 2072 },
  { 1023, 0.615932047367096, 2073, 36 },
  { 518, 0.8164363652467728, 2074, 38 },
  { 46, 0.40634870529174805, 39, 13 },
  { 735, 1.2725516110658646, 9, 36 },
  { 762, -0.2254054993391037, 2077, 2084 },
  { 789, -0.08592969179153442, 2078, 22 },
  { 828, -0.3962864577770233, 22, 2079 },
  { 1016, -0.34879401326179504, 2080, 2081 },
  { 770, -0.28038857877254486, 36, 10 },
  { 33, 0.09839683026075363, 39, 2082 },
  { 275, -0.06651289615547284, 13, 2083 },
  { 743, -0.0014142068102955818, 29, 9 },
  { 59, 5.14557957649231, 2085, 9 },
  { 521, -0.38075415790081024, 2086, 36 },
  { 950, 0.8565926738083363, 10, 36 },
  { 509, -0.4473964273929596, 2088, 2090 },
  { 919, -0.2613663300871849, 13, 2089 },
  { 735, 0.5427852347493172, 38, 10 },
  { 931, -0.38015134632587433, 2091, 2094 },
  { 701, 0.672912985086441, 2092, 36 },
  { 84, -0.2712496370077133, 2093, 22 },
  { 506, -0.1530965268611908, 10, 29 },
  { 10, 0.9055018723011017, 2095, 36 },
  { 716, 0.1597248539328575, 2096, 2097 },
  { 742, 1.4529326558113098, 22, 10 },
  { 34, -0.43002788722515106, 2098, 2099 },
  { 758, 0.6040967553853989, 29, 36 },
  { 51, -0.49306073784828186, 22, 2100 },
  { 813, 10.682400941848755, 2101, 36 },
  { 254, 0.27236880362033844, 2102, 29 },
  { 828, 0.22154760360717773, 29, 36 },
  { 324, -0.3350811004638672, 2104, 2125 },
  { 940, -0.5698384046554565, 2105, 2117 },
  { 840, -0.4444415718317032, 2106, 9 },
  { 863, -0.4889683127403259, 2107, 11 },
  { 648, -0.3819343000650406, 2108, 11 },
  { 1000, -0.4661230593919754, 2109, 2114 },
  { 668, -0.46469801664352417, 2110, 2111 },
  { 560, -0.5456331968307495, 5, 13 },
  { 717, -0.41761498153209686, 2112, 2113 },
  { 937, -0.30543606728315353, 13, 5 },
  { 732, -0.34459590911865234, 10, 5 },
  { 67, -0.49067528545856476, 2115, 9 },
  { 923, -0.4692153334617615, 5, 2116 },
  { 446, -0.28046320006251335, 13, 5 },
  { 944, -0.05069587519392371, 2118, 11 },
  { 97, -0.45079798996448517, 2119, 2124 },
  { 463, -0.28280025720596313, 2120, 2123 },
  { 782, -0.39466406404972076, 2121, 9 },
  { 421, -0.7148810029029846, 11, 2122 },
  { 294, -0.2879563122987747, 36, 13 },
  { 885, -0.7273226976394653, 10, 13 },
  { 871, -0.6628959476947784, 38, 5 },
  { 308, 0.5407595336437225, 2126, 2248 },
  { 411, -0.1053846888244152, 2127, 2206 },
  { 478, -0.6151922643184662, 2128, 2146 },
  { 340, -0.5285820662975311, 2129, 2130 },
  { 36, -0.7930116057395935, 10, 9 },
  { 1, -0.39440351724624634, 2131, 2140 },
  { 973, -0.5533881783485413, 2132, 2139 },
  { 241, -0.16787396371364594, 10, 2133 },
  { 274, -0.23646258562803268, 22, 2134 },
  { 653, -0.4804275929927826, 2135, 2136 },
  { 56, -0.5050831139087677, 11, 5 },
  { 1002, -0.39964956045150757, 29, 2137 },
  { 318, -0.26858724653720856, 36, 2138 },
  { 4, -0.31007932499051094, 38, 9 },
  { 565, 0.22030630707740784, 38, 11 },
  { 166, -0.13528317213058472, 2141, 2145 },
  { 846, -0.44516393542289734, 36, 2142 },
  { 682, 0.019548992626369, 2143, 2144 },
  { 725, -0.29692184925079346, 11, 10 },
  { 975, -0.4559016823768616, 36, 22 },
  { 703, 0.15850549936294556, 22, 29 },
  { 666, -0.5463488101959229, 2147, 2150 },
  { 165, -0.5650541186332703, 2148, 2149 },
  { 4, 1.0236344188451767, 13, 36 },
  { 650, -0.3075708597898483, 9, 10 },
  { 523, -0.1744430661201477, 2151, 2189 },
  { 405, -0.1523042991757393, 2152, 2185 },
  { 326, -0.3315776288509369, 2153, 2156 },
  { 145, -0.20664064586162567, 2154, 11 },
  { 795, -0.3208877891302109, 22, 2155 },
  { 827, -0.411165714263916, 13, 36 },
  { 660, -0.5329090058803558, 2157, 2162 },
  { 652, -0.6259463429450989, 29, 2158 },
  { 686, -0.45186756551265717, 2159, 2160 },
  { 124, -0.4792000651359558, 9, 38 },
  { 363, -0.3266642838716507, 9, 2161 },
  { 810, -0.31683480739593506, 10, 13 },
  { 403, -0.4830184578895569, 2163, 2166 },
  { 551, 0.4419463723897934, 2164, 2165 },
  { 350, -0.5897504687309265, 38, 10 },
  { 645, -0.38525688648223877, 5, 9 },
  { 779, -0.22810333222150803, 2167, 2176 },
  { 397, -0.09035079553723335, 2168, 9 },
  { 899, -0.21166974306106567, 2169, 2174 },
  { 518, -0.37995895743370056, 22, 2170 },
  { 316, -0.3091774582862854, 11, 2171 },
  { 29, -0.016651367768645287, 2172, 22 },
  { 76, -0.5920040607452393, 9, 2173 },
  { 51, -0.4240727052092552, 38, 5 },
  { 19, -0.37410345673561096, 39, 2175 },
  { 917, -0.23362936079502106, 22, 38 },
  { 936, -0.4535667151212692, 29, 2177 },
  { 682, 0.18386467173695564, 2178, 2184 },
  { 632, -0.29323580861091614, 2179, 2183 },
  { 466, -0.5276055335998535, 36, 2180 },
  { 976, -0.4687344878911972, 38, 2181 },
  { 167, -0.17846329510211945, 9, 2182 },
  { 614, -0.42359812557697296, 22, 5 },
  { 798, 0.04223096929490566, 10, 29 },
  { 551, -0.40187202394008636, 13, 38 },
  { 161, -0.0665140338242054, 2186, 2188 },
  { 70, 0.0103331059217453, 36, 2187 },
  { 443, 0.6190734952688217, 38, 29 },
  { 575, 1.3167175576090813, 22, 36 },
  { 510, -0.11499075964093208, 2190, 2203 },
  { 378, -0.2699873000383377, 2191, 2197 },
  { 492, -0.15347322821617126, 9, 2192 },
  { 43, -0.20145341753959656, 2193, 2194 },
  { 1007, 0.3241444453597069, 9, 36 },
  { 254, -0.2675195187330246, 13, 2195 },
  { 560, 0.22623451054096222, 11, 2196 },
  { 299, -0.1481652408838272, 38, 5 },
  { 103, -0.12353154644370079, 2198, 2201 },
  { 673, -0.4771142303943634, 5, 2199 },
  { 504, 0.3940688818693161, 38, 2200 },
  { 287, -0.206290602684021, 9, 38 },
  { 41, 3.6579490900039673, 2202, 13 },
  { 967, 0.4563625454902649, 36, 5 },
  { 82, -0.24108321964740753, 2204, 2205 },
  { 307, -0.14581723511219025, 11, 29 },
  { 80, -0.06047912500798702, 9, 13 },
  { 808, -0.1335703730583191, 2207, 2238 },
  { 336, -0.27052924036979675, 2208, 2220 },
  { 739, -0.21330635994672775, 2209, 29 },
  { 805, -0.37411242723464966, 2210, 2214 },
  { 622, -0.052354355342686176, 2211, 2213 },
  { 694, -0.370562881231308, 39, 2212 },
  { 824, -0.34328341484069824, 36, 38 },
  { 108, -0.2053956389427185, 9, 11 },
  { 226, -0.18916987627744675, 39, 2215 },
  { 33, -0.14683901518583298, 2216, 2219 },
  { 239, -0.10806893557310104, 2217, 38 },
  { 322, -0.2977977991104126, 9, 2218 },
  { 275, -0.32867439091205597, 36, 10 },
  { 441, 0.3345562070608139, 22, 13 },
  { 517, -0.6145617961883545, 2221, 2225 },
  { 487, 0.8168774172663689, 2222, 38 },
  { 383, 0.1136387288570404, 2223, 36 },
  { 1021, -0.5069715976715088, 39, 2224 },
  { 37, -0.4901541620492935, 22, 10 },
  { 897, 1.9423631429672241, 2226, 2237 },
  { 677, 1.4511340260505676, 2227, 2235 },
  { 429, -0.028970377519726753, 2228, 2231 },
  { 372, -0.17854434996843338, 39, 2229 },
  { 390, 0.12248308584094048, 2230, 22 },
  { 447, 0.36343197524547577, 38, 36 },
  { 467, 1.0014253854751587, 2232, 2234 },
  { 599, 0.945416122674942, 39, 2233 },
  { 763, 0.3003620281815529, 36, 39 },
  { 115, 0.37420766055583954, 38, 39 },
  { 776, -0.34060797095298767, 2236, 36 },
  { 206, -0.08591188862919807, 38, 22 },
  { 91, -0.016940445639193058, 36, 11 },
  { 475, 0.8425027430057526, 2239, 2246 },
  { 157, 0.40322838723659515, 2240, 2243 },
  { 22, -0.22192195802927017, 2241, 2242 },
  { 533, -0.4906318187713623, 39, 36 },
  { 427, -0.0005864463746547699, 29, 13 },
  { 898, 1.6904898881912231, 2244, 2245 },
  { 686, 2.700242340564728, 10, 38 },
  { 89, 0.12411008775234222, 9, 36 },
  { 471, 0.31251944601535797, 2247, 38 },
  { 28, 1.3908507823944092, 9, 22 },
  { 272, 0.32140667736530304, 2249, 2256 },
  { 439, 0.8652527332305908, 2250, 2253 },
  { 266, -0.008224647492170334, 36, 2251 },
  { 1019, 0.2673941282555461, 10, 2252 },
  { 150, 0.996193140745163, 22, 36 },
  { 478, 0.3451644852757454, 22, 2254 },
  { 872, 0.9826885461807251, 9, 2255 },
  { 421, 2.7735188007354736, 29, 39 },
  { 536, -0.4062011390924454, 2257, 2262 },
  { 778, 2.6070783138275146, 2258, 29 },
  { 962, -0.28127428889274597, 2259, 22 },
  { 666, 0.3068311735987663, 2260, 36 },
  { 385, -0.15467452257871628, 9, 2261 },
  { 534, -0.5918656289577484, 13, 29 },
  { 575, 1.6464931964874268, 2263, 36 },
  { 112, 1.8713504672050476, 2264, 39 },
  { 66, 0.6688056290149689, 29, 2265 },
  { 585, 0.07884075492620468, 29, 36 },
  { 662, -0.6974778771400452, 2267, 2289 },
  { 646, -0.5481065213680267, 2268, 2271 },
  { 964, -0.7448697090148926, 2269, 2270 },
  { 792, -0.34489263594150543, 9, 5 },
  { 742, -0.31973323225975037, 13, 11 },
  { 168, -0.5299299955368042, 2272, 2281 },
  { 163, -0.22776952385902405, 2273, 2278 },
  { 478, -0.7156208753585815, 13, 2274 },
  { 698, -0.5436701774597168, 2275, 2277 },
  { 30, -0.5474056452512741, 5, 2276 },
  { 561, -0.36941227316856384, 11, 38 },
  { 108, -0.4748382866382599, 9, 5 },
  { 969, -0.689064085483551, 2279, 5 },
  { 874, -0.7183058261871338, 2280, 11 },
  { 478, -0.7856106460094452, 10, 13 },
  { 859, -0.6952887773513794, 2282, 2284 },
  { 720, -0.20258768647909164, 2283, 9 },
  { 944, 0.013471588492393494, 13, 11 },
  { 552, -0.3023596303537488, 10, 2285 },
  { 374, -0.19007330387830734, 2286, 5 },
  { 238, -0.2368498370051384, 9, 2287 },
  { 533, 0.3455677032470703, 2288, 13 },
  { 236, -0.1080341637134552, 11, 10 },
  { 764, 0.8960992693901062, 2290, 2412 },
  { 70, -0.06086081638932228, 2291, 2366 },
  { 602, -0.469912514090538, 2292, 2318 },
  { 421, -0.6304280161857605, 2293, 2306 },
  { 196, -0.3053961247205734, 2294, 2303 },
  { 395, -0.5869722366333008, 2295, 2297 },
  { 103, -0.453414648771286, 2296, 29 },
  { 83, -0.5560415685176849, 11, 5 },
  { 1002, -0.425029993057251, 2298, 2301 },
  { 330, -0.416547954082489, 2299, 2300 },
  { 983, -0.5584416538476944, 10, 9 },
  { 352, -0.21193453669548035, 38, 11 },
  { 143, -0.2810414433479309, 13, 2302 },
  { 248, -0.24677113443613052, 36, 11 },
  { 4, -0.5637109130620956, 10, 2304 },
  { 763, -0.2967555671930313, 2305, 36 },
  { 424, -0.668837696313858, 11, 10 },
  { 466, -0.15866610407829285, 2307, 2314 },
  { 100, -0.4708668887615204, 10, 2308 },
  { 24, -0.6683163642883301, 2309, 2311 },
  { 123, -0.3826844096183777, 11, 2310 },
  { 720, 0.20596490800380707, 38, 36 },
  { 511, -0.019872844219207764, 2312, 10 },
  { 857, 0.3048870861530304, 22, 2313 },
  { 357, 0.03903836011886597, 38, 22 },
  { 539, -0.38140009343624115, 2315, 2317 },
  { 456, -0.5594489276409149, 11, 2316 },
  { 284, -0.30170825123786926, 39, 38 },
  { 553, -0.0003445148468017578, 13, 29 },
  { 3, 0.5539470911026001, 2319, 2357 },
  { 895, -0.04839771240949631, 2320, 2345 },
  { 1016, -0.6794413626194, 2321, 2328 },
  { 833, -0.5369316339492798, 36, 2322 },
  { 112, -0.3082364648580551, 2323, 2326 },
  { 512, -0.33853523433208466, 2324, 2325 },
  { 979, -0.3185007870197296, 9, 10 },
  { 112, -0.38689573109149933, 10, 38 },
  { 542, -0.3502486050128937, 22, 2327 },
  { 193, -0.2979026734828949, 9, 36 },
  { 1014, -0.20843717455863953, 2329, 2339 },
  { 543, -0.08766563609242439, 2330, 2338 },
  { 473, -0.5336739420890808, 2331, 2336 },
  { 585, -0.549470990896225, 10, 2332 },
  { 665, -0.3671739250421524, 2333, 2334 },
  { 481, -0.23609859496355057, 9, 13 },
  { 352, -0.14878803491592407, 38, 2335 },
  { 340, 0.01752641052007675, 22, 29 },
  { 1011, -0.13126894272863865, 38, 2337 },
  { 251, -0.1842973753809929, 36, 9 },
  { 631, -0.4281691759824753, 5, 36 },
  { 713, -0.29519759118556976, 2340, 2341 },
  { 72, -0.49057741463184357, 5, 11 },
  { 981, -0.38864970207214355, 2342, 9 },
  { 882, -0.4257967323064804, 9, 2343 },
  { 129, -0.1362459436058998, 38, 2344 },
  { 246, -0.24981597065925598, 36, 13 },
  { 960, -0.17831816524267197, 2346, 2354 },
  { 125, 0.24144576489925385, 2347, 2353 },
  { 598, -0.31456761062145233, 2348, 2351 },
  { 628, -0.15939799696207047, 10, 2349 },
  { 601, -0.23378387093544006, 36, 2350 },
  { 53, -0.49568508565425873, 38, 39 },
  { 12, -0.6061494946479797, 11, 2352 },
  { 574, -0.5158029198646545, 38, 29 },
  { 827, -0.2521272152662277, 39, 10 },
  { 704, -0.21157537400722504, 2355, 2356 },
  { 211, -0.16839341819286346, 11, 39 },
  { 458, -0.29970771074295044, 22, 38 },
  { 817, 0.23626215010881424, 2358, 2365 },
  { 507, -0.5544230043888092, 10, 2359 },
  { 38, 0.4962642937898636, 2360, 2362 },
  { 515, 0.6260047852993011, 2361, 36 },
  { 363, -0.2114637941122055, 39, 29 },
  { 501, -0.4394572228193283, 11, 2363 },
  { 856, 0.11200821399688721, 38, 2364 },
  { 402, 0.11639313586056232, 22, 29 },
  { 789, 1.4155696034431458, 29, 22 },
  { 246, -0.20516014099121094, 2367, 2395 },
  { 411, -0.0953812338411808, 2368, 2376 },
  { 1009, 0.040648460388183594, 2369, 2373 },
  { 453, -0.27515578269958496, 22, 2370 },
  { 9, -0.5513854324817657, 2371, 2372 },
  { 986, -0.22004129737615585, 22, 10 },
  { 618, -0.0785009256505873, 38, 11 },
  { 802, -0.33168825507164, 11, 2374 },
  { 888, -0.36758075654506683, 2375, 9 },
  { 217, -0.23062528669834137, 5, 13 },
  { 528, -0.4565788209438324, 2377, 2380 },
  { 530, 0.07677684351801872, 2378, 2379 },
  { 489, -0.4840061068534851, 11, 39 },
  { 632, 0.09563733637332916, 22, 36 },
  { 433, 0.5029963254928589, 2381, 2390 },
  { 189, -0.21352533251047134, 2382, 2383 },
  { 153, -0.39100882411003113, 13, 39 },
  { 483, 0.6836895644664764, 2384, 2389 },
  { 116, 0.42669157683849335, 2385, 2387 },
  { 916, 0.35770200937986374, 38, 2386 },
  { 42, -0.06049977894872427, 22, 36 },
  { 961, 0.45781347155570984, 2388, 36 },
  { 696, -0.053183577954769135, 39, 11 },
  { 561, 1.3959733843803406, 22, 11 },
  { 992, 0.6899653226137161, 2391, 2394 },
  { 322, -0.22101538628339767, 2392, 39 },
  { 976, 0.08835867792367935, 2393, 10 },
  { 561, -0.23137670755386353, 11, 36 },
  { 253, -0.14184240251779556, 22, 39 },
  { 607, -0.08483348414301872, 2396, 2401 },
  { 252, -0.03577587381005287, 2397, 13 },
  { 442, 1.1220291256904602, 2398, 9 },
  { 591, 0.23537496477365494, 2399, 36 },
  { 150, -0.14679258316755295, 2400, 39 },
  { 724, -0.17352566123008728, 29, 22 },
  { 223, -0.08847247809171677, 36, 2402 },
  { 1006, -0.41315269470214844, 38, 2403 },
  { 813, 0.1773221343755722, 2404, 2408 },
  { 223, 0.0014567328616976738, 2405, 2407 },
  { 554, 0.08528719004243612, 2406, 39 },
  { 440, 0.3419144004583359, 10, 13 },
  { 604, -0.12368327751755714, 22, 29 },
  { 302, 0.5370192676782608, 2409, 2410 },
  { 564, 1.4604842066764832, 36, 22 },
  { 1012, 0.0743202343583107, 22, 2411 },
  { 301, 0.7538421750068665, 38, 9 },
  { 775, 1.8182134628295898, 2413, 29 },
  { 898, 1.096773087978363, 2414, 2417 },
  { 478, -0.3667925149202347, 2415, 29 },
  { 417, -0.12732993252575397, 13, 2416 },
  { 124, 0.20072394609451294, 10, 22 },
  { 971, -0.5366392582654953, 13, 36 },
  { 883, -0.6292456686496735, 2419, 2433 },
