


    // !!! This file is generated using emlearn !!!

    #include <eml_trees.h>
    

EmlTreesNode RandomForestClassifier_nodes[14731] = {
  { 178, -0.37026138603687286, 1, 22 },
  { 956, 0.21355976909399033, 2, 7 },
  { 2, -0.781850278377533, 3, 8 },
  { 559, 0.6365499645471573, 4, 7 },
  { 560, -0.023121479898691177, 5, 6 },
  { -1, 1, -1, -1 },
  { -1, 5, -1, -1 },
  { -1, 0, -1, -1 },
  { 570, -0.6193105578422546, 9, 14 },
  { 763, -0.32598915696144104, 10, 5 },
  { 742, -0.3196974843740463, 11, 13 },
  { 618, -0.6176752150058746, 12, 7 },
  { -1, 8, -1, -1 },
  { -1, 2, -1, -1 },
  { 879, -0.46011054515838623, 15, 21 },
  { 939, -0.36029765009880066, 16, 18 },
  { 934, -0.6452657282352448, 17, 6 },
  { 965, -0.6174913644790649, 6, 5 },
  { 989, -0.3676931858062744, 19, 12 },
  { 98, -0.4287499934434891, 13, 20 },
  { -1, 9, -1, -1 },
  { 265, -0.06582846492528915, 13, 5 },
  { 755, 0.7460179030895233, 23, 152 },
  { 416, -0.11333677917718887, 24, 106 },
  { 851, -0.6081977486610413, 25, 28 },
  { 101, -0.5234911441802979, 26, 6 },
  { 580, -0.14419280411675572, 27, 7 },
  { 52, -0.5211310535669327, 13, 5 },
  { 5, -0.4585423469543457, 29, 63 },
  { 402, -0.33246348798274994, 30, 48 },
  { 481, 0.390766441822052, 31, 5 },
  { 78, -0.13781854510307312, 32, 46 },
  { 210, -0.21798446774482727, 33, 36 },
  { 768, -0.23193305730819702, 34, 6 },
  { 717, -0.41921815276145935, 7, 35 },
  { -1, 3, -1, -1 },
  { 659, -0.5848341882228851, 37, 38 },
  { -1, 7, -1, -1 },
  { 513, -0.4425989240407944, 39, 42 },
  { 795, -0.3206275403499603, 35, 40 },
  { 7, -0.7745352387428284, 6, 41 },
  { 583, -0.4971863478422165, 37, 13 },
  { 534, -0.6265489161014557, 20, 43 },
  { 510, -0.5255597531795502, 13, 44 },
  { 622, -0.35456614196300507, 12, 45 },
  { 34, 1.5413383767008781, 13, 12 },
  { 419, -0.4306289851665497, 6, 47 },
  { -1, 4, -1, -1 },
  { 737, -0.35305359959602356, 49, 56 },
  { 341, -0.2815112918615341, 50, 52 },
  { 83, -0.05424026399850845, 51, 7 },
  { 321, -0.43833741545677185, 47, 20 },
  { 361, 0.06476496160030365, 53, 54 },
  { 314, -0.365617498755455, 20, 35 },
  { 974, -0.5750723481178284, 20, 55 },
  { 855, 0.34196150302886963, 47, 12 },
  { 185, -0.048761241137981415, 57, 47 },
  { 866, -0.1951872706413269, 58, 12 },
  { 409, -0.25694211572408676, 59, 61 },
  { 339, -0.5534406900405884, 60, 35 },
  { 743, -0.3028254210948944, 12, 5 },
  { 818, -0.2162177711725235, 62, 6 },
  { 234, -0.2670949250459671, 47, 13 },
  { 727, -0.3161502182483673, 64, 82 },
  { 826, -0.38140444457530975, 65, 76 },
  { 834, -0.42238597571849823, 66, 47 },
  { 577, -0.10773555189371109, 67, 75 },
  { 998, -0.6407272517681122, 68, 72 },
  { 628, -0.26485322415828705, 69, 71 },
  { 474, -0.5093197971582413, 7, 70 },
  { 669, -0.5832246840000153, 12, 6 },
  { -1, 6, -1, -1 },
  { 488, -0.6031064093112946, 73, 13 },
  { 88, -0.5725374966859818, 12, 74 },
  { 135, -0.4160044342279434, 47, 20 },
  { 371, -0.6211943626403809, 7, 20 },
  { 675, -0.31956519186496735, 12, 77 },
  { 461, -0.24206768721342087, 78, 80 },
  { 1007, 1.55251544713974, 79, 13 },
  { 806, -0.30893608927726746, 7, 35 },
  { 709, -0.3697556257247925, 7, 81 },
  { 717, -0.3791878670454025, 20, 13 },
  { 224, -0.08826681226491928, 83, 101 },
  { 739, -0.17721597850322723, 84, 100 },
  { 860, -0.18270530551671982, 85, 98 },
  { 932, -0.25308386981487274, 86, 93 },
  { 513, -0.3156956434249878, 87, 89 },
  { 617, -0.5227410048246384, 5, 88 },
  { 25, 0.0380081357434392, 13, 20 },
  { 299, -0.15288839489221573, 71, 90 },
  { 808, -0.34375375509262085, 47, 91 },
  { 24, -0.07158884406089783, 35, 92 },
  { 397, -0.17112383246421814, 20, 13 },
  { 971, -0.19884074851870537, 94, 6 },
  { 253, -0.14257576316595078, 95, 37 },
  { 308, -0.3774949461221695, 12, 96 },
  { 674, -0.5820115208625793, 47, 97 },
  { 151, -0.23638983070850372, 5, 35 },
  { 202, -0.08180480264127254, 20, 99 },
  { 541, -0.26143673434853554, 35, 7 },
  { 860, 1.6416753381490707, 20, 47 },
  { 792, 0.04781967215240002, 47, 102 },
  { 426, -0.3548247218132019, 12, 103 },
  { 188, 0.04795147606637329, 13, 104 },
  { 9, 0.19671577215194702, 37, 105 },
  { 966, -0.41874656081199646, 35, 47 },
  { 515, 0.2731032371520996, 107, 134 },
  { 928, 0.34356050193309784, 108, 121 },
  { 304, -0.09592482820153236, 109, 115 },
  { 66, -0.3228028565645218, 110, 113 },
  { 12, -0.5107375532388687, 35, 111 },
  { 654, -0.46267053484916687, 7, 112 },
  { 484, -0.29933828115463257, 20, 13 },
  { 194, -0.062438247725367546, 114, 20 },
  { 894, -0.39100590348243713, 20, 71 },
  { 461, -0.30782344937324524, 35, 116 },
  { 87, -0.11424855515360832, 13, 117 },
  { 988, -0.5134015828371048, 71, 118 },
  { 800, -0.24370364099740982, 20, 119 },
  { 86, 0.09247033856809139, 120, 12 },
  { 523, -0.49900786578655243, 37, 47 },
  { 994, -0.40402349829673767, 122, 124 },
  { 891, -0.014246251434087753, 123, 71 },
  { 256, -0.09303920343518257, 7, 12 },
  { 466, -0.3978036195039749, 13, 125 },
  { 383, 0.3218315839767456, 126, 133 },
  { 590, -0.2643484100699425, 127, 129 },
  { 590, -0.43369220197200775, 128, 20 },
  { 138, -0.15902359038591385, 5, 12 },
  { 593, 0.5010380893945694, 35, 130 },
  { 458, 0.28921712934970856, 47, 131 },
  { 822, -0.14798900298774242, 7, 132 },
  { 318, 0.18759583681821823, 6, 13 },
  { 573, 0.09987547807395458, 71, 20 },
  { 423, 0.23732784390449524, 135, 142 },
  { 161, 0.10104413703083992, 136, 137 },
  { 594, -0.35039545595645905, 37, 47 },
  { 240, 0.4470434933900833, 138, 20 },
  { 574, 0.8543161749839783, 71, 139 },
  { 621, 0.03421534597873688, 6, 140 },
  { 657, 0.19418081361800432, 37, 141 },
  { 632, 1.7909490466117859, 7, 12 },
  { 886, -0.14699193835258484, 71, 143 },
  { 499, -0.23342274129390717, 35, 144 },
  { 436, 1.3837565183639526, 145, 151 },
  { 643, 0.44551244378089905, 146, 149 },
  { 19, -0.06603884696960449, 20, 147 },
  { 683, 0.07751613203436136, 148, 35 },
  { 65, 1.5804395973682404, 6, 7 },
  { 363, 0.9186800122261047, 47, 150 },
  { 99, 0.415422978810966, 37, 13 },
  { 65, 0.8343005180358887, 37, 71 },
  { 26, -0.49609875679016113, 153, 156 },
  { 158, 0.35449256747961044, 154, 47 },
  { 377, -0.1539839580655098, 155, 6 },
  { 539, -0.254406176507473, 37, 20 },
  { 443, 1.8996411561965942, 157, 167 },
  { 518, -0.27770641446113586, 158, 160 },
  { 623, 0.4008641988039017, 159, 37 },
  { 666, -0.19136662408709526, 13, 35 },
  { 723, 10.682395219802856, 161, 47 },
  { 943, -0.4958391636610031, 12, 162 },
  { 397, 2.8323346376419067, 163, 35 },
  { 331, 0.12435388565063477, 164, 165 },
  { 929, -0.007784657180309296, 37, 12 },
  { 671, 0.05482177622616291, 166, 37 },
  { 1005, 0.0844556987285614, 35, 37 },
  { 646, 9.791158974170685, 47, 12 },
  { 261, 0.18546239286661148, 169, 303 },
  { 836, -0.48378342390060425, 170, 189 },
  { 958, 0.3947390913963318, 171, 186 },
  { 514, -0.527092695236206, 172, 183 },
  { 418, -0.6332522332668304, 173, 175 },
  { 22, -0.7155005931854248, 6, 174 },
  { 970, -0.009568540379405022, 5, 13 },
  { 418, -0.621203750371933, 176, 177 },
  { 187, -0.2968585938215256, 6, 7 },
  { 89, -0.5087666362524033, 178, 182 },
  { 635, -0.48810651898384094, 179, 180 },
  { 65, -0.709463894367218, 13, 7 },
  { 678, -0.6401444673538208, 13, 181 },
  { 130, -0.40220437943935394, 5, 6 },
  { 539, -0.5383255928754807, 20, 6 },
  { 926, -0.4955681711435318, 184, 12 },
  { 941, -0.33040741086006165, 6, 185 },
  { 900, -0.611747145652771, 13, 5 },
  { 977, -0.18307382613420486, 7, 187 },
  { 258, -0.2682199478149414, 6, 188 },
  { 586, 1.2707558870315552, 12, 71 },
  { 1022, 0.21354413032531738, 190, 276 },
  { 98, -0.1583409681916237, 191, 241 },
  { 665, -0.43098069727420807, 192, 218 },
  { 19, -0.34900860488414764, 193, 203 },
  { 600, -0.5875456631183624, 194, 197 },
  { 758, -0.40058717131614685, 12, 195 },
  { 788, -0.20920854806900024, 7, 196 },
  { 529, -0.2810746505856514, 37, 13 },
  { 2, -0.45968225598335266, 198, 201 },
  { 605, -0.47704607248306274, 199, 200 },
  { 994, -0.5465186089277267, 35, 5 },
  { 211, -0.18197423964738846, 20, 13 },
  { 75, -0.42860014736652374, 202, 7 },
  { 648, -0.174988254904747, 12, 7 },
  { 886, -0.34669029712677, 204, 205 },
  { 917, -0.6125220358371735, 37, 6 },
  { 176, -0.4185459613800049, 206, 214 },
  { 954, -0.16743579506874084, 207, 212 },
  { 726, -0.3737167567014694, 208, 209 },
  { 396, -0.35917632281780243, 12, 20 },
  { 238, -0.15872936695814133, 210, 211 },
  { 625, 0.06048263795673847, 13, 5 },
  { 65, -0.5108181685209274, 6, 20 },
  { 889, -0.4351460337638855, 213, 12 },
  { 230, -0.21111863106489182, 35, 20 },
  { 247, -0.0653625875711441, 35, 215 },
  { 568, -0.4371920973062515, 47, 216 },
  { 10, -0.12775278463959694, 37, 217 },
  { 102, -0.3642863929271698, 7, 20 },
  { 294, -0.2828504592180252, 219, 223 },
  { 129, -0.2698783576488495, 220, 221 },
  { 176, -0.44001972675323486, 12, 20 },
  { 101, -0.2801358997821808, 7, 222 },
  { 717, -0.33517134189605713, 71, 12 },
  { 454, 0.496217742562294, 224, 238 },
  { 636, 1.0013723969459534, 225, 12 },
  { 108, -0.2150081843137741, 226, 234 },
  { 510, -0.5512349605560303, 20, 227 },
  { 578, -0.576593428850174, 228, 230 },
  { 203, -0.23975813388824463, 229, 37 },
  { 609, -0.48106759786605835, 7, 20 },
  { 387, -0.22973912209272385, 231, 232 },
  { 23, 0.3543107509613037, 35, 7 },
  { 947, -0.5053393393754959, 20, 233 },
  { 197, -0.1509167104959488, 13, 7 },
  { 1012, -0.1886182501912117, 235, 13 },
  { 589, -0.406980037689209, 47, 236 },
  { 57, -0.1481889057904482, 35, 237 },
  { 130, -0.16204800456762314, 71, 20 },
  { 245, -0.15887951105833054, 239, 5 },
  { 6, -0.0016939938068389893, 71, 240 },
  { 363, -0.260891392827034, 20, 7 },
  { 530, 0.05655379965901375, 242, 268 },
  { 939, -0.390022337436676, 243, 249 },
  { 133, -0.10370136424899101, 244, 248 },
  { 635, -0.3054651468992233, 5, 245 },
  { 173, -0.22318759560585022, 246, 20 },
  { 979, -0.5486751198768616, 13, 247 },
  { 91, -0.172841377556324, 6, 71 },
  { 376, -0.06082317139953375, 35, 6 },
  { 939, 0.6012779474258423, 250, 262 },
  { 1023, -0.5569855868816376, 251, 253 },
  { 936, 0.042095035314559937, 252, 20 },
  { 16, -0.5232563763856888, 6, 13 },
  { 1002, -0.13610632717609406, 254, 258 },
  { 90, -0.029347135685384274, 255, 71 },
  { 314, -0.152213703840971, 256, 35 },
  { 442, -0.3884536921977997, 37, 257 },
  { 96, 0.10104554146528244, 71, 20 },
  { 236, -0.08626431971788406, 259, 20 },
  { 879, -0.11892810463905334, 71, 260 },
  { 219, -0.33380553126335144, 7, 261 },
  { 525, 0.43038713932037354, 35, 12 },
  { 602, 0.11893595196306705, 35, 263 },
  { 841, 0.05113335885107517, 264, 20 },
  { 756, -0.2964598387479782, 265, 12 },
  { 145, -0.15627602115273476, 13, 266 },
  { 529, -0.596188098192215, 47, 267 },
  { 846, 0.25408078730106354, 7, 6 },
  { 574, 0.5993639826774597, 269, 274 },
  { 736, -0.3567636013031006, 270, 272 },
  { 473, 0.6101907789707184, 271, 71 },
  { 817, -0.20919576287269592, 35, 20 },
  { 801, -0.2731896638870239, 35, 273 },
  { 956, 0.1589786671102047, 37, 12 },
  { 674, 0.2699557691812515, 7, 275 },
  { 725, -0.042763739824295044, 71, 13 },
  { 597, -0.4432317316532135, 277, 283 },
  { 924, -0.39649680256843567, 278, 281 },
  { 611, -0.3903462737798691, 12, 279 },
  { 57, 0.42386824637651443, 280, 5 },
  { 605, -0.4881718307733536, 47, 71 },
  { 373, -0.36691342294216156, 282, 35 },
  { 496, -0.31698375940322876, 47, 71 },
  { 891, -0.07610907778143883, 284, 288 },
  { 235, -0.3292529582977295, 285, 286 },
  { 214, -0.2913455218076706, 20, 35 },
  { 294, 0.14604317396879196, 287, 12 },
  { 1021, -0.20720671489834785, 71, 47 },
  { 770, -0.032242514193058014, 289, 298 },
  { 1004, 0.5891292989253998, 290, 295 },
  { 902, 1.3729878664016724, 291, 12 },
  { 899, 0.8785071671009064, 292, 47 },
  { 39, 0.13083206862211227, 293, 294 },
  { 822, -0.23512831330299377, 7, 35 },
  { 458, 0.9436815679073334, 6, 71 },
  { 902, 0.320426344871521, 13, 296 },
  { 63, -0.08329223841428757, 71, 297 },
  { 775, -0.219009131193161, 37, 35 },
  { 1021, 1.3207261562347412, 299, 302 },
  { 851, 0.6585616245865822, 37, 300 },
  { 598, 0.5935218557715416, 47, 301 },
  { 860, 3.732154369354248, 12, 20 },
  { 508, 4.5493245124816895, 47, 71 },
  { 187, -0.06542627327144146, 35, 304 },
  { 511, -0.19357483088970184, 305, 308 },
  { 657, 0.5588794052600861, 35, 306 },
  { 1008, -0.39856405556201935, 307, 47 },
  { 565, -0.41233696043491364, 6, 37 },
  { 68, 2.60635769367218, 309, 20 },
  { 86, -0.30909933149814606, 310, 311 },
  { 475, -0.5859242975711823, 47, 37 },
  { 450, 0.6531829833984375, 312, 314 },
  { 436, 2.657411217689514, 313, 35 },
  { 1020, 6.336482763290405, 37, 47 },
  { 160, 0.6579028964042664, 47, 20 },
  { 161, -0.32733170688152313, 316, 339 },
  { 579, -0.5857452750205994, 317, 326 },
  { 500, -0.6035503447055817, 318, 321 },
  { 997, -0.7593206167221069, 319, 320 },
  { 906, -0.5623646080493927, 12, 7 },
  { 911, -0.702404111623764, 5, 6 },
  { 467, -0.315621554851532, 322, 6 },
  { 711, -0.37345342338085175, 323, 325 },
  { 1018, 0.2174067571759224, 5, 324 },
  { 501, -0.29401491954922676, 6, 5 },
  { 948, -0.6115007102489471, 6, 5 },
  { 959, -0.3781028389930725, 327, 332 },
  { 480, -0.6525644361972809, 328, 331 },
  { 484, -0.6327424347400665, 329, 330 },
  { 473, 0.056527167558670044, 6, 20 },
  { 932, -0.5420137643814087, 13, 7 },
  { 968, 0.6265312731266022, 6, 12 },
  { 49, -0.45089225471019745, 7, 333 },
  { 782, -0.3914449214935303, 334, 338 },
  { 811, -0.3003555089235306, 335, 336 },
  { 166, -0.5795224905014038, 7, 6 },
  { 887, -0.4782918393611908, 337, 5 },
  { 823, -0.31321296095848083, 13, 7 },
  { 29, -0.21289163082838058, 12, 5 },
  { 246, 0.5890001654624939, 340, 448 },
  { 0, 1.1671937704086304, 341, 438 },
  { 671, -0.32563143968582153, 342, 379 },
  { 86, -0.4783152788877487, 343, 359 },
  { 402, -0.3779853880405426, 344, 349 },
  { 808, -0.3730008900165558, 35, 345 },
  { 677, -0.6594782173633575, 346, 347 },
  { 804, -0.33060912787914276, 6, 13 },
  { 823, 0.08835610374808311, 348, 6 },
  { 77, -0.5825987756252289, 12, 47 },
  { 698, -0.4546499699354172, 350, 354 },
  { 677, -0.6150122582912445, 351, 7 },
  { 847, -0.5168455243110657, 47, 352 },
  { 357, -0.26045292615890503, 353, 6 },
  { 796, -0.3525099605321884, 12, 5 },
  { 115, -0.4581715911626816, 37, 355 },
  { 942, -0.47717198729515076, 356, 357 },
  { 694, -0.45134294033050537, 35, 13 },
  { 609, -0.27351758629083633, 12, 358 },
  { 910, -0.2954031974077225, 35, 5 },
  { 443, -0.4743049293756485, 360, 363 },
  { 1010, -0.5738445818424225, 361, 362 },
  { 723, -0.09274249896407127, 47, 37 },
  { 845, -0.13722415291704237, 13, 12 },
  { 8, -0.7303319275379181, 364, 366 },
  { 893, -0.4113159030675888, 47, 365 },
  { 23, 0.464521586894989, 35, 12 },
  { 73, -0.14797020703554153, 367, 374 },
  { 33, -0.2080230563879013, 368, 373 },
  { 8, 0.060913488268852234, 369, 13 },
  { 245, -0.16745870560407639, 7, 370 },
  { 779, -0.26695987582206726, 371, 12 },
  { 968, -0.48716016113758087, 35, 372 },
  { 319, -0.44096460938453674, 6, 71 },
  { 690, -0.3981250822544098, 37, 20 },
  { 381, -0.3351520448923111, 375, 376 },
  { 390, -0.3408519774675369, 6, 5 },
  { 906, -0.05244007334113121, 6, 377 },
  { 624, -0.22435417771339417, 13, 378 },
  { 649, -0.3481220304965973, 71, 7 },
  { 52, -0.2159314602613449, 380, 407 },
  { 980, -0.5546121001243591, 381, 390 },
  { 396, -0.1747761145234108, 382, 387 },
  { 476, -0.6194174587726593, 383, 385 },
  { 703, -0.40101803839206696, 7, 384 },
  { 531, -0.2575068324804306, 20, 35 },
  { 950, -0.16814934462308884, 20, 386 },
  { 194, -0.1950727254152298, 37, 13 },
  { 755, -0.37984268367290497, 71, 388 },
  { 898, -0.17450617998838425, 35, 389 },
  { 949, -0.22627637162804604, 12, 7 },
  { 691, -0.30401699244976044, 391, 398 },
  { 109, -0.4467654824256897, 7, 392 },
  { 805, -0.4000338762998581, 393, 394 },
  { 461, -0.3980433940887451, 35, 20 },
  { 646, -0.31097181141376495, 395, 396 },
  { 596, -0.502620592713356, 35, 13 },
  { 959, -0.2181028015911579, 47, 397 },
  { 314, -0.24416926503181458, 7, 6 },
  { 896, 0.026676468551158905, 399, 403 },
  { 540, -0.44974882900714874, 400, 401 },
  { 118, -0.1669314056634903, 20, 47 },
  { 814, 0.9296210408210754, 402, 20 },
  { 897, -0.3961440920829773, 13, 35 },
  { 172, -0.10291446000337601, 12, 404 },
  { 629, 0.23279576003551483, 35, 405 },
  { 74, -0.013050626497715712, 20, 406 },
  { 535, -0.3688267767429352, 71, 12 },
  { 529, -0.6184735894203186, 408, 409 },
  { 604, -0.4822298735380173, 12, 71 },
  { 388, -0.09176691249012947, 410, 421 },
  { 713, -0.26395943760871887, 411, 414 },
  { 1022, -0.4436342269182205, 412, 413 },
  { 307, -0.3236749917268753, 13, 20 },
  { 962, 0.4883105121552944, 47, 7 },
  { 885, -0.5210804343223572, 6, 415 },
  { 522, -0.004980246536433697, 416, 13 },
  { 498, -0.2680543065071106, 417, 420 },
  { 432, 0.16183565417304635, 418, 20 },
  { 119, -0.2489234060049057, 419, 35 },
  { 449, -0.5368214845657349, 37, 13 },
  { 709, -0.24246317893266678, 20, 12 },
  { 548, 0.4636189937591553, 422, 432 },
  { 105, 0.12217119336128235, 423, 428 },
  { 286, -0.05962774157524109, 424, 37 },
  { 414, -0.03362391842529178, 71, 425 },
  { 612, -0.008689861744642258, 426, 7 },
  { 442, 0.056044794619083405, 20, 427 },
  { 359, 0.22919358662329614, 6, 47 },
  { 131, 7.923345327377319, 429, 7 },
  { 531, 0.8400280177593231, 430, 6 },
  { 493, -0.4205344021320343, 431, 71 },
  { 717, -0.1284218467772007, 71, 20 },
  { 245, -0.16117896139621735, 35, 433 },
  { 397, 3.235078811645508, 434, 71 },
  { 638, 0.20361796021461487, 435, 436 },
  { 383, 0.19602405838668346, 7, 13 },
  { 708, 0.27191852778196335, 20, 437 },
  { 313, 0.6499764025211334, 47, 35 },
  { 305, 0.1556745320558548, 439, 446 },
  { 1020, -0.3342607617378235, 440, 441 },
  { 108, -0.36467622220516205, 47, 12 },
  { 207, -0.08937874436378479, 442, 443 },
  { 132, -0.30225831270217896, 35, 71 },
  { 73, 1.8258123993873596, 444, 445 },
  { 257, 0.4182965159416199, 47, 37 },
  { 193, 0.2730070613324642, 6, 35 },
  { 908, 0.3746744692325592, 13, 447 },
  { 72, 1.5175921022891998, 37, 35 },
  { 444, 2.6063575744628906, 449, 461 },
  { 539, -0.5461903512477875, 450, 452 },
  { 541, -0.3567878007888794, 451, 35 },
  { 264, 0.49473243951797485, 71, 37 },
  { 509, 2.013965368270874, 453, 460 },
  { 503, 1.3498835563659668, 454, 458 },
  { 2, -0.36701500415802, 455, 456 },
  { 59, -0.3360566347837448, 13, 6 },
  { 876, -0.09500923380255699, 457, 37 },
  { 438, 0.7262914627790451, 37, 35 },
  { 304, 0.5618383288383484, 459, 47 },
  { 687, -0.07124036736786366, 35, 37 },
  { 439, 1.6075609922409058, 47, 71 },
  { 535, 0.2141773933544755, 12, 462 },
  { 197, 1.2038370370864868, 20, 47 },
  { 853, -0.49753327667713165, 464, 496 },
  { 90, -0.6516598165035248, 465, 473 },
  { 523, -0.7275528013706207, 12, 466 },
  { 316, -0.3755330890417099, 467, 472 },
  { 49, -0.5259648859500885, 468, 5 },
  { 115, -0.5244982242584229, 5, 469 },
  { 193, -0.505410760641098, 6, 470 },
  { 114, -0.34583525359630585, 5, 471 },
  { 489, -0.43697723746299744, 7, 13 },
  { 922, -0.5797536373138428, 13, 5 },
  { 466, -0.05113870091736317, 474, 490 },
  { 574, -0.5050375461578369, 475, 483 },
  { 859, -0.6889934241771698, 476, 478 },
  { 280, -0.26571178436279297, 13, 477 },
  { 572, -0.7855884730815887, 5, 6 },
  { 854, -0.567206472158432, 13, 479 },
  { 20, -0.7620188593864441, 480, 481 },
  { 432, -0.29652463644742966, 12, 7 },
  { 440, -0.6563646197319031, 35, 482 },
  { 914, -0.4429972469806671, 6, 47 },
  { 985, -0.06238098815083504, 484, 7 },
  { 913, -0.5995249152183533, 485, 488 },
  { 726, -0.3785114586353302, 486, 487 },
  { 271, -0.16752928495407104, 20, 7 },
  { 339, -0.6230223476886749, 5, 13 },
  { 958, -0.5045281648635864, 12, 489 },
  { 630, -0.4219357520341873, 6, 47 },
  { 707, -0.43535786867141724, 491, 495 },
  { 21, -0.4982289671897888, 492, 5 },
  { 168, -0.526492714881897, 20, 493 },
  { 788, -0.21224208921194077, 71, 494 },
  { 177, -0.3623253107070923, 12, 6 },
  { 910, -0.27731381356716156, 6, 5 },
  { 246, 0.011838528793305159, 497, 582 },
  { 398, -0.2381797656416893, 498, 531 },
  { 90, -0.6594384908676147, 7, 499 },
  { 514, -0.4931466430425644, 500, 509 },
  { 128, -0.36804628372192383, 501, 504 },
  { 1011, -0.5162281841039658, 502, 503 },
  { 765, -0.2842217981815338, 6, 47 },
  { 709, -0.3972330689430237, 35, 13 },
  { 66, -0.3906666487455368, 505, 508 },
  { 1016, -0.6220103204250336, 20, 506 },
  { 313, -0.13928310573101044, 7, 507 },
  { 922, -0.41865304112434387, 37, 12 },
  { 399, -0.44792115688323975, 6, 5 },
  { 518, -0.4653391093015671, 510, 519 },
  { 683, -0.2846653163433075, 511, 516 },
  { 415, -0.45950011909008026, 512, 35 },
  { 24, -0.3225323110818863, 513, 515 },
  { 182, -0.36535824835300446, 514, 12 },
  { 928, -0.5220926105976105, 47, 12 },
  { 858, -0.4000111222267151, 12, 35 },
  { 598, -0.4974357783794403, 517, 20 },
  { 703, -0.3093029707670212, 6, 518 },
  { 509, -0.19473708420991898, 35, 47 },
  { 903, -0.4210825562477112, 520, 521 },
  { 177, -0.3568533658981323, 6, 37 },
  { 634, -0.22317743301391602, 522, 7 },
  { 139, -0.38592275977134705, 523, 13 },
  { 316, -0.3066975772380829, 524, 528 },
  { 815, -0.20286516845226288, 525, 20 },
  { 378, -0.2704750895500183, 526, 7 },
  { 736, -0.34884558618068695, 47, 527 },
  { 707, -0.42962199449539185, 6, 5 },
  { 879, -0.2998700737953186, 35, 529 },
  { 514, 0.2261277139186859, 530, 12 },
  { 125, -0.3775012791156769, 20, 35 },
  { 446, -0.06038419343531132, 532, 553 },
  { 514, 0.19622448086738586, 533, 548 },
  { 624, -0.3419435918331146, 534, 536 },
  { 1010, -0.7128141820430756, 35, 535 },
  { 114, -0.2342676967382431, 35, 20 },
  { 953, 1.03214892745018, 537, 7 },
  { 63, -0.08861633762717247, 538, 545 },
  { 244, -0.2616574168205261, 539, 541 },
  { 85, 0.292722599580884, 540, 7 },
  { 121, -0.2648693695664406, 7, 35 },
  { 213, -0.07914327457547188, 542, 35 },
  { 88, -0.3596668839454651, 543, 544 },
  { 367, -0.042221625335514545, 12, 35 },
  { 566, 0.20448204781860113, 13, 71 },
  { 280, -0.2593657523393631, 47, 546 },
  { 835, -0.3239463269710541, 547, 20 },
  { 289, -0.22999980300664902, 13, 6 },
  { 538, -0.6151295602321625, 71, 549 },
  { 847, 0.14848453551530838, 550, 551 },
  { 21, 0.6781595051288605, 47, 35 },
  { 347, 0.14220847189426422, 552, 35 },
  { 72, 1.236167699098587, 47, 12 },
  { 545, 0.16209804266691208, 554, 568 },
  { 108, -0.25128669291734695, 555, 557 },
  { 689, -0.1756326463073492, 556, 35 },
  { 508, 0.2459193766117096, 20, 13 },
  { 1, 1.1654356122016907, 558, 567 },
  { 708, 0.4626583158969879, 559, 566 },
  { 401, 3.548887610435486, 560, 7 },
  { 1003, 0.33287617564201355, 561, 565 },
  { 896, -0.4117935299873352, 20, 562 },
  { 908, -0.3793690949678421, 563, 564 },
  { 412, -0.0685899592936039, 20, 71 },
  { 629, 2.1889288425445557, 71, 47 },
  { 257, -0.2859337329864502, 20, 47 },
  { 898, 0.04595820605754852, 35, 47 },
  { 180, 0.013085989281535149, 47, 12 },
  { 6, -0.2682744190096855, 569, 572 },
  { 564, 0.12854409031569958, 570, 35 },
  { 524, -0.5924383103847504, 20, 571 },
  { 475, -0.1945386454463005, 12, 71 },
  { 813, -0.26657429337501526, 7, 573 },
  { 558, 0.9466195404529572, 574, 578 },
  { 408, 0.11842816695570946, 575, 20 },
  { 658, 0.7892410457134247, 576, 577 },
  { 633, 0.06159518472850323, 6, 7 },
  { 272, -0.17325854115188122, 20, 13 },
  { 948, 1.0207860171794891, 579, 580 },
  { 82, 1.701667070388794, 47, 20 },
  { 21, 0.001380021683871746, 7, 581 },
  { 32, 1.893004298210144, 71, 37 },
  { 254, 0.8405396342277527, 583, 603 },
  { 619, 0.40513645112514496, 584, 598 },
  { 807, 0.8996039628982544, 585, 596 },
  { 370, -0.2886534482240677, 586, 590 },
  { 281, 0.0412294827401638, 587, 588 },
  { 944, -0.6421606838703156, 20, 47 },
  { 597, 0.043269435642287135, 589, 35 },
  { 891, -0.24410921335220337, 13, 12 },
  { 548, 0.5298279225826263, 591, 595 },
  { 815, 0.4984322339296341, 592, 594 },
  { 824, 0.6336624920368195, 37, 593 },
  { 469, -0.23267622664570808, 71, 12 },
  { 451, 0.21235547214746475, 12, 35 },
  { 840, 0.7607366740703583, 35, 13 },
  { 311, 0.2808873876929283, 20, 597 },
  { 569, 0.3911036550998688, 47, 13 },
  { 2, 0.769660472869873, 599, 602 },
  { 25, -0.2285270169377327, 12, 600 },
  { 445, 0.5588344037532806, 35, 601 },
  { 742, 2.6079964861273766, 71, 47 },
  { 411, 0.7605367451906204, 47, 37 },
  { 510, -0.23573588579893112, 604, 605 },
  { 529, -0.5988632589578629, 6, 12 },
  { 446, 0.7552168965339661, 606, 608 },
  { 125, 1.5711525082588196, 37, 607 },
  { 680, 2.1081743836402893, 37, 47 },
  { 102, 0.5727075189352036, 35, 20 },
  { 181, -0.5441389679908752, 610, 628 },
  { 981, -0.1861797198653221, 611, 623 },
  { 431, -0.5530248284339905, 612, 620 },
  { 8, -0.7930318117141724, 613, 614 },
  { 461, -0.6420639157295227, 7, 6 },
  { 513, -0.4293608218431473, 615, 6 },
  { 883, -0.46183253824710846, 616, 13 },
  { 591, -0.6130891740322113, 617, 619 },
  { 14, -0.5523816049098969, 618, 5 },
  { 957, -0.6203220784664154, 5, 6 },
  { 675, -0.3722732663154602, 5, 13 },
  { 673, -0.5743221044540405, 621, 5 },
  { 954, -0.20642869174480438, 6, 622 },
  { 336, -0.5828758478164673, 12, 20 },
  { 63, -0.5894963145256042, 624, 625 },
  { 984, -0.6412526965141296, 5, 6 },
  { 728, -0.3693946897983551, 626, 627 },
  { 449, 0.670997142791748, 7, 6 },
  { 307, -0.33964599668979645, 13, 5 },
  { 763, 0.22371210902929306, 629, 737 },
  { 415, -0.22054708749055862, 630, 691 },
  { 506, -0.537799745798111, 631, 656 },
  { 510, -0.46393096446990967, 632, 644 },
  { 305, -0.09284170344471931, 633, 643 },
  { 325, -0.22560028731822968, 634, 642 },
  { 833, -0.5553601086139679, 5, 635 },
  { 866, -0.5272397696971893, 636, 637 },
  { 859, -0.6931234002113342, 6, 13 },
  { 775, -0.24423645436763763, 638, 6 },
  { 252, -0.128237783908844, 20, 639 },
  { 102, -0.488360658288002, 35, 640 },
  { 278, -0.3048977851867676, 12, 641 },
  { 367, -0.16607948020100594, 47, 7 },
  { 715, -0.3534972369670868, 47, 35 },
  { 879, 0.3587628901004791, 13, 71 },
  { 110, -0.36949776113033295, 645, 650 },
  { 347, -0.6224747598171234, 646, 647 },
  { 1011, -0.14263512194156647, 7, 6 },
  { 506, -0.5711308717727661, 648, 6 },
  { 770, -0.2679772675037384, 12, 649 },
  { 368, -0.5131885409355164, 12, 47 },
  { 365, -0.3128071427345276, 651, 652 },
  { 57, -0.5797637104988098, 12, 47 },
  { 248, -0.2416256070137024, 653, 654 },
  { 1004, -0.44153308868408203, 35, 20 },
  { 467, -0.33037425577640533, 12, 655 },
  { 11, -0.49720071256160736, 47, 35 },
  { 49, -0.5651903450489044, 7, 657 },
  { 1, 0.7970042526721954, 658, 690 },
  { 133, -0.24748240411281586, 659, 669 },
  { 605, -0.5686410665512085, 6, 660 },
  { 272, -0.2767236828804016, 661, 666 },
  { 829, -0.3526037782430649, 662, 665 },
  { 199, -0.20921602100133896, 663, 664 },
  { 377, -0.4614063799381256, 5, 7 },
  { 692, -0.5798847079277039, 47, 13 },
  { 809, -0.3132389187812805, 12, 20 },
  { 589, -0.24966319650411606, 667, 6 },
  { 918, -0.4455406069755554, 668, 20 },
  { 891, -0.5247741043567657, 37, 35 },
  { 799, -0.11538108065724373, 670, 687 },
  { 486, -0.28166306018829346, 671, 682 },
  { 152, -0.26568368077278137, 672, 20 },
  { 331, -0.3765488415956497, 673, 681 },
  { 1011, 0.18935119360685349, 674, 47 },
  { 214, -0.27687086164951324, 675, 677 },
  { 213, -0.1544034481048584, 676, 7 },
  { 385, -0.14139116555452347, 7, 71 },
  { 652, -0.5063784569501877, 5, 678 },
  { 519, -0.20372547954320908, 679, 13 },
  { 421, -0.5252003520727158, 37, 680 },
  { 66, -0.45897990465164185, 12, 71 },
  { 803, -0.33475251495838165, 35, 12 },
  { 434, -0.23255260288715363, 683, 684 },
  { 90, -0.5880655646324158, 7, 20 },
  { 614, -0.31084463000297546, 685, 7 },
  { 1016, -0.10721924155950546, 20, 686 },
  { 896, -0.10309528186917305, 13, 47 },
  { 433, -0.09362557763233781, 688, 13 },
  { 939, -0.5728908777236938, 689, 35 },
  { 658, -0.20801465958356857, 12, 47 },
  { 385, 0.6052787862718105, 47, 12 },
  { 279, -0.11664380133152008, 692, 723 },
  { 442, 0.10754910111427307, 693, 709 },
  { 609, 0.8096107542514801, 694, 707 },
  { 257, -0.29193809628486633, 35, 695 },
  { 32, -0.4026167690753937, 696, 698 },
  { 905, 0.003862935584038496, 71, 697 },
  { 680, 0.9001997858285904, 47, 12 },
  { 397, -0.35105304419994354, 5, 699 },
  { 513, -0.31860148906707764, 700, 702 },
  { 877, -0.27181946486234665, 701, 20 },
  { 872, -0.3489926904439926, 6, 35 },
  { 630, -0.07742787431925535, 13, 703 },
  { 723, -0.2407180219888687, 47, 704 },
  { 410, 0.02657234389334917, 705, 12 },
  { 521, 0.30562778376042843, 35, 706 },
  { 648, 0.5694407522678375, 7, 37 },
  { 475, -0.06838232278823853, 708, 7 },
  { 657, -0.28482601791620255, 13, 35 },
  { 1022, 1.897089660167694, 710, 722 },
  { 853, -0.3554762601852417, 711, 715 },
  { 981, 0.21418631449341774, 712, 7 },
  { 980, -0.15039631724357605, 5, 713 },
  { 545, 0.08471125364303589, 71, 714 },
  { 855, -0.4890856444835663, 35, 20 },
  { 926, 2.433030605316162, 716, 721 },
  { 500, 1.2816329598426819, 717, 720 },
  { 681, 2.1647047996520996, 718, 47 },
  { 821, 0.14717818796634674, 719, 35 },
  { 362, -0.3796456456184387, 35, 71 },
  { 122, 1.112577736377716, 20, 71 },
  { 883, 0.1027803122997284, 6, 7 },
  { 326, -0.06834818609058857, 47, 7 },
  { 713, -0.013762900605797768, 724, 728 },
  { 250, -0.01875511720572831, 725, 6 },
  { 512, 0.6330105662345886, 20, 726 },
  { 581, -0.18257050216197968, 6, 727 },
  { 297, -0.1560138389468193, 47, 37 },
  { 488, 1.3603665828704834, 729, 37 },
  { 973, 1.5885449647903442, 730, 734 },
  { 304, -0.027358914725482464, 12, 731 },
  { 255, 0.039923254400491714, 47, 732 },
  { 631, -0.13583563268184662, 6, 733 },
  { 257, 0.22264839708805084, 35, 37 },
  { 1019, -0.32649065554142, 13, 735 },
  { 152, 5.501382112503052, 35, 736 },
  { 637, 2.258151650428772, 47, 20 },
  { 450, 0.6544260680675507, 738, 754 },
  { 48, -0.3614241033792496, 739, 747 },
  { 314, 0.6421136856079102, 740, 744 },
  { 692, 0.3799022436141968, 741, 12 },
  { 810, 0.6871100068092346, 742, 743 },
  { 454, -0.49326489865779877, 47, 35 },
  { 229, 0.2845008671283722, 71, 6 },
  { 968, -0.372277095913887, 37, 745 },
  { 793, 0.6536842584609985, 746, 35 },
  { 667, 0.31466691195964813, 47, 12 },
  { 667, -0.30158960819244385, 748, 749 },
  { 452, -0.11641467362642288, 35, 12 },
  { 27, -0.46101538836956024, 750, 752 },
  { 102, 0.29894791543483734, 47, 751 },
  { 354, 0.8512221425771713, 20, 37 },
  { 925, -0.24268076568841934, 753, 37 },
  { 622, -0.13009551540017128, 37, 35 },
  { 224, 1.7731010913848877, 755, 757 },
  { 719, 0.016439910512417555, 71, 756 },
  { 17, 0.3951384797692299, 20, 47 },
  { 20, 1.552635133266449, 12, 37 },
  { 370, -0.6680174469947815, 759, 779 },
  { 126, -0.5986167192459106, 760, 773 },
  { 20, -0.7102927267551422, 761, 766 },
  { 645, -0.5658846795558929, 5, 762 },
  { 488, -0.7551665902137756, 763, 765 },
  { 1018, -0.8237401843070984, 764, 7 },
  { 591, -0.7127821445465088, 12, 13 },
  { 611, -0.4155113846063614, 6, 13 },
  { 529, 1.100409984588623, 767, 772 },
  { 457, -0.642567902803421, 768, 769 },
  { 625, -0.7062610983848572, 5, 6 },
  { 944, -0.4791029095649719, 5, 770 },
  { 888, -0.4706049859523773, 6, 771 },
  { 552, 0.31048744171857834, 12, 13 },
  { 488, 0.006446383893489838, 13, 5 },
  { 968, -0.4145021587610245, 774, 775 },
  { 947, 2.471537947654724, 6, 7 },
  { 733, -0.33621107041835785, 7, 776 },
  { 9, -0.23406747728586197, 5, 777 },
  { 344, -0.48145610094070435, 778, 13 },
  { 633, -0.452544629573822, 6, 20 },
  { 274, 1.1035045981407166, 780, 901 },
  { 99, -0.23317021131515503, 781, 829 },
  { 513, -0.3811294287443161, 782, 805 },
  { 987, 1.1091033518314362, 783, 803 },
  { 147, -0.3230286091566086, 784, 796 },
  { 970, -0.15685708075761795, 785, 792 },
  { 970, -0.5697949528694153, 786, 787 },
  { 899, -0.5106515288352966, 7, 35 },
  { 171, -0.23252490162849426, 788, 791 },
  { 348, -0.3454972803592682, 789, 790 },
  { 930, -0.2570381611585617, 13, 12 },
  { 875, -0.5936670303344727, 5, 20 },
  { 574, -0.4577074348926544, 6, 47 },
  { 658, -0.2929757833480835, 793, 5 },
  { 247, -0.06519613415002823, 794, 13 },
  { 440, -0.5395620763301849, 6, 795 },
  { 186, -0.33732420206069946, 35, 7 },
  { 558, -0.7563005089759827, 7, 797 },
  { 565, -0.45003841817379, 798, 801 },
  { 583, -0.6750823557376862, 37, 799 },
  { 123, -0.1848510578274727, 800, 12 },
  { 500, -0.48437099158763885, 35, 7 },
  { 331, -0.054700018372386694, 802, 13 },
  { 830, -0.18073052167892456, 20, 35 },
  { 395, -0.5281860530376434, 804, 6 },
  { 877, -0.514027789235115, 7, 5 },
  { 620, -0.5441135466098785, 806, 808 },
  { 15, 0.28620627522468567, 807, 13 },
  { 182, -0.4349125325679779, 13, 12 },
  { 236, -0.1050441637635231, 809, 821 },
  { 660, -0.47315211594104767, 810, 814 },
  { 816, -0.20729409158229828, 811, 12 },
  { 695, -0.378616526722908, 47, 812 },
  { 852, -0.5821965932846069, 20, 813 },
  { 693, -0.512206494808197, 7, 35 },
  { 315, -0.24274411797523499, 815, 816 },
  { 432, -0.086193373426795, 7, 71 },
  { 990, -0.4921042323112488, 817, 818 },
  { 1018, -0.173209298402071, 35, 20 },
  { 186, -0.20617704093456268, 819, 820 },
  { 278, -0.30171985924243927, 12, 13 },
  { 179, 0.2198721319437027, 47, 7 },
  { 121, -0.2570820748806, 822, 825 },
  { 348, -0.3685113191604614, 47, 823 },
  { 301, -0.036616846453398466, 824, 20 },
  { 764, -0.1252500992268324, 6, 37 },
  { 38, -0.28215621411800385, 826, 827 },
  { 440, -0.5948004126548767, 47, 12 },
  { 879, -0.1854631006717682, 35, 828 },
  { 235, 0.11740235984325409, 47, 12 },
  { 219, -0.22632808238267899, 830, 866 },
  { 115, -0.15811583399772644, 831, 845 },
  { 260, -0.12673110514879227, 832, 834 },
  { 805, -0.4011330157518387, 833, 35 },
  { 108, -0.15670376271009445, 71, 7 },
  { 499, -0.7551385164260864, 71, 835 },
  { 70, 0.2304435446858406, 836, 843 },
  { 713, -0.2620156854391098, 837, 839 },
  { 704, -0.2479909434914589, 838, 20 },
  { 445, -0.13412979245185852, 47, 13 },
  { 525, 0.4325134754180908, 840, 12 },
  { 847, -0.1964958757162094, 841, 35 },
  { 626, -0.26036134362220764, 842, 13 },
  { 914, -0.3127913326025009, 5, 20 },
  { 745, -0.30774904787540436, 35, 844 },
  { 15, 2.8065299368463457, 12, 7 },
  { 931, -0.3092952370643616, 846, 848 },
  { 897, 0.360781654715538, 847, 7 },
  { 251, -0.18788816779851913, 71, 47 },
  { 1010, -0.47368474304676056, 849, 853 },
  { 276, -0.09924989938735962, 850, 851 },
  { 389, -0.21245494484901428, 20, 71 },
  { 596, 1.5307906866073608, 47, 852 },
  { 743, -0.1700819954276085, 35, 12 },
  { 154, -0.21413655579090118, 854, 856 },
  { 684, -0.4867684841156006, 855, 7 },
  { 47, -0.1295714396983385, 13, 35 },
  { 441, 0.24061007797718048, 857, 862 },
  { 80, 0.3169599622488022, 858, 20 },
  { 553, -0.18731863424181938, 859, 861 },
  { 217, -0.2602593004703522, 20, 860 },
  { 255, -0.28013426065444946, 47, 12 },
  { 559, -0.18599537387490273, 13, 35 },
  { 824, -0.22666872292757034, 863, 71 },
  { 632, 0.9712820947170258, 864, 20 },
  { 678, -0.11647244542837143, 71, 865 },
  { 814, -0.33275844156742096, 7, 35 },
  { 936, -0.2611854076385498, 867, 875 },
  { 421, -0.3137623071670532, 868, 870 },
  { 317, 0.4105997532606125, 13, 869 },
  { 196, 1.1040039658546448, 35, 47 },
  { 628, -0.2838495820760727, 871, 872 },
  { 515, 0.15973971784114838, 35, 6 },
  { 862, 0.5250680893659592, 873, 874 },
  { 218, -0.15138310939073563, 6, 37 },
  { 647, 0.10526157356798649, 12, 47 },
  { 917, 0.026987734716385603, 876, 880 },
  { 685, 0.7075736820697784, 877, 20 },
  { 260, -0.04447571560740471, 878, 6 },
  { 679, -0.012946906965225935, 879, 13 },
  { 728, -0.13577810302376747, 20, 47 },
  { 509, 0.5923174619674683, 881, 892 },
  { 624, 0.4240189343690872, 882, 887 },
  { 1023, 0.21589325554668903, 883, 885 },
  { 792, 0.1858989135362208, 884, 35 },
  { 667, 0.3583467919379473, 37, 20 },
  { 573, 0.30206070840358734, 37, 886 },
  { 83, 0.8564199209213257, 47, 20 },
  { 30, -0.15903951972723007, 888, 890 },
  { 7, 0.17284146696329117, 12, 889 },
  { 522, -0.05018492043018341, 13, 20 },
  { 475, 0.5002031177282333, 891, 35 },
  { 889, 1.620459422469139, 37, 71 },
  { 39, 0.37096385657787323, 893, 895 },
  { 740, -0.0283080511726439, 12, 894 },
  { 940, 2.3325523138046265, 47, 35 },
  { 990, 3.625239849090576, 896, 20 },
  { 598, 0.629784494638443, 897, 898 },
  { 524, -0.3371838480234146, 37, 12 },
  { 482, 2.976186990737915, 899, 13 },
  { 940, 1.3543015718460083, 900, 47 },
  { 640, -0.006323784589767456, 35, 71 },
  { 807, 0.7344404757022858, 6, 37 },
  { 190, -0.3675973266363144, 903, 915 },
  { 944, -0.4791029095649719, 904, 911 },
  { 1021, -0.6686376333236694, 905, 907 },
  { 532, -0.7330967485904694, 906, 5 },
  { 446, -0.6638567447662354, 5, 13 },
  { 964, -0.804976612329483, 908, 5 },
  { 765, -0.3066178411245346, 909, 6 },
  { 470, -0.29251255095005035, 7, 910 },
  { 891, -0.5396383702754974, 12, 13 },
  { 504, -0.2544185072183609, 912, 913 },
  { 990, -0.515734538435936, 6, 7 },
  { 998, -0.6284092664718628, 6, 914 },
  { 624, -0.5936633348464966, 13, 12 },
  { 265, 0.08629671111702919, 916, 1036 },
  { 398, -0.22014347463846207, 917, 968 },
  { 836, -0.48126450181007385, 918, 927 },
  { 591, -0.5254217684268951, 919, 922 },
  { 522, 0.4654539227485657, 920, 921 },
  { 833, -0.5587144494056702, 5, 6 },
  { 239, -0.12328037992119789, 5, 6 },
  { 164, -0.41414690017700195, 923, 5 },
  { 794, -0.31760504841804504, 47, 924 },
  { 596, 0.09663257747888565, 925, 12 },
  { 293, -0.3476632684469223, 926, 6 },
  { 656, -0.7221643030643463, 7, 13 },
  { 0, -0.32340578734874725, 928, 953 },
  { 209, -0.11121051385998726, 929, 938 },
  { 845, -0.3865237534046173, 930, 7 },
  { 204, -0.41832123696804047, 931, 934 },
  { 762, -0.36720581352710724, 932, 933 },
  { 579, -0.5391977876424789, 12, 35 },
  { 621, -0.6206197440624237, 13, 7 },
  { 1009, -0.35775768756866455, 935, 13 },
  { 224, -0.24043911695480347, 35, 936 },
  { 724, -0.3628406673669815, 20, 937 },
  { 887, -0.1917930617928505, 12, 5 },
  { 229, -0.21073239296674728, 939, 940 },
  { 1020, -0.16529912501573563, 20, 35 },
  { 971, 0.12435130029916763, 941, 952 },
  { 552, -0.3752466142177582, 942, 950 },
  { 1, -0.6057443916797638, 6, 943 },
  { 910, -0.37433217465877533, 944, 945 },
  { 769, -0.33230075240135193, 47, 37 },
  { 525, -0.4427831918001175, 946, 947 },
  { 175, -0.14400074630975723, 5, 13 },
  { 152, -0.23152007907629013, 948, 7 },
  { 677, -0.28691495954990387, 949, 20 },
  { 579, -0.05622994899749756, 35, 6 },
  { 945, 0.1798611581325531, 13, 951 },
  { 193, -0.43962566554546356, 47, 12 },
  { 698, -0.300309631973505, 20, 12 },
  { 504, -0.30734269320964813, 954, 960 },
  { 852, -0.6350425779819489, 955, 956 },
  { 362, -0.6799179017543793, 13, 47 },
  { 163, -0.10952283442020416, 957, 958 },
  { 27, 1.2544743418693542, 12, 7 },
  { 522, -0.5605731755495071, 35, 959 },
  { 309, -0.031800299882888794, 47, 12 },
  { 475, 0.4144498407840729, 961, 966 },
  { 455, -0.2774816229939461, 962, 13 },
  { 365, -0.35036352276802063, 47, 963 },
  { 498, -0.11801083711907268, 964, 35 },
  { 931, -0.36868639290332794, 7, 965 },
  { 194, -0.20103462785482407, 13, 37 },
  { 82, -0.13769994443282485, 967, 5 },
  { 480, 0.22776300087571144, 20, 6 },
  { 1023, 0.06938386708498001, 969, 1008 },
  { 116, 0.08377545326948166, 970, 995 },
  { 2, -0.26560982316732407, 971, 983 },
  { 526, -0.47368474304676056, 972, 974 },
  { 441, -0.2193906530737877, 35, 973 },
  { 687, -0.25014886260032654, 20, 71 },
  { 255, -0.2917720675468445, 35, 975 },
  { 0, -0.5457623600959778, 976, 977 },
  { 168, -0.4149494171142578, 5, 20 },
  { 868, 0.2572912946343422, 978, 20 },
  { 867, 0.11719319876283407, 979, 71 },
  { 114, -0.13842305541038513, 980, 981 },
  { 614, -0.21922457963228226, 13, 35 },
  { 785, -0.16143326833844185, 982, 37 },
  { 685, -0.2998787760734558, 7, 47 },
  { 149, -0.2326449751853943, 984, 985 },
  { 828, -0.37934237718582153, 71, 12 },
  { 514, -0.3281264305114746, 986, 987 },
  { 24, -0.24292121082544327, 71, 20 },
  { 589, -0.1674177050590515, 988, 35 },
  { 61, -0.45617635548114777, 989, 992 },
  { 515, 0.21245909482240677, 990, 47 },
  { 768, -0.06650443747639656, 12, 991 },
  { 884, -0.11662378534674644, 71, 37 },
  { 1009, -0.3011026680469513, 35, 993 },
  { 790, -0.3705035299062729, 20, 994 },
  { 753, -0.20906979590654373, 7, 6 },
  { 60, 0.2600524351000786, 996, 1005 },
  { 33, 1.1184554696083069, 997, 6 },
  { 576, -0.2864542752504349, 998, 1002 },
  { 967, -0.19894830882549286, 71, 999 },
  { 1015, -0.0747709609568119, 1000, 35 },
  { 556, -0.39997924864292145, 37, 1001 },
  { 119, -0.11983288452029228, 5, 71 },
  { 819, -0.1424548588693142, 1003, 1004 },
  { 773, -0.32495203614234924, 71, 7 },
  { 76, 0.1328499522060156, 20, 47 },
  { 960, -0.33750753104686737, 12, 1006 },
  { 476, 1.1317898035049438, 1007, 35 },
  { 1011, 1.8279355764389038, 71, 20 },
  { 723, -0.2554618567228317, 1009, 1011 },
  { 908, -0.20318462699651718, 71, 1010 },
  { 646, 0.7287221252918243, 7, 71 },
  { 1004, 0.8061783611774445, 1012, 1032 },
  { 627, 1.4771316051483154, 1013, 1028 },
  { 781, 1.0734329223632812, 1014, 1027 },
  { 920, -0.23553404211997986, 1015, 1017 },
  { 65, -0.327562153339386, 12, 1016 },
  { 468, -0.028342649340629578, 47, 35 },
  { 885, 1.3089953660964966, 1018, 1023 },
  { 819, -0.34708674252033234, 1019, 1020 },
  { 793, -0.29061105847358704, 47, 71 },
  { 567, -0.6369103193283081, 37, 1021 },
  { 26, 1.4134476780891418, 47, 1022 },
  { 612, 0.1598566547036171, 71, 47 },
  { 343, 0.1881687119603157, 12, 1024 },
  { 881, 0.8376164436340332, 1025, 47 },
  { 395, 0.22588691115379333, 35, 1026 },
  { 799, 0.18942717462778091, 71, 37 },
  { 722, 1.1111981719732285, 37, 12 },
  { 597, 0.48510484397411346, 7, 1029 },
  { 69, 1.2901531457901, 1030, 20 },
  { 730, 0.005711086094379425, 6, 1031 },
  { 613, 1.4928529262542725, 12, 35 },
  { 857, 0.532622680068016, 1033, 13 },
  { 240, 0.06711775809526443, 1034, 37 },
  { 343, 0.30686623975634575, 20, 1035 },
  { 223, -0.12372725270688534, 71, 35 },
  { 67, 2.9138859510421753, 1037, 1043 },
  { 909, 1.3423155546188354, 1038, 1041 },
  { 451, 1.6754303574562073, 1039, 35 },
  { 881, -0.0010780170559883118, 1040, 37 },
  { 24, -0.4254930764436722, 47, 37 },
  { 362, 1.3874021768569946, 47, 1042 },
  { 846, 0.4508155286312103, 35, 12 },
  { 768, 12.756509378552437, 20, 12 },
  { 191, -0.45796535909175873, 1045, 1065 },
  { 584, -0.1483348309993744, 1046, 1062 },
  { 518, 1.278869479894638, 1047, 6 },
  { 957, -0.5607287883758545, 1048, 1057 },
  { 522, -0.6574807465076447, 1049, 1050 },
  { 783, -0.2509365826845169, 7, 6 },
  { 188, -0.3413551300764084, 1051, 1056 },
  { 12, -0.614216685295105, 6, 1052 },
  { 191, -0.4594888389110565, 1053, 1055 },
  { 940, -0.6377898156642914, 5, 1054 },
  { 556, -0.4279444217681885, 5, 6 },
  { 274, -0.23585118353366852, 6, 5 },
  { 420, -0.7434626221656799, 7, 6 },
  { 485, -0.5482763051986694, 1058, 1059 },
  { 945, -0.7228447496891022, 6, 13 },
  { 528, -0.23036762326955795, 1060, 7 },
  { 511, -0.6196506321430206, 5, 1061 },
  { 643, -0.6560925841331482, 6, 12 },
  { 407, -0.5429044663906097, 7, 1063 },
  { 181, -0.5502937734127045, 6, 1064 },
  { 347, -0.6429841220378876, 12, 5 },
  { 742, 0.2597583830356598, 1066, 1172 },
  { 0, 1.1671937704086304, 1067, 1162 },
  { 96, -0.10040567815303802, 1068, 1131 },
  { 855, -0.3767666667699814, 1069, 1109 },
  { 966, -0.38159216940402985, 1070, 1095 },
  { 517, 0.22758018225431442, 1071, 1092 },
  { 998, -0.7327864766120911, 12, 1072 },
  { 707, -0.3370068520307541, 1073, 1088 },
  { 835, -0.4128742069005966, 1074, 1084 },
  { 677, -0.6817069947719574, 6, 1075 },
  { 681, -0.44466550648212433, 1076, 7 },
  { 562, -0.6283259689807892, 1077, 1078 },
  { 430, -0.5778234302997589, 12, 13 },
  { 489, -0.31926707923412323, 1079, 1081 },
  { 1013, -0.4328877180814743, 47, 1080 },
  { 968, -0.5775980055332184, 6, 12 },
  { 565, -0.34260348975658417, 1082, 20 },
  { 839, -0.3047228008508682, 5, 1083 },
  { 688, -0.570970356464386, 7, 35 },
  { 811, -0.18583711981773376, 1085, 1087 },
  { 531, -0.4761432111263275, 1086, 35 },
  { 16, -0.5292418152093887, 47, 12 },
  { 244, -0.2188904881477356, 37, 12 },
  { 331, -0.3898426443338394, 1089, 1091 },
  { 329, -0.15089397132396698, 20, 1090 },
  { 666, -0.42912793159484863, 6, 13 },
  { 219, -0.04808421107009053, 12, 35 },
  { 968, -0.5747195780277252, 7, 1093 },
  { 264, -0.24762552976608276, 13, 1094 },
  { 914, -0.45021751523017883, 12, 20 },
  { 786, -0.23373501747846603, 1096, 1108 },
  { 884, -0.617758572101593, 6, 1097 },
  { 109, -0.19621820747852325, 1098, 7 },
  { 1013, -0.49851566553115845, 1099, 1102 },
  { 1004, -0.332305446267128, 1100, 12 },
  { 108, -0.3403109610080719, 6, 1101 },
  { 857, -0.36893409490585327, 20, 35 },
  { 964, -0.1100577637553215, 1103, 1106 },
  { 49, -0.2742711305618286, 13, 1104 },
  { 250, -0.3284674286842346, 35, 1105 },
  { 607, -0.442634642124176, 6, 20 },
  { 608, -0.2620890140533447, 1107, 13 },
  { 553, 0.159135639667511, 20, 5 },
  { 57, 1.8446686118841171, 6, 13 },
  { 191, -0.23033854365348816, 1110, 1121 },
  { 865, -0.30110159516334534, 1111, 1113 },
  { 675, -0.23823591321706772, 1112, 35 },
  { 820, -0.2299086321145296, 7, 12 },
  { 619, -0.5402658581733704, 1114, 1115 },
  { 349, -0.051266254391521215, 7, 35 },
  { 439, 0.22409471310675144, 1116, 1120 },
  { 605, -0.42525623738765717, 1117, 20 },
  { 821, -0.3424105644226074, 1118, 13 },
  { 383, -0.24239874631166458, 1119, 20 },
  { 193, -0.41219501197338104, 7, 47 },
  { 490, -0.5534485578536987, 71, 7 },
  { 86, -0.486610010266304, 1122, 1123 },
  { 35, -0.7606435120105743, 47, 12 },
  { 331, -0.0948483869433403, 1124, 1127 },
  { 273, -0.12229659035801888, 1125, 1126 },
  { 733, -0.33422811329364777, 71, 47 },
  { 6, -0.37623658031225204, 20, 35 },
  { 975, -0.40504735708236694, 35, 1128 },
  { 662, -0.18104950338602066, 13, 1129 },
  { 1002, -0.17153708077967167, 20, 1130 },
  { 402, -0.11541908606886864, 7, 35 },
  { 58, 0.14958422631025314, 1132, 1145 },
  { 27, 1.524803876876831, 1133, 20 },
  { 320, -0.0239119715988636, 1134, 1144 },
  { 345, -0.2079983800649643, 13, 1135 },
  { 206, -0.10315043106675148, 1136, 1141 },
  { 142, -0.3183206468820572, 35, 1137 },
  { 762, -0.3640974760055542, 71, 1138 },
  { 23, -0.4026796966791153, 47, 1139 },
  { 302, -0.20258650928735733, 7, 1140 },
  { 459, -0.17003509029746056, 20, 71 },
  { 1004, 0.30715982615947723, 12, 1142 },
  { 76, 0.010256558656692505, 37, 1143 },
  { 952, -0.05821528285741806, 47, 6 },
  { 145, 0.30353154242038727, 35, 13 },
  { 996, -0.08685334399342537, 1146, 1151 },
  { 327, -0.14097297936677933, 20, 1147 },
  { 969, 1.4504083395004272, 1148, 1150 },
  { 84, 3.133618474006653, 1149, 7 },
  { 682, -0.39529258012771606, 20, 71 },
  { 617, 0.6705396175384521, 7, 13 },
  { 427, 1.410369873046875, 1152, 1160 },
  { 561, 1.887459397315979, 1153, 20 },
  { 85, 0.12128574028611183, 1154, 1155 },
  { 815, -0.20130906254053116, 47, 13 },
  { 750, -0.11560368910431862, 1156, 37 },
  { 555, 0.5676590800285339, 1157, 1158 },
  { 693, -0.2651293948292732, 12, 35 },
  { 174, 0.234884575009346, 1159, 20 },
  { 25, 0.975897490978241, 6, 7 },
  { 943, 1.7600564062595367, 71, 1161 },
  { 788, -0.04197587072849274, 20, 47 },
  { 167, -0.11315607652068138, 1163, 1167 },
  { 922, -0.15951788052916527, 1164, 12 },
  { 149, -0.32304564118385315, 6, 1165 },
  { 512, 0.6358323395252228, 1166, 47 },
  { 904, -0.4578130841255188, 35, 71 },
  { 199, 0.3500405550003052, 1168, 1170 },
  { 688, 0.8210224211215973, 47, 1169 },
  { 221, -0.06401811633259058, 47, 12 },
  { 278, 0.09756947681307793, 1171, 13 },
  { 833, 0.7840492278337479, 37, 35 },
  { 757, 1.6012765765190125, 1173, 1188 },
  { 0, 0.783941239118576, 1174, 1184 },
  { 721, 0.2610708624124527, 1175, 1177 },
  { 583, -0.5638931393623352, 20, 1176 },
  { 738, 0.6011691391468048, 37, 71 },
  { 806, 0.48931387066841125, 12, 1178 },
  { 219, 0.6491061449050903, 1179, 1180 },
  { 825, 1.1504006385803223, 20, 47 },
  { 999, 0.006144057959318161, 1181, 37 },
  { 364, 0.8810042142868042, 35, 1182 },
  { 774, 1.3732993006706238, 20, 1183 },
  { 315, 0.9201114475727081, 71, 37 },
  { 592, -0.2636358290910721, 1185, 1186 },
  { 445, -0.37814904749393463, 12, 37 },
  { 462, 1.6447831988334656, 47, 1187 },
  { 639, 2.047633618116379, 37, 47 },
  { 926, -0.3972463309764862, 6, 1189 },
  { 86, 10.803860425949097, 37, 12 },
  { 191, -0.4595005363225937, 1191, 1209 },
  { 943, 0.520677462220192, 1192, 7 },
  { 527, -0.048477496951818466, 1193, 1202 },
  { 515, -0.6389832198619843, 1194, 1197 },
  { 708, -0.4246448576450348, 1195, 1196 },
  { 4, -0.9477425515651703, 5, 6 },
  { 602, 0.11650370061397552, 5, 6 },
  { 342, -0.37766963243484497, 1198, 12 },
  { 915, -0.6357437074184418, 1199, 1200 },
  { 531, -0.5398317873477936, 6, 5 },
  { 718, -0.33242450654506683, 1201, 7 },
  { 727, -0.33023007214069366, 13, 20 },
  { 363, -0.3990897089242935, 1203, 6 },
  { 952, -0.6016164124011993, 1204, 1207 },
  { 642, -0.6456651091575623, 1205, 1206 },
  { 67, -0.6611206531524658, 5, 6 },
  { 516, -0.4732271283864975, 6, 13 },
  { 225, -0.2672663927078247, 7, 1208 },
  { 566, 0.6498644966632128, 13, 5 },
  { 266, 0.6795340478420258, 1210, 1326 },
  { 510, 0.713448166847229, 1211, 1312 },
  { 104, 0.06970741599798203, 1212, 1288 },
  { 520, -0.6479107439517975, 1213, 1231 },
  { 514, -0.42221464216709137, 1214, 1224 },
  { 731, -0.40380895137786865, 1215, 1216 },
  { 888, -0.38910457491874695, 6, 20 },
  { 1018, -0.439755454659462, 1217, 13 },
  { 171, -0.2915104478597641, 47, 1218 },
  { 168, -0.459722563624382, 6, 1219 },
  { 686, -0.403919979929924, 7, 1220 },
  { 661, -0.4872659295797348, 13, 1221 },
  { 603, -0.6365481913089752, 37, 1222 },
  { 249, -0.14928780496120453, 35, 1223 },
  { 685, -0.37381842732429504, 71, 5 },
  { 123, -0.3501874804496765, 1225, 1227 },
  { 651, -0.2575613558292389, 12, 1226 },
  { 273, -0.12402625381946564, 35, 12 },
  { 615, 0.34321680665016174, 1228, 12 },
  { 861, -0.21537532657384872, 1229, 1230 },
  { 471, -0.1402552705258131, 47, 7 },
  { 119, -0.24607031792402267, 20, 35 },
  { 197, -0.24236402660608292, 1232, 1255 },
  { 332, -0.412066325545311, 1233, 1249 },
  { 33, 0.16561323404312134, 1234, 1247 },
  { 335, -0.38217172026634216, 7, 1235 },
  { 809, -0.3268255740404129, 1236, 1242 },
  { 521, -0.4072568267583847, 1237, 1241 },
  { 249, -0.14852875471115112, 1238, 12 },
  { 610, -0.495837926864624, 6, 1239 },
  { 103, -0.4066743403673172, 1240, 20 },
  { 473, 0.1815246045589447, 47, 7 },
  { 234, -0.302800253033638, 35, 6 },
  { 426, -0.5037334263324738, 1243, 1246 },
  { 947, -0.5096777230501175, 1244, 6 },
  { 618, -0.604070633649826, 13, 1245 },
  { 285, -0.2698078900575638, 12, 20 },
  { 588, 1.4064573794603348, 13, 12 },
  { 82, -0.2070852443575859, 6, 1248 },
  { 194, -0.2933392822742462, 7, 5 },
  { 841, -0.191997192800045, 1250, 1253 },
  { 841, -0.3395971208810806, 20, 1251 },
  { 927, 0.05413161218166351, 1252, 13 },
  { 1022, 0.8082240521907806, 7, 47 },
  { 289, -0.24387047439813614, 20, 1254 },
  { 859, -0.07964427024126053, 47, 12 },
  { 8, -0.6545761823654175, 47, 1256 },
  { 1022, 0.08252768591046333, 1257, 1282 },
  { 1011, 0.14340265095233917, 1258, 1276 },
  { 629, -0.5418378412723541, 1259, 1260 },
  { 346, -0.4810817539691925, 12, 37 },
  { 118, -0.1065683476626873, 1261, 1272 },
  { 236, -0.10844774916768074, 1262, 1264 },
  { 1018, -0.40921828150749207, 1263, 35 },
  { 1009, -0.14560119807720184, 71, 20 },
  { 498, -0.3035401850938797, 1265, 1270 },
  { 470, -0.06553424894809723, 1266, 1269 },
  { 44, -0.5847451388835907, 13, 1267 },
  { 558, -0.5122930407524109, 1268, 35 },
  { 836, -0.12314358353614807, 7, 12 },
  { 716, -0.35409092903137207, 71, 20 },
  { 690, -0.3170798420906067, 6, 1271 },
  { 434, 0.5984164178371429, 20, 7 },
  { 39, 0.3101307898759842, 1273, 37 },
  { 280, -0.2236124575138092, 1274, 6 },
  { 606, -0.20665546879172325, 1275, 47 },
  { 110, -0.0022990256547927856, 12, 7 },
  { 437, -0.2741958945989609, 1277, 1278 },
  { 592, -0.473560631275177, 37, 13 },
  { 412, 0.017593280412256718, 1279, 1281 },
  { 118, -0.12954747304320335, 20, 1280 },
  { 588, 0.9987770020961761, 35, 6 },
  { 328, -0.03724709525704384, 7, 13 },
  { 507, -0.4741481989622116, 35, 1283 },
  { 997, -0.2851133346557617, 1284, 1286 },
  { 294, -0.23964771628379822, 47, 1285 },
  { 501, -0.3300672322511673, 35, 12 },
  { 946, 0.22559908032417297, 12, 1287 },
  { 299, -0.11344486474990845, 13, 35 },
  { 807, 0.07563440129160881, 1289, 1308 },
  { 532, -0.19757657498121262, 1290, 1294 },
  { 112, 9.101480722427368, 1291, 7 },
  { 19, -0.6039446592330933, 47, 1292 },
  { 138, -0.10359791293740273, 1293, 71 },
  { 1016, -0.5984464883804321, 71, 7 },
  { 516, 0.027797858230769634, 1295, 1304 },
  { 59, 0.08731826767325401, 1296, 1300 },
  { 355, -0.36195167899131775, 13, 1297 },
  { 288, -0.12626564875245094, 1298, 20 },
  { 624, -0.5624502599239349, 5, 1299 },
  { 842, -0.263956680893898, 12, 7 },
  { 688, -0.37726643681526184, 1301, 1302 },
  { 521, -0.3927467539906502, 35, 7 },
  { 528, -0.5699667632579803, 47, 1303 },
  { 568, -0.20376885682344437, 20, 71 },
  { 1010, -0.0807207003235817, 35, 1305 },
  { 240, -0.2542852461338043, 1306, 20 },
  { 196, 0.11128822714090347, 1307, 47 },
  { 712, -0.05390764772891998, 71, 7 },
  { 48, 0.0018267147243022919, 1309, 1310 },
  { 772, 0.36548368632793427, 12, 37 },
  { 882, 1.3656529784202576, 1311, 35 },
  { 487, 1.1194211542606354, 47, 37 },
  { 1020, -0.5841248333454132, 5, 1313 },
  { 255, 0.43013329803943634, 1314, 37 },
  { 110, 0.763586699962616, 1315, 1324 },
  { 54, 1.2261012196540833, 1316, 71 },
  { 777, -0.10431606322526932, 71, 1317 },
  { 914, 0.8229158520698547, 1318, 1323 },
  { 515, 0.18009454011917114, 1319, 1320 },
  { 1003, -0.2472381666302681, 12, 35 },
  { 540, 2.855487585067749, 1321, 35 },
  { 544, 1.1691761314868927, 47, 1322 },
  { 386, 0.06668890826404095, 6, 47 },
  { 0, 4.770435333251953, 12, 37 },
  { 487, 0.3782797306776047, 71, 1325 },
  { 946, 1.7645032107830048, 13, 20 },
  { 513, -0.050050314515829086, 1327, 1331 },
  { 623, 0.4008641988039017, 1328, 1329 },
  { 340, 0.014918752014636993, 6, 35 },
  { 284, 2.589372396469116, 37, 1330 },
  { 168, 10.634684458374977, 6, 12 },
  { 491, -0.40276142954826355, 1332, 1333 },
  { 904, 0.8566247820854187, 37, 47 },
  { 10, 0.9055018723011017, 1334, 47 },
  { 4, -0.624397873878479, 12, 1335 },
  { 1021, -0.25804123282432556, 20, 1336 },
  { 443, 1.7633746266365051, 37, 1337 },
  { 854, 2.8349016308784485, 71, 37 },
  { 394, -0.5091495215892792, 1339, 1356 },
  { 518, 0.17357603460550308, 1340, 1350 },
  { 854, -0.5666612386703491, 1341, 1347 },
  { 17, -0.8223779201507568, 1342, 1343 },
  { 356, -0.2941640168428421, 6, 13 },
  { 355, -0.4219494163990021, 1344, 13 },
  { 986, 0.14999503642320633, 1345, 1346 },
  { 700, -0.44507651031017303, 5, 13 },
  { 248, -0.24820896983146667, 7, 13 },
  { 693, -0.6029262542724609, 13, 1348 },
  { 141, -0.6429631412029266, 7, 1349 },
  { 892, -0.5815126895904541, 5, 12 },
  { 542, -0.554166853427887, 1351, 1354 },
  { 190, -0.36777742207050323, 1352, 1353 },
  { 944, -0.5811827778816223, 5, 6 },
  { 407, -0.5859123170375824, 6, 7 },
  { 438, -0.5345644652843475, 6, 1355 },
  { 828, -0.4174652099609375, 7, 13 },
  { 215, 1.0022026896476746, 1357, 1491 },
  { 121, -0.05676591768860817, 1358, 1445 },
  { 520, -0.6820269227027893, 1359, 1371 },
  { 688, -0.42676204442977905, 1360, 1368 },
  { 545, -0.6929861009120941, 1361, 1363 },
  { 48, -0.7959421277046204, 1362, 7 },
  { 244, -0.22146984934806824, 12, 6 },
  { 163, -0.21537023037672043, 1364, 1365 },
  { 113, -0.4670833498239517, 13, 47 },
  { 514, -0.47970816493034363, 1366, 1367 },
  { 474, 0.46344538033008575, 20, 35 },
  { 644, -0.5857286155223846, 47, 12 },
  { 190, -0.2783263325691223, 20, 1369 },
  { 925, -0.356643483042717, 13, 1370 },
  { 416, -0.3311942368745804, 35, 71 },
  { 881, -0.5149528682231903, 1372, 1380 },
  { 506, -0.2097695991396904, 1373, 1376 },
  { 704, -0.19611165672540665, 1374, 1375 },
  { 961, -0.7098186910152435, 5, 6 },
  { 830, -0.23827293515205383, 5, 37 },
  { 384, -0.40998758375644684, 1377, 13 },
  { 962, 1.2511470913887024, 1378, 12 },
  { 71, -0.33012349903583527, 1379, 7 },
  { 322, -0.36823223531246185, 20, 5 },
  { 1014, -0.09999306499958038, 1381, 1415 },
  { 431, -0.6445052325725555, 1382, 1386 },
  { 614, -0.526341587305069, 1383, 1384 },
  { 760, -0.3506358861923218, 6, 13 },
  { 147, -0.29268400371074677, 20, 1385 },
  { 244, -0.24030626565217972, 12, 20 },
  { 308, -0.38092508912086487, 1387, 1396 },
  { 611, -0.2621830105781555, 1388, 1394 },
  { 639, -0.5590776801109314, 5, 1389 },
  { 912, -0.46308082342147827, 1390, 1392 },
  { 469, -0.26365187764167786, 1391, 6 },
  { 241, -0.16699613630771637, 47, 7 },
  { 142, -0.5038919001817703, 12, 1393 },
  { 117, -0.35007627308368683, 20, 71 },
  { 259, -0.19079818576574326, 7, 1395 },
  { 299, -0.1528945341706276, 71, 6 },
  { 387, -0.231810562312603, 1397, 1408 },
  { 518, 0.37618204951286316, 1398, 1407 },
  { 732, -0.34316396713256836, 20, 1399 },
  { 1008, -0.5553577244281769, 1400, 1403 },
  { 257, -0.23171154409646988, 71, 1401 },
  { 962, -0.5289074927568436, 12, 1402 },
  { 359, -0.31396082043647766, 37, 13 },
  { 812, -0.3513180762529373, 1404, 1405 },
  { 400, -0.31198710948228836, 12, 47 },
  { 301, 0.0013191687758080661, 1406, 47 },
  { 13, -0.004860009998083115, 35, 12 },
  { 894, -0.390753835439682, 13, 37 },
  { 2, -0.29645154625177383, 1409, 1411 },
  { 774, -0.36446844041347504, 1410, 20 },
  { 516, -0.41754670441150665, 71, 7 },
  { 730, 0.3501373678445816, 1412, 12 },
  { 671, -0.03390827868133783, 1413, 1414 },
  { 108, -0.252914696931839, 37, 47 },
  { 389, -0.2631593346595764, 12, 35 },
  { 257, -0.27204467356204987, 1416, 1435 },
  { 205, -0.34102001786231995, 1417, 1419 },
  { 323, -0.31347835063934326, 1418, 7 },
  { 566, -0.6616710424423218, 6, 5 },
  { 147, -0.13508959859609604, 1420, 1433 },
  { 51, -0.5610460042953491, 1421, 1426 },
  { 533, -0.11476987972855568, 1422, 7 },
  { 719, -0.21702874451875687, 1423, 1425 },
  { 13, -0.0990139078348875, 35, 1424 },
  { 816, -0.2076158970594406, 6, 47 },
  { 703, 0.12934953719377518, 13, 7 },
  { 391, -0.1780046448111534, 1427, 1430 },
  { 177, -0.3827688694000244, 12, 1428 },
  { 52, 0.32956814020872116, 1429, 20 },
  { 810, -0.3747204393148422, 20, 13 },
  { 916, -0.06647652573883533, 1431, 7 },
  { 109, -0.2368067279458046, 47, 1432 },
  { 976, 0.20468248426914215, 13, 5 },
  { 312, -0.2960754781961441, 1434, 20 },
  { 794, -0.31858427822589874, 12, 71 },
  { 585, 0.11769388243556023, 1436, 1444 },
  { 956, -0.564456433057785, 35, 1437 },
  { 556, -0.37522533535957336, 20, 1438 },
  { 40, 0.12362525053322315, 1439, 1443 },
  { 132, 0.0036059124395251274, 1440, 12 },
  { 510, 1.613214135169983, 1441, 47 },
  { 139, -0.5281242728233337, 6, 1442 },
  { 101, -0.03517334908246994, 5, 7 },
  { 774, -0.2870720773935318, 20, 13 },
  { 612, 0.05333974212408066, 6, 12 },
  { 1022, 0.4783797860145569, 1446, 1469 },
  { 78, 0.9351743459701538, 1447, 71 },
  { 803, -0.2803180068731308, 1448, 1458 },
  { 979, 1.0849599838256836, 1449, 1457 },
  { 60, -0.270909808576107, 1450, 1452 },
  { 129, 0.09214537218213081, 1451, 47 },
  { 446, -0.2347855120897293, 35, 13 },
  { 6, 0.3383472040295601, 1453, 1456 },
  { 1015, -0.11148346960544586, 1454, 1455 },
  { 609, 0.4894600659608841, 71, 20 },
  { 690, 0.016313398256897926, 35, 47 },
  { 571, 1.230789914727211, 20, 7 },
  { 162, 0.46494971960783005, 7, 20 },
  { 553, 0.4186575561761856, 1459, 1468 },
  { 58, -0.19807731360197067, 1460, 1465 },
  { 928, 0.0190303735435009, 1461, 1463 },
  { 417, 0.017674680799245834, 47, 1462 },
  { 973, -0.25455033779144287, 71, 6 },
  { 732, 0.14799018576741219, 12, 1464 },
  { 542, -0.0616337601095438, 13, 35 },
  { 942, 0.45305559039115906, 1466, 1467 },
  { 473, -0.2724057286977768, 37, 20 },
  { 285, -0.12739579274784774, 47, 35 },
  { 141, 0.9742435291409492, 37, 35 },
  { 1004, 0.756314605474472, 1470, 1488 },
  { 278, 0.1254006214439869, 1471, 1482 },
  { 519, 0.29975998401641846, 1472, 1480 },
  { 507, 0.7532490193843842, 1473, 1477 },
  { 623, 1.6616931557655334, 1474, 1475 },
  { 1019, 1.3952418565750122, 47, 37 },
  { 354, 0.5141187459230423, 12, 1476 },
  { 564, 1.2781380414962769, 47, 35 },
  { 731, -0.25791505724191666, 7, 1478 },
  { 481, -0.319998562335968, 71, 1479 },
  { 385, 0.1091369092464447, 13, 6 },
  { 922, 1.04878169298172, 71, 1481 },
  { 78, 1.398584708571434, 47, 20 },
  { 748, 0.20141344517469406, 1483, 1484 },
  { 43, 1.3984122276306152, 37, 13 },
  { 539, -0.33387021720409393, 47, 1485 },
  { 299, 0.4061565101146698, 37, 1486 },
  { 986, -0.18653279542922974, 1487, 12 },
  { 929, 0.2514074370265007, 35, 47 },
  { 500, 1.5298826098442078, 1489, 6 },
  { 197, 0.24004879035055637, 35, 1490 },
  { 130, 0.8618888556957245, 37, 13 },
  { 451, 1.6843202710151672, 1492, 1494 },
  { 260, 0.2632095515727997, 1493, 37 },
  { 38, 0.18766310811042786, 12, 47 },
  { 868, 7.718987286090851, 1495, 12 },
  { 423, 2.141690921038389, 35, 47 },
  { 321, -0.45500771701335907, 1497, 1517 },
  { 940, -0.5670223832130432, 1498, 1508 },
  { 517, -0.7299084663391113, 1499, 1501 },
  { 683, -0.4269586354494095, 1500, 7 },
  { 483, 2.547556519508362, 5, 6 },
  { 98, -0.6157626509666443, 1502, 5 },
  { 849, -0.3845241516828537, 1503, 7 },
  { 19, -0.2911518067121506, 1504, 1507 },
  { 486, -0.4315384775400162, 1505, 6 },
  { 648, -0.47443029284477234, 5, 1506 },
  { 912, -0.42984719574451447, 6, 13 },
  { 959, -0.6236242651939392, 5, 13 },
  { 626, -0.39929841458797455, 1509, 1511 },
  { 549, -0.3700042963027954, 1510, 7 },
  { 594, -0.36543045938014984, 13, 6 },
  { 1021, -0.582555890083313, 1512, 1514 },
  { 484, 0.8753048032522202, 1513, 5 },
  { 25, 0.6757519543170929, 6, 5 },
  { 514, -0.6275795102119446, 1515, 12 },
  { 625, -0.3207217901945114, 1516, 71 },
  { 837, -0.5043666958808899, 20, 13 },
  { 766, 0.21144884824752808, 1518, 1611 },
  { 347, -0.4566064924001694, 1519, 1546 },
  { 164, -0.43216000497341156, 1520, 1528 },
  { 612, -0.4677004814147949, 1521, 1522 },
  { 1008, 0.08886540029197931, 13, 6 },
  { 423, -0.3269600421190262, 1523, 1526 },
  { 730, -0.3166045993566513, 12, 1524 },
  { 270, -0.34247082471847534, 1525, 47 },
  { 946, -0.26416032761335373, 6, 13 },
  { 83, -0.32594653218984604, 7, 1527 },
  { 43, -0.5330747365951538, 47, 13 },
  { 9, -0.4985266327857971, 1529, 1537 },
  { 302, -0.21655461937189102, 1530, 1531 },
  { 825, -0.3727338910102844, 47, 7 },
  { 4, -0.49470825493335724, 1532, 1534 },
  { 884, -0.6253818571567535, 5, 1533 },
  { 917, -0.15909426659345627, 12, 7 },
  { 462, -0.49370723962783813, 1535, 47 },
  { 504, -0.5323933660984039, 1536, 12 },
  { 905, -0.43003049492836, 20, 13 },
  { 648, -0.43742796778678894, 13, 1538 },
  { 36, 0.37753117084503174, 1539, 5 },
  { 770, -0.33500856161117554, 1540, 1544 },
  { 1, -0.35604576766490936, 1541, 1543 },
  { 705, -0.44681859016418457, 1542, 7 },
  { 95, -0.18980185687541962, 35, 20 },
  { 681, -0.5463144779205322, 47, 13 },
  { 1012, -0.5605544745922089, 6, 1545 },
  { 38, -0.5565837919712067, 6, 20 },
  { 933, -0.6633617579936981, 1547, 1549 },
  { 500, -0.629677027463913, 1548, 7 },
  { 453, -0.6323626339435577, 37, 20 },
  { 53, 0.03664999082684517, 1550, 1589 },
  { 505, -0.01929142326116562, 1551, 1577 },
  { 792, -0.33885759115219116, 1552, 1558 },
  { 102, -0.20297178626060486, 1553, 1556 },
  { 620, -0.3989998996257782, 1554, 1555 },
  { 828, -0.30900217592716217, 20, 35 },
  { 391, -0.2491609826683998, 47, 35 },
  { 915, 0.6353652477264404, 71, 1557 },
  { 327, -0.016563301905989647, 7, 35 },
  { 1, 0.16151521354913712, 1559, 1573 },
  { 913, 0.1118097547441721, 1560, 1571 },
  { 944, -0.5847336947917938, 1561, 1564 },
  { 1005, -0.664526104927063, 5, 1562 },
  { 307, -0.062031082808971405, 1563, 47 },
  { 990, -0.37929604575037956, 20, 12 },
  { 830, -0.3560549467802048, 1565, 1570 },
  { 875, -0.2828410565853119, 1566, 47 },
  { 981, -0.522246927022934, 35, 1567 },
  { 285, -0.19784411787986755, 1568, 12 },
  { 567, -0.3249593824148178, 1569, 13 },
  { 546, 0.19546830654144287, 71, 6 },
  { 149, -0.041065022349357605, 35, 37 },
  { 518, -0.6824361979961395, 1572, 12 },
  { 83, -0.14630275964736938, 20, 6 },
  { 491, -0.35854510962963104, 1574, 1576 },
  { 850, 1.2379199713468552, 1575, 12 },
  { 23, 0.057451289147138596, 47, 12 },
  { 567, -0.30331751704216003, 12, 37 },
  { 108, 0.5951515138149261, 1578, 7 },
  { 554, -0.1678505465388298, 1579, 1585 },
  { 490, -0.6105996072292328, 20, 1580 },
  { 1022, 0.5047198385000229, 1581, 6 },
  { 487, -0.25204435735940933, 1582, 35 },
  { 11, -0.15728904493153095, 1583, 47 },
  { 613, -0.47888731956481934, 12, 1584 },
  { 756, -0.22703874111175537, 7, 37 },
  { 606, -0.2962920218706131, 1586, 1587 },
  { 980, 0.22746621444821358, 13, 12 },
  { 740, -0.19936972856521606, 20, 1588 },
  { 129, 0.06735815852880478, 6, 13 },
  { 291, -0.14255428314208984, 1590, 1601 },
  { 942, 1.0250478982925415, 1591, 1600 },
  { 665, 1.1979156732559204, 1592, 35 },
  { 939, 1.4690744876861572, 1593, 7 },
  { 458, -0.086472999304533, 1594, 1595 },
  { 806, -0.3061026483774185, 7, 13 },
  { 511, -0.44167323410511017, 1596, 1599 },
  { 233, -0.20974721014499664, 71, 1597 },
  { 723, -0.2505851536989212, 20, 1598 },
  { 150, 0.3767075538635254, 47, 71 },
  { 1017, 1.9282178282737732, 71, 35 },
  { 530, 0.17926599830389023, 7, 20 },
  { 754, -0.05148267559707165, 1602, 1609 },
  { 819, 0.4453769326210022, 1603, 35 },
  { 78, -0.08420709893107414, 13, 1604 },
  { 968, 0.5289851427078247, 1605, 1607 },
  { 313, 0.06389515148475766, 1606, 6 },
  { 800, -0.13053174689412117, 71, 37 },
  { 278, -0.029681071173399687, 20, 1608 },
  { 1013, 0.3463878631591797, 13, 47 },
  { 49, 0.9183662533760071, 47, 1610 },
  { 415, 1.6495430171489716, 13, 71 },
  { 222, 1.1720751523971558, 1612, 1629 },
  { 194, 1.2160021662712097, 1613, 1628 },
  { 689, 0.6732296645641327, 1614, 1623 },
  { 1021, 3.907114863395691, 1615, 47 },
  { 430, 1.176014095544815, 1616, 1622 },
  { 506, -0.36634885519742966, 1617, 1620 },
  { 7, -0.556464672088623, 12, 1618 },
  { 979, -0.1160973459482193, 1619, 35 },
  { 258, 1.0715670883655548, 20, 6 },
  { 795, 1.263823926448822, 37, 1621 },
  { 35, -0.39049752801656723, 13, 35 },
  { 988, 0.47166183590888977, 71, 35 },
  { 483, -0.14941225200891495, 1624, 1625 },
  { 690, 0.6293661594390869, 12, 47 },
  { 275, 1.3523418307304382, 1626, 1627 },
  { 870, 1.0801876783370972, 20, 71 },
  { 658, 0.35125310719013214, 37, 35 },
  { 660, 1.7986941933631897, 47, 71 },
  { 300, 16.180482387542725, 37, 12 },
  { 248, 0.5017884373664856, 1631, 1753 },
  { 345, -0.27800798416137695, 1632, 1654 },
  { 631, -0.5806691348552704, 1633, 1639 },
  { 960, -0.6337618827819824, 1634, 1636 },
  { 16, -0.816475123167038, 1635, 5 },
  { 310, -0.17655954509973526, 7, 6 },
  { 909, -0.5815798938274384, 1637, 5 },
  { 999, -0.40387867391109467, 1638, 13 },
  { 33, -0.16110175848007202, 6, 7 },
  { 592, 0.09006942715495825, 1640, 1651 },
  { 383, -0.3480932265520096, 1641, 1642 },
  { 233, -0.21396685391664505, 13, 7 },
  { 9, -0.8320499658584595, 12, 1643 },
  { 658, -0.32734209299087524, 1644, 1646 },
  { 863, -0.577668160200119, 20, 1645 },
  { 427, -0.5226441621780396, 6, 12 },
  { 631, -0.5536328852176666, 1647, 1648 },
  { 20, -0.6980600357055664, 13, 5 },
  { 37, -0.5201280415058136, 1649, 1650 },
  { 823, -0.31916922330856323, 13, 12 },
  { 974, 0.6045783162117004, 6, 5 },
  { 922, -0.03895605355501175, 7, 1652 },
  { 450, 0.5813913941383362, 5, 1653 },
  { 476, -0.058767035603523254, 13, 12 },
  { 5, -0.4450708478689194, 1655, 1687 },
  { 622, -0.3800267279148102, 1656, 1665 },
  { 174, -0.25639571249485016, 1657, 35 },
  { 725, -0.29966966807842255, 1658, 1659 },
  { 48, 0.020694613456726074, 35, 6 },
  { 1015, -0.18493283540010452, 1660, 1663 },
  { 1018, -0.828433483839035, 1661, 1662 },
  { 386, -0.5203037261962891, 12, 47 },
  { 430, -0.6278806328773499, 6, 12 },
  { 371, -0.48960840702056885, 20, 1664 },
  { 990, -0.1119312196969986, 35, 12 },
  { 670, 0.14202122390270233, 1666, 1685 },
  { 514, -0.5704786777496338, 1667, 1675 },
  { 80, 0.3669925630092621, 1668, 1674 },
  { 143, -0.26631879806518555, 1669, 1670 },
  { 448, -0.6294339299201965, 5, 6 },
  { 433, -0.2614070177078247, 1671, 1673 },
  { 806, -0.24621067941188812, 71, 1672 },
  { 45, -0.37003636360168457, 20, 13 },
  { 396, -0.057191889733076096, 20, 35 },
  { 61, -0.3790518697351217, 7, 71 },
  { 909, -0.11869778856635094, 1676, 1680 },
  { 109, -0.4323819577693939, 1677, 1679 },
  { 476, -0.5114315897226334, 20, 1678 },
  { 245, -0.15546251088380814, 47, 37 },
  { 74, -0.4451267421245575, 12, 35 },
  { 74, -0.17018575221300125, 1681, 71 },
  { 725, -0.2720676064491272, 47, 1682 },
  { 313, -0.1145435068756342, 13, 1683 },
  { 509, -0.38448579609394073, 35, 1684 },
  { 522, -0.44059500098228455, 12, 37 },
  { 246, -0.3223136216402054, 1686, 12 },
  { 232, -0.25975511968135834, 47, 20 },
  { 811, -0.24041538685560226, 1688, 1718 },
  { 406, -0.14714041352272034, 1689, 1709 },
  { 91, -0.6617402136325836, 1690, 1691 },
  { 931, -0.5226318836212158, 7, 20 },
  { 647, -0.5621928870677948, 13, 1692 },
  { 1021, 0.7181639075279236, 1693, 47 },
  { 215, -0.2857292592525482, 7, 1694 },
  { 511, -0.407273530960083, 1695, 1701 },
  { 174, -0.3522969186306, 1696, 1698 },
  { 998, -0.32016175985336304, 13, 1697 },
  { 214, -0.28731484711170197, 6, 5 },
  { 121, -0.22931991517543793, 20, 1699 },
  { 499, -0.14644942060112953, 1700, 20 },
  { 953, 0.19763247668743134, 35, 71 },
  { 270, -0.37058915197849274, 1702, 1703 },
  { 666, -0.11345891654491425, 7, 47 },
  { 763, -0.3200580030679703, 1704, 1706 },
  { 465, -0.007449466735124588, 1705, 20 },
  { 29, -0.5589863061904907, 12, 13 },
  { 218, -0.26606234908103943, 7, 1707 },
  { 135, -0.2660280466079712, 1708, 20 },
  { 773, -0.3123115599155426, 5, 12 },
  { 553, -0.2622371017932892, 1710, 1711 },
  { 733, -0.33603473007678986, 7, 71 },
  { 459, 0.15582987666130066, 1712, 1714 },
  { 2, -0.5776260495185852, 20, 1713 },
  { 925, 2.7486507892608643, 7, 6 },
  { 400, -0.08320628106594086, 1715, 1716 },
  { 351, -0.16816051304340363, 7, 20 },
  { 209, -0.09318801760673523, 71, 1717 },
  { 146, 0.17480399832129478, 7, 35 },
  { 533, -0.5298880040645599, 1719, 1720 },
  { 410, -0.3921283185482025, 13, 12 },
  { 463, 1.4879605770111084, 1721, 1751 },
  { 953, 2.112200975418091, 1722, 1749 },
  { 186, -0.1440485417842865, 1723, 1733 },
  { 678, -0.5555289685726166, 47, 1724 },
  { 727, -0.2321862280368805, 1725, 1726 },
  { 540, -0.5748665630817413, 47, 13 },
  { 620, 0.5810325145721436, 1727, 1732 },
  { 857, 0.013517889194190502, 1728, 37 },
  { 395, -0.48926621675491333, 1729, 1730 },
  { 669, -0.3706202507019043, 37, 35 },
  { 990, -0.5930190980434418, 1731, 20 },
  { 547, -0.6584968268871307, 13, 20 },
  { 194, -0.19078824669122696, 37, 6 },
  { 514, 0.18644606322050095, 1734, 1739 },
  { 7, 1.443716287612915, 1735, 20 },
  { 3, -0.26542261987924576, 35, 1736 },
  { 56, 0.6385354846715927, 1737, 71 },
  { 717, -0.072611253708601, 37, 1738 },
  { 549, -0.36183179914951324, 13, 47 },
  { 232, 0.21196480840444565, 1740, 1745 },
  { 402, 0.8214364647865295, 1741, 1744 },
  { 428, 4.569512605667114, 1742, 13 },
  { 58, 2.734743356704712, 1743, 71 },
  { 900, 2.0032334327697754, 47, 35 },
  { 990, 0.6308688372373581, 71, 47 },
  { 166, 0.7035253643989563, 1746, 47 },
  { 930, -0.29440028965473175, 1747, 37 },
  { 42, -0.20530176907777786, 12, 1748 },
  { 152, 0.5191856846213341, 35, 6 },
  { 374, 0.14164675027132034, 1750, 13 },
  { 815, -0.011638499796390533, 71, 35 },
  { 778, -0.28875732421875, 6, 1752 },
  { 739, -0.12600646913051605, 20, 35 },
  { 331, 0.2587239444255829, 1754, 1756 },
  { 793, 0.9796153903007507, 12, 1755 },
  { 967, 0.12515494227409363, 6, 35 },
  { 511, -0.19357483088970184, 1757, 1760 },
  { 212, 1.8354301452636719, 35, 1758 },
  { 536, -0.324465180747211, 37, 1759 },
  { 923, 4.930291831493378, 47, 12 },
  { 0, -0.15551091358065605, 1761, 1762 },
  { 405, 0.14820941537618637, 20, 37 },
  { 84, 2.020115554332733, 1763, 1765 },
  { 464, 1.4991579055786133, 37, 1764 },
  { 416, 2.6887001395225525, 47, 37 },
  { 395, 1.2098894119262695, 20, 47 },
  { 267, 0.32518891990184784, 1767, 1903 },
  { 679, -0.4789218008518219, 1768, 1788 },
  { 446, -0.6599514186382294, 1769, 1773 },
  { 1007, -0.2505251616239548, 1770, 1771 },
  { 43, 0.06398580968379974, 5, 6 },
  { 512, -0.7650484144687653, 1772, 6 },
  { 420, -0.7746192812919617, 13, 5 },
  { 550, 1.1544135808944702, 1774, 7 },
  { 860, -0.5817728042602539, 1775, 1784 },
  { 596, -0.6939297914505005, 5, 1776 },
  { 80, -0.43590351939201355, 1777, 1782 },
  { 874, -0.7422822415828705, 1778, 1780 },
  { 71, -0.057897914201021194, 1779, 12 },
  { 326, -0.35547277331352234, 7, 13 },
  { 620, -0.6309337019920349, 5, 1781 },
  { 685, -0.6100180745124817, 6, 5 },
  { 916, -0.5025955438613892, 1783, 20 },
  { 368, -0.6452886760234833, 7, 13 },
  { 951, -0.5376345813274384, 1785, 1787 },
  { 590, -0.3265167772769928, 6, 1786 },
  { 689, -0.4430515915155411, 13, 5 },
  { 1003, -0.49919961392879486, 71, 5 },
  { 61, 0.04124860465526581, 1789, 1869 },
  { 393, -0.08194861561059952, 1790, 1850 },
  { 410, -0.5523954629898071, 1791, 1792 },
  { 510, -0.23944873362779617, 7, 12 },
  { 1, -0.3335212618112564, 1793, 1828 },
  { 342, -0.2426154538989067, 1794, 1818 },
  { 887, -0.48892834782600403, 1795, 1797 },
  { 4, -0.7462170422077179, 1796, 13 },
  { 838, -0.4790744483470917, 6, 37 },
  { 352, -0.12089694663882256, 1798, 12 },
  { 11, -0.584965169429779, 1799, 1805 },
  { 101, -0.45492619276046753, 1800, 1804 },
  { 182, -0.37310487031936646, 1801, 37 },
  { 582, -0.5955526232719421, 1802, 1803 },
  { 797, -0.3734302818775177, 6, 7 },
  { 401, -0.4299132972955704, 12, 20 },
  { 539, -0.708901435136795, 7, 35 },
  { 41, -0.19634543359279633, 1806, 1815 },
  { 522, -0.17685798555612564, 1807, 1813 },
  { 940, -0.513214111328125, 1808, 1810 },
  { 900, -0.37146347761154175, 6, 1809 },
  { 618, -0.5352847129106522, 5, 7 },
  { 7, -0.7458650171756744, 20, 1811 },
  { 347, -0.5668264925479889, 7, 1812 },
  { 1007, -0.5939408987760544, 71, 35 },
  { 7, -0.3885063976049423, 13, 1814 },
  { 566, 0.34143713116645813, 47, 20 },
  { 76, 0.03004595637321472, 1816, 6 },
  { 541, 0.7799074947834015, 1817, 7 },
  { 479, -0.5477423965930939, 20, 5 },
  { 42, -0.25368310511112213, 20, 1819 },
  { 963, -0.2152961939573288, 1820, 1826 },
  { 122, 0.16140730469487607, 1821, 13 },
  { 94, -0.07010765001177788, 1822, 1825 },
  { 604, 0.5034401006996632, 1823, 20 },
  { 538, 1.0460067093372345, 35, 1824 },
  { 745, -0.3130360245704651, 35, 7 },
  { 780, -0.3818903863430023, 7, 71 },
  { 640, -0.2855421304702759, 13, 1827 },
  { 523, -0.6524090766906738, 35, 12 },
  { 1016, -0.5428251624107361, 1829, 1834 },
  { 848, -0.6022008657455444, 1830, 1831 },
  { 411, -0.4214766174554825, 7, 47 },
  { 402, -0.3139047771692276, 1832, 1833 },
  { 9, -0.08962416648864746, 12, 20 },
  { 33, -0.5995654761791229, 12, 47 },
  { 297, -0.2744959145784378, 1835, 1840 },
  { 44, -0.6972822546958923, 1836, 1837 },
  { 693, -0.5531866550445557, 12, 7 },
  { 198, -0.2966076582670212, 1838, 12 },
  { 531, 0.08585263788700104, 1839, 13 },
  { 148, -0.3623284697532654, 47, 71 },
  { 2, -0.010325839160941541, 1841, 1845 },
  { 967, -0.6578402519226074, 13, 1842 },
  { 404, -0.22270380705595016, 1843, 71 },
  { 882, -0.21349087357521057, 20, 1844 },
  { 147, 0.005466975271701813, 35, 20 },
  { 411, -0.370998814702034, 1846, 1847 },
  { 201, -0.1187668964266777, 35, 12 },
  { 993, -0.4658764898777008, 47, 1848 },
  { 941, -0.3946629464626312, 20, 1849 },
  { 915, -0.3394647538661957, 6, 37 },
  { 1021, 0.2318374067544937, 1851, 1859 },
  { 285, -0.25652021914720535, 1852, 1857 },
  { 6, 0.0647382028400898, 1853, 1856 },
  { 594, 0.046569688245654106, 1854, 20 },
  { 939, -0.43811236321926117, 35, 1855 },
  { 327, -0.015456260647624731, 71, 47 },
  { 101, -0.21018853783607483, 47, 7 },
  { 560, -0.40425607562065125, 1858, 12 },
  { 413, 0.32234568893909454, 13, 6 },
  { 901, 0.35295434296131134, 1860, 1864 },
  { 1000, 0.26304369885474443, 1861, 1862 },
  { 953, -0.46204639971256256, 20, 47 },
  { 439, 0.10402445122599602, 1863, 6 },
  { 947, -0.41319769620895386, 35, 37 },
  { 607, 0.3275183290243149, 1865, 37 },
  { 508, 0.2927902564406395, 12, 1866 },
  { 447, -0.28018245846033096, 35, 1867 },
  { 500, 0.7020203024148941, 47, 1868 },
  { 658, 0.16698073409497738, 71, 13 },
  { 79, 0.41035446524620056, 1870, 1892 },
  { 527, -0.7223550379276276, 12, 1871 },
  { 289, -0.04670926555991173, 1872, 1887 },
  { 414, 1.4047242999076843, 1873, 7 },
  { 504, 0.6178381145000458, 1874, 1883 },
  { 36, 0.24453093856573105, 1875, 1882 },
  { 395, 0.2612393647432327, 1876, 71 },
  { 422, 0.12870799005031586, 1877, 1881 },
  { 1001, 0.14349687844514847, 1878, 35 },
  { 875, 0.6983087435364723, 1879, 7 },
  { 565, -0.4001915752887726, 20, 1880 },
  { 207, -0.06781312637031078, 13, 37 },
  { 796, -0.3592113256454468, 71, 20 },
  { 12, -0.7464413344860077, 71, 20 },
  { 361, -0.20062405616044998, 13, 1884 },
  { 338, -0.10695149376988411, 7, 1885 },
  { 462, -0.2507584011182189, 6, 1886 },
  { 273, -0.10353073477745056, 47, 20 },
  { 649, -0.01672979397699237, 1888, 1890 },
  { 935, 0.011966531164944172, 6, 1889 },
  { 683, 0.14592281356453896, 47, 12 },
  { 851, 0.16620197147130966, 37, 1891 },
  { 981, 0.27042970806360245, 35, 13 },
  { 512, 0.6047784090042114, 1893, 1900 },
  { 981, 0.9196600615978241, 1894, 1898 },
  { 109, -0.31791408360004425, 1895, 1896 },
  { 311, -0.16918444633483887, 13, 20 },
  { 269, 0.05704852566123009, 71, 1897 },
  { 360, -0.028977572917938232, 6, 37 },
  { 789, -0.2598569542169571, 7, 1899 },
  { 602, -0.16867880336940289, 6, 35 },
  { 458, 1.3198410272598267, 47, 1901 },
  { 618, 0.6389929205179214, 71, 1902 },
  { 628, 1.416075974702835, 13, 35 },
  { 1023, -0.05005026236176491, 1904, 1907 },
  { 677, 0.6861009895801544, 35, 1905 },
  { 762, 2.134692430496216, 37, 1906 },
  { 86, 8.80965094268322, 35, 12 },
  { 1018, -0.4577011466026306, 1908, 1910 },
  { 515, 0.05140906572341919, 20, 1909 },
  { 664, 0.12759337574243546, 12, 71 },
  { 354, 1.9190253019332886, 1911, 20 },
  { 576, 2.362966239452362, 1912, 47 },
  { 249, 0.289289653301239, 1913, 37 },
  { 1000, -0.4151201695203781, 1914, 12 },
  { 636, 0.6055733263492584, 37, 47 },
  { 275, 0.643367201089859, 1916, 2042 },
  { 624, -0.6035829782485962, 1917, 1929 },
  { 363, -0.3984025865793228, 1918, 1924 },
  { 82, -0.09131931141018867, 1919, 7 },
  { 515, -0.6500363051891327, 1920, 1921 },
  { 579, -0.45450359582901, 5, 7 },
  { 31, -0.5056230872869492, 1922, 1923 },
  { 85, -0.7367640137672424, 6, 5 },
  { 252, -0.12754307687282562, 6, 13 },
  { 463, -0.4776314049959183, 1925, 1927 },
  { 923, -0.6236904561519623, 13, 1926 },
  { 544, -0.06723710149526596, 7, 12 },
  { 144, -0.6143969297409058, 1928, 5 },
  { 639, -0.6395651698112488, 5, 6 },
  { 89, 0.24543986469507217, 1930, 2014 },
  { 625, -0.5702697336673737, 1931, 1955 },
  { 192, -0.1190420538187027, 1932, 1954 },
  { 501, -0.7541060149669647, 12, 1933 },
  { 507, -0.4627043604850769, 1934, 1946 },
  { 541, -0.12261045351624489, 1935, 1944 },
  { 520, -0.6478677093982697, 12, 1936 },
  { 270, -0.3283712863922119, 1937, 20 },
  { 710, -0.3572758585214615, 1938, 37 },
  { 440, -0.716023862361908, 6, 1939 },
  { 334, -0.348876029253006, 1940, 35 },
  { 704, -0.2706281393766403, 1941, 1943 },
  { 408, -0.5593583285808563, 5, 1942 },
  { 226, -0.19332605600357056, 7, 12 },
  { 607, -0.44671234488487244, 13, 20 },
  { 268, -0.26534798741340637, 1945, 6 },
  { 855, -0.5580547153949738, 5, 12 },
  { 47, -0.3789442926645279, 1947, 1949 },
  { 800, -0.35844722390174866, 1948, 13 },
  { 669, -0.6206028163433075, 5, 7 },
  { 9, -0.24512574821710587, 1950, 1951 },
  { 163, -0.1867479830980301, 13, 20 },
  { 906, -0.5526456534862518, 1952, 7 },
  { 1005, -0.0368180051445961, 1953, 6 },
  { 90, -0.45719149708747864, 12, 5 },
  { 978, 0.36315439688041806, 12, 13 },
  { 452, -0.2976018041372299, 1956, 1986 },
  { 1021, 0.4672291427850723, 1957, 1984 },
  { 314, -0.3131600171327591, 1958, 1966 },
  { 131, -0.4304702877998352, 1959, 1964 },
  { 930, -0.5798516571521759, 1960, 1961 },
  { 663, -0.4358130991458893, 6, 35 },
  { 873, -0.4578251391649246, 13, 1962 },
  { 159, -0.31148408353328705, 1963, 35 },
  { 546, -0.18671197444200516, 12, 7 },
  { 809, -0.3198845088481903, 7, 1965 },
  { 363, -0.29393452405929565, 12, 20 },
  { 336, -0.32204729318618774, 1967, 1970 },
  { 698, -0.39991840720176697, 1968, 20 },
  { 554, -0.3480996936559677, 37, 1969 },
  { 61, -0.4096854701638222, 35, 12 },
  { 881, -0.11869975551962852, 1971, 1977 },
  { 428, 0.07150410674512386, 1972, 1976 },
  { 507, -0.4046994745731354, 35, 1973 },
  { 104, -0.3925861120223999, 35, 1974 },
  { 569, -0.5314189195632935, 12, 1975 },
  { 491, 0.20896148681640625, 47, 20 },
  { 813, -0.08296516165137291, 13, 71 },
  { 658, -0.003453058459854219, 1978, 1981 },
  { 931, -0.23743413388729095, 1979, 35 },
  { 775, -0.14913533255457878, 7, 1980 },
  { 552, 0.04244771599769592, 47, 37 },
  { 556, -0.3895816057920456, 20, 1982 },
  { 481, -0.22822530381381512, 12, 1983 },
  { 80, -0.33933959901332855, 37, 13 },
  { 377, 0.17571768909692764, 1985, 37 },
  { 940, 0.2168600708246231, 47, 35 },
  { 1021, 0.9793045520782471, 1987, 2012 },
  { 239, -0.12677619606256485, 71, 1988 },
  { 799, -0.3576938509941101, 1989, 1992 },
  { 6, -0.6875362992286682, 1990, 1991 },
  { 152, -0.6589196622371674, 5, 47 },
  { 973, 0.3146134093403816, 20, 71 },
  { 358, -0.36112312972545624, 1993, 1997 },
  { 919, -0.5629947185516357, 5, 1994 },
  { 697, -0.29493115842342377, 1995, 1996 },
  { 513, -0.19661056250333786, 20, 12 },
  { 634, 0.8626086115837097, 13, 7 },
  { 778, -0.057324277237057686, 1998, 2010 },
  { 83, 0.21733589470386505, 1999, 2008 },
  { 105, 0.3766815960407257, 2000, 6 },
  { 161, 0.04474095441401005, 2001, 2007 },
  { 181, -0.2716824561357498, 2002, 2005 },
  { 120, -0.2954886555671692, 20, 2003 },
  { 25, -0.6042214334011078, 71, 2004 },
  { 493, -0.2365611419081688, 7, 13 },
  { 357, -0.09938861802220345, 2006, 47 },
  { 134, -0.1356200948357582, 47, 35 },
  { 775, -0.2501286640763283, 71, 13 },
  { 657, 0.3524405211210251, 20, 2009 },
  { 821, -0.02608410269021988, 6, 35 },
  { 537, 0.527519628405571, 12, 2011 },
  { 568, -0.323885478079319, 37, 35 },
  { 479, -0.12445623427629471, 47, 2013 },
  { 222, -0.04316776618361473, 37, 47 },
  { 714, 0.18588247150182724, 2015, 2039 },
  { 27, 0.5326455384492874, 2016, 2032 },
  { 1012, 0.32802215218544006, 2017, 2025 },
  { 60, 0.18041950836777687, 2018, 2023 },
  { 49, -0.3515554815530777, 71, 2019 },
  { 980, -0.4400853365659714, 6, 2020 },
  { 463, -0.260289765894413, 35, 2021 },
  { 431, 0.005034834146499634, 2022, 20 },
  { 884, 0.29479648172855377, 12, 7 },
  { 336, -0.3473270535469055, 2024, 71 },
  { 423, 1.1896455883979797, 20, 7 },
  { 150, 0.47723010182380676, 2026, 2029 },
  { 405, 0.020389525219798088, 2027, 7 },
  { 921, -0.22140039131045341, 6, 2028 },
  { 473, -0.03233702480792999, 12, 13 },
  { 63, 0.6089184731245041, 2030, 71 },
  { 460, 0.7909132540225983, 35, 2031 },
  { 799, -0.08421069290488958, 6, 47 },
  { 524, 0.18353382498025894, 2033, 2037 },
  { 16, 0.15219563257414848, 35, 2034 },
  { 481, 0.7349660396575928, 37, 2035 },
  { 235, -0.2556317001581192, 71, 2036 },
  { 836, -0.10155461728572845, 12, 13 },
  { 209, 0.09395021758973598, 20, 2038 },
  { 236, 0.01578619610518217, 6, 47 },
  { 534, 0.10970256850123405, 2040, 13 },
  { 919, 0.3348204493522644, 2041, 47 },
  { 389, 0.7406747341156006, 12, 20 },
  { 0, -0.16350522637367249, 2043, 2048 },
  { 923, -0.19936958700418472, 6, 2044 },
  { 817, 0.7179228514432907, 35, 2045 },
  { 54, 4.117309322580695, 2046, 12 },
  { 775, 2.53804349899292, 2047, 20 },
  { 541, -0.4205913543701172, 37, 13 },
  { 56, 1.644222915172577, 2049, 2053 },
  { 428, 1.9978241324424744, 2050, 47 },
  { 715, 0.11996876448392868, 12, 2051 },
  { 518, -0.5089775025844574, 12, 2052 },
  { 811, 0.15387819707393646, 47, 37 },
  { 341, 0.667825311422348, 71, 47 },
  { 784, 0.4929569363594055, 2055, 2178 },
  { 341, -0.30661487579345703, 2056, 2077 },
  { 918, -0.674204021692276, 2057, 2059 },
  { 1009, -0.7268954813480377, 6, 2058 },
  { 1007, -0.8007510006427765, 6, 5 },
  { 458, -0.3944356441497803, 2060, 2073 },
  { 956, -0.16746416548267007, 2061, 2072 },
  { 112, -0.5153231918811798, 2062, 2066 },
  { 327, -0.18424125760793686, 6, 2063 },
  { 523, -0.45224595069885254, 2064, 5 },
  { 116, -0.48730437457561493, 2065, 13 },
  { 495, -0.49157723784446716, 7, 5 },
  { 497, -0.49962280690670013, 2067, 2070 },
  { 644, -0.5906030833721161, 2068, 12 },
  { 278, -0.305637925863266, 6, 2069 },
  { 686, -0.5027970671653748, 5, 13 },
  { 255, -0.28018882870674133, 2071, 13 },
  { 998, -0.7692136764526367, 5, 6 },
  { 28, -0.5321811586618423, 13, 7 },
  { 116, -0.4648408889770508, 2074, 2076 },
  { 382, -0.454145684838295, 2075, 5 },
  { 691, -0.5525079965591431, 12, 13 },
  { 717, -0.40438075363636017, 6, 5 },
  { 164, -0.15593796968460083, 2078, 2143 },
  { 415, -0.6374067664146423, 2079, 2086 },
  { 651, -0.6175183653831482, 2080, 2082 },
  { 301, -0.18066228926181793, 2081, 12 },
  { 222, -0.25112011283636093, 7, 6 },
  { 807, -0.2693254351615906, 2083, 2085 },
  { 425, -0.6380477249622345, 7, 2084 },
  { 398, -0.3047986626625061, 47, 7 },
  { 130, -0.4100939482450485, 13, 12 },
  { 8, -0.6190507411956787, 2087, 2105 },
  { 605, -0.2420276701450348, 2088, 2100 },
  { 817, -0.20959757268428802, 2089, 2093 },
  { 394, -0.41706348955631256, 2090, 2092 },
  { 116, -0.4075493961572647, 12, 2091 },
  { 374, -0.1686711683869362, 5, 35 },
  { 898, -0.15195169672369957, 47, 71 },
  { 473, -0.611936092376709, 2094, 2098 },
  { 464, -0.5052758008241653, 2095, 5 },
  { 411, -0.47225405275821686, 2096, 47 },
  { 357, -0.21185387670993805, 12, 2097 },
  { 1015, -0.7234236001968384, 20, 37 },
  { 372, -0.4704214483499527, 13, 2099 },
  { 1000, 0.6995636522769928, 12, 13 },
  { 514, -0.782413512468338, 2101, 2102 },
  { 802, -0.26805320382118225, 20, 12 },
  { 581, -0.2956763654947281, 35, 2103 },
  { 655, -0.32630541920661926, 2104, 71 },
  { 879, -0.35476213693618774, 47, 20 },
  { 908, -0.5001358687877655, 2106, 2108 },
  { 826, -0.34714820981025696, 13, 2107 },
  { 95, -0.5380273759365082, 37, 12 },
  { 417, -0.0660485178232193, 2109, 2132 },
  { 507, -0.35117073357105255, 2110, 2115 },
  { 161, -0.29584091901779175, 2111, 2112 },
  { 993, -0.0053019411861896515, 6, 5 },
  { 529, 0.6200474351644516, 2113, 2114 },
  { 408, -0.47020329535007477, 47, 35 },
  { 994, -0.2403722181916237, 13, 12 },
  { 834, -0.2983255535364151, 2116, 2131 },
  { 19, -0.24547481536865234, 2117, 2121 },
  { 301, -0.1729520782828331, 2118, 2119 },
  { 513, -0.5736962556838989, 13, 7 },
  { 624, -0.4026527553796768, 2120, 47 },
  { 176, -0.31291988492012024, 20, 35 },
  { 521, 0.02298320084810257, 2122, 2126 },
  { 896, -0.23826580494642258, 2123, 2124 },
  { 1, 0.4990359917283058, 20, 71 },
  { 894, -0.039003126323223114, 2125, 35 },
  { 664, -0.464402511715889, 12, 7 },
  { 936, -0.22612354904413223, 2127, 2130 },
  { 496, 0.031243846751749516, 2128, 6 },
  { 591, -0.47679825127124786, 20, 2129 },
  { 392, -0.5260398387908936, 13, 5 },
  { 868, -0.31432396173477173, 13, 7 },
  { 364, -0.277986079454422, 20, 13 },
  { 237, -0.34889858961105347, 2133, 2139 },
  { 75, 0.03428548760712147, 2134, 71 },
  { 515, 0.9037655889987946, 2135, 47 },
  { 74, -0.44614434242248535, 2136, 2137 },
  { 483, -0.09538688510656357, 12, 71 },
  { 934, -0.35082724690437317, 20, 2138 },
  { 532, -0.03197746444493532, 71, 7 },
  { 556, -0.10143837705254555, 2140, 2141 },
  { 354, -0.1638914719223976, 12, 37 },
  { 29, 1.0337452255189419, 2142, 6 },
  { 339, -0.40907369554042816, 20, 37 },
  { 405, 0.772253543138504, 2144, 2175 },
  { 797, -0.37139560282230377, 2145, 2147 },
  { 408, -0.2103060968220234, 2146, 71 },
  { 295, -0.26109717786312103, 35, 7 },
  { 313, -0.09381810203194618, 2148, 2159 },
  { 514, 0.1877581924200058, 2149, 2157 },
  { 557, -0.32440823316574097, 2150, 2151 },
  { 387, -0.1407090425491333, 6, 71 },
  { 705, -0.3528396338224411, 7, 2152 },
  { 869, 0.15609825775027275, 2153, 2156 },
  { 776, -0.34291619062423706, 35, 2154 },
  { 342, -0.12193337082862854, 13, 2155 },
  { 690, -0.03654558211565018, 47, 7 },
  { 44, 0.722124770283699, 20, 71 },
  { 834, -0.10088986903429031, 47, 2158 },
  { 521, 0.933715432882309, 71, 13 },
  { 901, -0.021757224574685097, 2160, 2168 },
  { 1014, -0.16638297587633133, 2161, 2165 },
  { 1008, 0.3349571004509926, 35, 2162 },
  { 835, -0.13860375434160233, 35, 2163 },
  { 969, 0.2856247276067734, 20, 2164 },
  { 538, 0.6904251649975777, 37, 6 },
  { 181, 0.4940836429595947, 2166, 6 },
  { 966, -0.22457198798656464, 47, 2167 },
  { 302, -0.08644826849922538, 7, 13 },
  { 477, 1.294079840183258, 2169, 35 },
  { 536, -0.49382205307483673, 2170, 2172 },
  { 61, 0.2992257624864578, 12, 2171 },
  { 455, -0.1438629748299718, 20, 7 },
  { 918, -0.10467246174812317, 37, 2173 },
  { 801, 0.6987112760543823, 2174, 35 },
  { 78, -0.2951100319623947, 12, 47 },
  { 893, 0.9209167957305908, 2176, 2177 },
  { 298, -0.26507630944252014, 7, 71 },
  { 33, 3.274818539619446, 47, 20 },
  { 275, 2.242246627807617, 2179, 37 },
  { 172, 0.7947335541248322, 2180, 2190 },
  { 240, 0.290118008852005, 2181, 2184 },
  { 655, 0.01636330783367157, 2182, 47 },
  { 319, -0.2575514391064644, 37, 2183 },
  { 354, -0.1359822265803814, 20, 71 },
  { 93, -0.32554304599761963, 2185, 2186 },
  { 836, 0.8301351070404053, 35, 47 },
  { 887, 0.23815489560365677, 2187, 2189 },
  { 712, 0.02173922723159194, 35, 2188 },
  { 364, 0.5651426911354065, 37, 47 },
  { 493, 0.1009160727262497, 12, 37 },
  { 964, 0.12288957834243774, 2191, 2192 },
  { 1023, -0.331077978014946, 20, 47 },
  { 762, 2.247543692588806, 2193, 35 },
  { 822, 0.5441350936889648, 71, 37 },
  { 835, -0.4702506512403488, 2195, 2208 },
  { 956, -0.3496544361114502, 2196, 2205 },
  { 1021, -0.5773601531982422, 2197, 2201 },
  { 560, -0.08225255087018013, 2198, 6 },
  { 302, -0.22262317687273026, 6, 2199 },
  { 19, 2.0126834511756897, 2200, 6 },
  { 173, -0.5933525860309601, 5, 6 },
  { 591, -0.009138301014900208, 2202, 20 },
  { 372, -0.5236835479736328, 6, 2203 },
  { 757, -0.2730659544467926, 2204, 12 },
  { 364, -0.4116588979959488, 13, 7 },
  { 334, -0.3793148547410965, 7, 2206 },
  { 747, -0.36318226158618927, 2207, 6 },
  { 184, -0.5993303656578064, 13, 71 },
  { 244, 0.5854881703853607, 2209, 2334 },
  { 413, -0.07869284600019455, 2210, 2288 },
  { 9, -0.6586487889289856, 2211, 2230 },
  { 405, -0.4200305938720703, 2212, 2224 },
  { 341, -0.3035947233438492, 2213, 2215 },
  { 161, -0.3423924893140793, 7, 2214 },
  { 356, -0.3172233998775482, 5, 13 },
  { 431, -0.6567700207233429, 2216, 2218 },
  { 361, -0.2765030413866043, 12, 2217 },
  { 693, -0.38800734281539917, 35, 20 },
  { 117, -0.5450586974620819, 47, 2219 },
  { 0, -0.3943818360567093, 2220, 12 },
  { 230, -0.2247101068496704, 20, 2221 },
  { 456, 0.10081323981285095, 2222, 13 },
  { 308, -0.3919276148080826, 7, 2223 },
  { 463, -0.5310008525848389, 6, 35 },
  { 491, -0.4980211406946182, 2225, 2228 },
  { 264, -0.2501046508550644, 2226, 47 },
  { 741, -0.3168587386608124, 2227, 35 },
  { 542, -0.558773472905159, 7, 20 },
  { 566, -0.20612996816635132, 12, 2229 },
  { 894, -0.09472574293613434, 5, 35 },
  { 302, -0.20508357137441635, 2231, 2256 },
  { 433, -0.23988357931375504, 2232, 2253 },
  { 836, -0.4805949330329895, 2233, 2238 },
  { 874, -0.7196445167064667, 6, 2234 },
  { 502, -0.3280838131904602, 6, 2235 },
  { 920, -0.5727172791957855, 13, 2236 },
  { 13, -0.08743024058640003, 5, 2237 },
  { 443, -0.5524809807538986, 12, 47 },
  { 938, -0.5172927677631378, 2239, 2247 },
  { 581, -0.5574322938919067, 2240, 2242 },
  { 790, -0.38066239655017853, 35, 2241 },
  { 851, -0.5809188783168793, 35, 7 },
  { 153, -0.49568723142147064, 2243, 20 },
  { 503, -0.01989521086215973, 2244, 35 },
  { 624, -0.5975298881530762, 5, 2245 },
  { 114, -0.33595867455005646, 13, 2246 },
  { 543, -0.14142154157161713, 6, 12 },
  { 136, -0.3990762382745743, 2248, 2249 },
  { 88, -0.6950389742851257, 7, 13 },
  { 891, -0.24800065159797668, 2250, 7 },
  { 902, -0.22631356120109558, 2251, 2252 },
  { 911, -0.2160324715077877, 20, 71 },
  { 265, -0.06405134126543999, 13, 6 },
  { 516, 0.6106563210487366, 2254, 2255 },
  { 95, 0.3327749967575073, 7, 13 },
  { 134, -0.21030956506729126, 13, 71 },
  { 898, 0.054225509986281395, 2257, 2281 },
  { 850, -0.3957391232252121, 2258, 2266 },
  { 249, -0.13887818157672882, 2259, 2261 },
  { 281, -0.19372014701366425, 2260, 5 },
  { 729, -0.3238793909549713, 7, 13 },
  { 870, -0.5019798576831818, 2262, 2265 },
  { 101, -0.4074867069721222, 2263, 47 },
  { 748, -0.1743839681148529, 2264, 35 },
  { 745, -0.2732076495885849, 20, 37 },
  { 464, 2.8175700306892395, 6, 20 },
  { 123, -0.2671032100915909, 2267, 2275 },
  { 432, -0.4038231521844864, 2268, 2273 },
  { 498, -0.12220616731792688, 2269, 20 },
  { 195, -0.18267318606376648, 2270, 2272 },
  { 506, -0.021623849868774414, 20, 2271 },
  { 976, -0.39923223853111267, 37, 35 },
  { 170, -0.01454218165599741, 12, 35 },
  { 939, -0.3319029211997986, 2274, 13 },
  { 818, -0.2739226967096329, 71, 37 },
  { 991, -0.4571469575166702, 2276, 2277 },
  { 264, -0.24327456951141357, 35, 7 },
  { 818, -0.31055380403995514, 47, 2278 },
  { 540, -0.22239474952220917, 2279, 20 },
  { 550, -0.1269700974225998, 2280, 35 },
  { 927, -0.1690525785088539, 37, 20 },
  { 381, -0.17981333285570145, 2282, 2284 },
  { 186, -0.2660549655556679, 2283, 12 },
  { 244, -0.24654821306467056, 13, 6 },
  { 397, -0.09310420975089073, 47, 2285 },
  { 893, 0.16370722651481628, 2286, 2287 },
  { 188, 0.1667960286140442, 7, 47 },
  { 855, 0.3627735823392868, 37, 12 },
  { 1022, 0.6244973540306091, 2289, 2322 },
  { 534, -0.09246175736188889, 2290, 2311 },
  { 270, -0.22325173020362854, 2291, 2305 },
  { 76, 0.026874782517552376, 2292, 2301 },
  { 879, -0.06499908119440079, 2293, 2299 },
  { 127, -0.13702690228819847, 2294, 2296 },
  { 790, -0.37328824400901794, 35, 2295 },
  { 938, 0.37776118516921997, 12, 71 },
  { 808, -0.3594110310077667, 2297, 2298 },
  { 314, -0.24220652878284454, 71, 47 },
  { 4, -0.26793088018894196, 35, 47 },
  { 339, -0.3123326525092125, 7, 2300 },
  { 260, -0.11108946055173874, 20, 13 },
  { 500, 1.2816329598426819, 2302, 20 },
  { 939, 0.7495556175708771, 71, 2303 },
  { 212, -0.23001305758953094, 47, 2304 },
  { 534, -0.3588764816522598, 12, 71 },
  { 190, -0.21559815108776093, 6, 2306 },
  { 50, -0.18252995610237122, 2307, 2308 },
  { 362, 0.6345126703381538, 37, 12 },
  { 514, -0.17946341156493872, 20, 2309 },
  { 1022, 0.23480024933815002, 71, 2310 },
  { 604, 0.3421071544289589, 37, 20 },
  { 137, -0.10612675920128822, 35, 2312 },
  { 591, 0.46126095950603485, 2313, 2319 },
  { 635, -0.23953156173229218, 13, 2314 },
  { 579, 0.6785587519407272, 2315, 20 },
  { 208, -0.10539224371314049, 7, 2316 },
  { 204, -0.17674969881772995, 71, 2317 },
  { 813, -0.07567569240927696, 2318, 37 },
  { 238, -0.22534599900245667, 20, 12 },
  { 987, 0.516289085149765, 2320, 35 },
  { 267, -0.13905976712703705, 2321, 71 },
  { 172, 0.46199931204319, 6, 35 },
  { 13, 0.08609999343752861, 2323, 2326 },
  { 635, 0.8528698682785034, 2324, 37 },
  { 511, 0.5060802325606346, 35, 2325 },
  { 618, -0.3415003716945648, 6, 47 },
  { 7, 1.0709317326545715, 2327, 2333 },
  { 8, -0.05160344019532204, 2328, 2330 },
  { 67, 0.4075441509485245, 2329, 47 },
  { 643, 2.7721489667892456, 12, 37 },
  { 945, 1.0575527250766754, 2331, 13 },
  { 196, -0.006008833646774292, 2332, 6 },
  { 914, 0.7036798000335693, 7, 37 },
  { 553, -0.3270720988512039, 71, 47 },
  { 996, -0.301678791642189, 2335, 2341 },
  { 703, 1.4823969006538391, 2336, 2340 },
  { 539, -0.5708335340023041, 2337, 2338 },
  { 945, 0.012559458613395691, 35, 12 },
  { 492, 0.7434573471546173, 2339, 13 },
  { 1013, 0.3571852222084999, 37, 47 },
  { 981, 0.10881969332695007, 6, 20 },
  { 718, 2.764780044555664, 2342, 2344 },
  { 427, 1.9689614176750183, 2343, 71 },
  { 489, -0.34463365375995636, 35, 37 },
  { 45, 0.8918377459049225, 47, 37 },
  { 331, -0.5441389679908752, 2346, 2358 },
  { 436, -0.47446584701538086, 2347, 2355 },
  { 513, -0.6248403191566467, 2348, 2349 },
  { 988, 3.2520353496074677, 5, 7 },
  { 11, 0.42995190620422363, 2350, 2354 },
  { 569, 0.40830114483833313, 2351, 2353 },
  { 420, -0.712668776512146, 2352, 5 },
  { 854, -0.5806829035282135, 6, 13 },
  { 978, 0.17444877326488495, 12, 13 },
  { 659, -0.6115770637989044, 13, 5 },
  { 944, -0.14378817519173026, 2356, 7 },
  { 477, -0.2389882504940033, 6, 2357 },
  { 584, 0.07928839325904846, 13, 5 },
  { 259, 0.3353930711746216, 2359, 2475 },
  { 393, -0.11012988910079002, 2360, 2424 },
  { 514, -0.4242947995662689, 2361, 2393 },
  { 343, -0.635380357503891, 2362, 2369 },
  { 51, -0.6962996125221252, 2363, 2365 },
  { 308, -0.41437552869319916, 7, 2364 },
  { 387, -0.48445582389831543, 13, 47 },
  { 805, -0.4018126279115677, 6, 2366 },
  { 120, -0.6019002199172974, 13, 2367 },
  { 250, -0.3244416266679764, 2368, 6 },
  { 750, -0.3215256333351135, 13, 5 },
  { 575, -0.6582317054271698, 2370, 2373 },
  { 557, -0.637330561876297, 7, 2371 },
  { 403, -0.40689530968666077, 2372, 35 },
  { 262, -0.011660300195217133, 6, 47 },
  { 501, -0.2565160095691681, 2374, 2384 },
  { 1011, -0.6656548976898193, 2375, 2377 },
  { 387, -0.268390491604805, 2376, 71 },
  { 106, -0.33238863945007324, 7, 20 },
  { 596, -0.6601150035858154, 37, 2378 },
  { 520, -0.10066284239292145, 2379, 2380 },
  { 862, 0.2550408151000738, 20, 5 },
  { 525, -0.425777405500412, 35, 2381 },
  { 539, -0.24346914142370224, 37, 2382 },
  { 925, -0.0833021979779005, 6, 2383 },
  { 705, -0.24376527220010757, 7, 20 },
  { 40, 0.292119525372982, 2385, 2391 },
  { 597, -0.4710383415222168, 2386, 2389 },
  { 893, -0.5253244936466217, 20, 2387 },
  { 63, -0.5594799965620041, 5, 2388 },
  { 262, -0.2427256777882576, 7, 12 },
  { 601, 0.17624357342720032, 13, 2390 },
  { 601, 0.725657731294632, 20, 12 },
  { 596, 0.08153409883379936, 20, 2392 },
  { 220, -0.22730133682489395, 7, 12 },
  { 913, -0.47047488391399384, 2394, 2406 },
  { 7, -0.5387698709964752, 2395, 2398 },
  { 699, -0.4729985147714615, 2396, 12 },
  { 505, -0.8411535322666168, 12, 2397 },
  { 186, -0.3396691232919693, 7, 47 },
  { 24, -0.17803899571299553, 2399, 2404 },
  { 861, -0.04205812327563763, 2400, 7 },
  { 588, -0.5678270161151886, 12, 2401 },
  { 679, -0.38282494246959686, 13, 2402 },
  { 647, -0.11667989939451218, 2403, 20 },
  { 544, -0.4496033489704132, 35, 47 },
  { 777, -0.10246328264474869, 6, 2405 },
  { 746, -0.2017607633024454, 5, 20 },
  { 314, -0.31479543447494507, 2407, 2414 },
  { 1008, -0.6363642811775208, 2408, 2410 },
  { 944, -0.45493684709072113, 2409, 35 },
  { 610, -0.4361876994371414, 12, 7 },
  { 1013, -0.5316530764102936, 2411, 2412 },
  { 702, -0.47171375155448914, 12, 71 },
  { 639, 0.45681025087833405, 2413, 20 },
  { 759, -0.10520815849304199, 13, 7 },
  { 5, -0.381409153342247, 2415, 2417 },
  { 873, 0.05414918437600136, 35, 2416 },
  { 606, -0.14551197364926338, 47, 20 },
  { 45, -0.14168988168239594, 2418, 2422 },
  { 975, -0.3772432804107666, 2419, 12 },
  { 484, -0.340937003493309, 2420, 20 },
  { 405, -0.19045983999967575, 47, 2421 },
  { 331, -0.04855698347091675, 71, 35 },
  { 759, -0.06407005153596401, 13, 2423 },
  { 27, -0.37555620819330215, 37, 20 },
  { 1, 0.5210760831832886, 2425, 2460 },
